tree
version=v4
num_class=1
num_tree_per_iteration=1
label_index=0
max_feature_idx=75
objective=regression
feature_names=Column_0 Column_1 Column_2 Column_3 Column_4 Column_5 Column_6 Column_7 Column_8 Column_9 Column_10 Column_11 Column_12 Column_13 Column_14 Column_15 Column_16 Column_17 Column_18 Column_19 Column_20 Column_21 Column_22 Column_23 Column_24 Column_25 Column_26 Column_27 Column_28 Column_29 Column_30 Column_31 Column_32 Column_33 Column_34 Column_35 Column_36 Column_37 Column_38 Column_39 Column_40 Column_41 Column_42 Column_43 Column_44 Column_45 Column_46 Column_47 Column_48 Column_49 Column_50 Column_51 Column_52 Column_53 Column_54 Column_55 Column_56 Column_57 Column_58 Column_59 Column_60 Column_61 Column_62 Column_63 Column_64 Column_65 Column_66 Column_67 Column_68 Column_69 Column_70 Column_71 Column_72 Column_73 Column_74 Column_75
feature_infos=[-0.22279786905657895:1.3939480475829868] [-0.58227999099243832:1.4989342364966451] [-0.60456000944695498:1.4594999624292169] [-0.59717982677178383:1.442757898041573] [-0.70116358736938666:1.5435610796525121] [-0.75930302291914509:1.5322543263829767] [-0.85908909445940151:1.764739122973662] [-0.8869165493745671:3.1191493445583118] [-0.9056469011362549:7.2905980780726196] [-0.18185300737974541:0.17862553741906625] [0.00069195020201843148:0.63029951796793626] [-0.12078589702612277:0.093356509900945808] [0.0026301946984982256:0.42069569769875598] [-0.067819833006589753:0.044243330671270391] [0.0078135939610961946:0.28306495890977051] [-0.031105197840001309:0.01614200445690164] [0.011520836080611737:0.16592326812397992] [-0.017298644696170908:0.011235291049811252] [0.013529433607713208:0.19709586952908775] [-0.0093679014419211157:0.0083933417105759231] [0.015191857031187129:0.14594242372046831] [-4.4135525805118547:4.5284883890475385] [-3.7346553490947438:4.3488669824043571] [-7.376564635922481:7.6814410030318099] [-5.1029139936840116:7.7285483212137134] [-12.649068037662605:13.355317433235033] [-6.4872326823968649:14.924408991980494] [-0.47361863686481931:0.52399768970833027] [-0.39365481619702247:0.38129540561782993] [-0.5372140548696458:1.1751048879270485] [-0.48929445962935703:0.91045554855770927] [-0.58881131448202484:1.8085699355170437] [-0.54208937913706556:1.4859424015503722] [-0.54859542551484985:2.3008689927343959] [-0.53975568655057526:2.0993162195480108] [-0.65469153287894277:5.1208232698397387] [-0.60823216555750648:5.0017428111283619] [-0.58104643972495174:0.45077472307325039] [-0.59392057339184512:0.37223597375458084] [-0.76454718144771827:0.85644637862102369] [7.9049060304705137:93.356851585842392] [17.313831554749896:87.703508556969624] [2.2367296622413022:96.915408536884044] [-0.72777102221762002:0.13980923009920049] [-0.75251971558014485:0.1314721002387057] [-0.24914935627923951:0.10605072865924932] [-0.59717982677178383:1.442757898041573] [-0.70116358736938666:1.5435610796525121] [-0.75930302291914509:1.5322543263829767] [-99.999999999845855:0] [-99.999999999921556:0] [0:99.999999999863277] [0.16114348358755301:99.875611588779179] [-47.609951916757232:61.630805402004057] [0.015997483461030575:0.20697336309326553] [0.018018891561539185:0.17901531263296022] [0.15488636340985226:1.4164954777410135] [0.19524202356843068:1.1117242930159614] [0.12403695880017976:4.493516916911819] [0.18288760298903248:2.6339502250508491] [0.241163253946615:2.3167641533902383] [0.020710253829451627:2.4691055920669314] [-0.41842403995596422:1.5517456922741615] [-0.043154757574791029:0.33979458075611912] [-0.31374384481143691:1.3939480475349402] [-1:3581] [-1:1569] [0:12.19308323232703] [-0.22162537194784446:7.0632883601675482] [-0.6391374070943131:0.58561963915205983] [-0.41334688732871111:1.6281306433294052] [0:1] [0.083333333333333329:1] [0.25:1] [0:1] [352:9264]
tree_sizes=3738 3200 2629 4309 2371 2658 3258 4260 5080 2564 2559 2757 4258 2373 4266 2840 3740 2764 4157 3088 3559 2304 3484 2310 2294 3104 2696 2815 3412 3128 2273 1865 3368 3721 2479 4182 3756 3835 3917 3720 2256 2592 1832 2304 3476 3400 2675 3128 3823 3350 2880 3618 3558 3667 3398 2861 2928 3026 2905 3391 2492 3051 3111 4232 2406 2745 2550 2828 2759 4309 3591 2456 2634 3504 2571 2720 3748 4270 2932 3480 3310 3200 3449 2892 3096 1149 2423 3204 3395 3447 3155 2808 3156 3206 2728 2378 1844 2485 2780 2149 1781 1946 1870 1864 1765 4362 3318 3534 3370 3675 3584 3417 1710 2771 2405 3821 2516 5365 2247 4119 3267 4311 4184 2811 3887 3428 3214 4565 2440 3141 2520 4282 3384 3655 2802 4400 3418 2722 1720 4291 3975 3656 3148 4802 4032 2698 3627 3216 2778 2291 1349 2770 1525 2802 1536 2236 2705 2579 1688 2339 3251 2784 3580 2689 2362 2243 2140 1797 1495 1959 2904 2813 4256 3403 4073 4002 4947 3738 5434 3949 2348 3206 2040 2064 1949 1806 2718 2163 2448 3320 3708 3347 2498 4012 2329 2098 3566 3729 2528 3924 3021 2654 3419 3212 2836 2881 4688 3076 3047 4941 3879 2994 3129 3225 2977 4583 4938 4682 3480 4864 2619 1684 2546 2350 2151 2074 1249 1167 1338 4426 2424 2425 3674 5357 3750 2588 3264 3375 2752 3170 4057 4085 4110 2590 3720 2297 3863 1591 2036 3613 4555 2728 3656 2924 2134 2105 2168 2089 2237 2083 3048 3712 4753 3635 3253 4025 5895 3753 3819 5359 3311 2717 1982 3090 2909 4237 3628 2790 2994 2910 5593 3290 3141 2820 3121 5866 5814 5049 1936 5820 1508 2340 1433 2284 1796 1891 1883 1352 2126 2302 3633 3342 2722 3459 3670 3874 2714 3262 2953 3048 2098 1440 2554 2471 3760 1416 2685 2824 2600 1286 3235 3020 2269 1641 3539 1804 2740 2007 1927 2335 4855 3879 3914 4384 4507 2345 2983 2910 1879 2349 2851 1268 3510 1682 1162 2332 2874 3043 2118 4086 3050 3745 2373 2345 3640 5078 4869 3270 2475 4344 4253 3810 2125 2928 2450 2349 2215 2173 1974 3255 1725 2079 1701 2159 1179 4217 4585 4482 4220 3267 3123 3051 2491 4360 3401 1894 2198 2620 3016 2983 1166 1980 1308 1542 1191 2800 2826 2635 3269 2342 2416 2459 2255 4656 2856 3922 2195 3386 3416 2073 5245 5001 4877 2703 4589 3503 3445 3221 2547 3720 3865 4412 3376 3074 3477 4128 2535 3410 3205 2350 4589 3641 4580 4036 3754 1956 1528 1703 2884 2386 2987 4509 3054 2710 4409 2879 2693 2058 1878 3171 965 4569 1882 2075 1269 2998 2847 4312 1635 1761 3654 3847 3468 4079 3073 4912 4562 3483 3246 3608 2992 3570 3316 3671 3316 2467 3088 1992 1344 1849 2318 2253 3766 2388 4292 4362 1351 4877 2460 3550 3816 4534 4220 3796 3399 1897 3491 1843 3820 2114 3522 3208 4293 3204 3558 2204 1905 1344 2487 1873 2508 2912 3105 1468 2637 2678 3125 2690 3601 3828 4120 3409 3686 2690 2477 4535 3386 2232 4007 3218 2839 3411 1934 1837 2154 2983 2456 3081 3119 3105 3460 3426 3971 2904 4777 3746 2660 3294 3195 2946 4662 2523 3191 3068 3315 1679 2347 1974 2821 2536 3610 3691 3892 2282 3156 2752 3853 3124 3802 3923 4705 2878 5056 4998 4634 1944 2198 1881 2569 3462 4216 3637 2274 3191 2497 1962 1340 2584 1233 1383 1393 2167 2835 2753 1908 2153 1612 1554 1752 3241 4450 3900 3348 5795 3059 2188 3165 3605 2172 2115 2902 3559 3335 3070 1675 2662 3287 4144 4051 3329 4406 4390 3696 4006 4131 1407 2877 2642 2440 1216 2686 2887 2350 2218 2413 3155 1932 3183 4082 2531 2281 4171 2266 4034 2311 2282 2657 3378 2759 4123 3049 3338 2346 4721 2471 2879 2938 2696 3763 3237 3190 3163 5692 1249 2997 2494 2871 2435 2880 2738 4016 2033 2222 1950 1903 1334 1308 3229 1848 1512 1335 1999 2344 3271 1677 4702 2420 3038 3149 2777 1725 3263 4723 4092 3330 2949 2283 1927 1594 2075 2358 2003 3239 3328 4794 3160 3186 3141 3368 2279 2725 1967 1908 2090 3571 1352 3343 1945 1489 1698 2285 1653 3108 2100 2600 4502 4560 4068 4291 4027 2590 4556 4267 2993 2343 3325 3238 3396 3654 4314 3476 2606 2921 3650 3137 3935 3017 2660 3897 4456 1886 4989 5038 4540 4797 4799 2889 3372 3960 3522 3528 5447 5475 4484 5188 2141 2614 3314 3007 3079 3854 2656 3312 3559 2910 4677 4997 5216 4450 3623 5794 5595 5769 5109 4939 1965 1658 3399 1836 4050 5204 4335 2435 4959 3107 4330 2699 2674 2050 4403

Tree=0
num_leaves=41
num_cat=0
split_feature=16 57 18 25 25 8 18 74 69 36 38 25 7 38 68 68 68 56 36 69 54 61 38 36 57 38 38 16 8 74 61 14 72 8 52 1 31 23 23 18
split_gain=9.5575 2.55504 2.4249 3.03399 2.37501 2.36236 2.07373 4.35026 1.64101 1.39551 3.41709 1.25043 1.15278 1.11076 1.11073 1.25831 1.07965 1.0591 1.03396 1.22823 0.887641 0.705851 0.661254 0.597517 0.576801 0.507489 0.500343 0.565472 0.494922 0.493474 0.443213 0.301433 0.283514 0.274105 0.216915 0.125427 0.115191 0.102924 0.0805213 0.0401706
threshold=0.061887406573949595 0.95525992254731029 0.026333941897315472 1.7924174049023363 -0.107976424008664 0.29492504654854651 0.03060295406512856 0.067123287671232892 0.25849124936940243 0.30443691663311639 -0.065955894065954743 1.4699196104838841 0.068244927691896287 -0.042930711232696199 0.58348016746533138 1.1349912659975925 0.72268463743275457 0.36231892485943629 0.092501791766031252 -0.02432731495169187 0.089965228176983117 0.081288134305892809 -0.023254574186667151 0.34601578152920182 0.34015838250948355 0.030337346172597538 0.031792981572531083 0.020405381164890133 0.57807357171159945 0.70821917808219192 0.51539568996383744 0.022764549391478942 0.29166666666666669 0.68986462480927657 50.54667156528896 0.00718808336570509 0.019204092017014566 0.35627341619379937 1.0070355235511494 0.018867758578514273
decision_type=2 2 2 2 2 2 2 2 2 2 2 2 2 2 2 2 2 2 2 2 2 2 2 2 2 2 2 2 2 2 2 2 2 2 2 2 2 2 2 2
left_child=2 4 14 6 17 13 7 -4 9 10 -8 -11 -10 -5 26 16 -16 -2 19 -9 35 25 -3 -20 28 32 27 36 -23 -26 -19 37 -17 -7 -27 -6 39 -29 -28 -1
right_child=1 22 3 5 20 33 8 18 12 11 -12 -13 -14 -15 15 21 -18 30 23 -21 -22 24 -24 -25 29 34 38 31 -30 -31 -32 -33 -34 -35 -36 -37 -38 -39 -40 -41
leaf_value=0.0043559195069088723 0.0083146120600217505 0.0093527666521457664 -0.0056162530545885193 0.011511990033222889 -0.0029851497928932661 0.008436303486094001 0.0030107466713954045 0.0028297682310289025 0.0072822019995975491 0.0077396806322970373 0.0072047989011502561 0.012577749838619571 0.015296288025455591 0.018648133601330941 0.0092699048922038514 0.0081363236871542892 0.016882541238083026 -0.00062302174828751753 0.0077719024064153309 0.0064287336308021369 0.0010196811486530497 0.0080515222297866552 0.0041409813848487971 0.0041164885169053282 0.0093587313401290294 0.0065636901544940613 0.0055892943097133841 0.010823080329257469 0.0062752708519287414 0.0072102733068482713 0.0045399550561777838 0.0063514166985076193 0.011299643840580026 0.0045904816042110462 0.0093500082706154206 -0.0061953898590965274 0.0071235671768252098 0.0086593089595176347 0.0033520917177012237 0.0059396168086869759
leaf_weight=36 33 39 32 57 50 35 219 171 30 457 859 54 37 32 41 34 30 34 223 175 51 494 49 49 416 46 37 39 196 129 31 34 150 31 52 30 44 56 34 41
leaf_count=36 33 39 32 57 50 35 219 171 30 457 859 54 37 32 41 34 30 34 223 175 51 494 49 49 416 46 37 39 196 129 31 34 150 31 52 30 44 56 34 41
internal_value=0.00712948 0.0021011 0.00749503 0.00687363 0.000430676 0.0109328 0.00659933 0.00516343 0.00716121 0.00696899 0.00635524 0.00825778 0.0117582 0.0141215 0.00829766 0.00862341 0.0125379 0.00401362 0.00572842 0.00464066 -0.0022224 0.00843788 0.00648471 0.00712355 0.00812462 0.00979833 0.00669551 0.0073158 0.00754257 0.00885581 0.00178549 0.00870742 0.0107323 0.00667422 0.00801233 -0.00424157 0.00585687 0.0095821 0.00447197 0.00515765
internal_weight=4687 317 4370 2461 229 155 2306 650 1656 1589 1078 511 67 89 1909 1588 71 98 618 346 131 1517 88 272 1235 282 321 250 690 545 65 129 184 66 98 80 121 95 71 77
internal_count=4687 317 4370 2461 229 155 2306 650 1656 1589 1078 511 67 89 1909 1588 71 98 618 346 131 1517 88 272 1235 282 321 250 690 545 65 129 184 66 98 80 121 95 71 77
is_linear=0
shrinkage=1


Tree=1
num_leaves=34
num_cat=0
split_feature=16 39 60 43 36 38 72 23 57 33 16 23 54 68 68 69 7 72 60 23 15 44 72 61 72 72 21 12 33 39 30 57 14
split_gain=8.99723 3.24317 2.0784 2.2454 1.72962 3.15664 4.71974 3.26137 1.9988 1.55921 1.47954 1.43792 1.25848 1.12271 1.52161 1.10618 1.20471 1.14321 0.838431 0.598515 0.518628 0.456677 0.430701 0.414146 0.394828 0.597738 0.386297 0.383187 0.354223 0.239989 0.238507 0.0446768 0.0412888
threshold=0.061887406573949595 -0.22885362823697827 0.41879675612103923 0.08041091048497255 0.32912091406795069 -0.052648052967504848 0.20833333333333334 0.12342539880851484 0.7930062056856495 0.0084826893927713049 0.033508909070171129 -0.22379909776215676 0.089965228176983117 0.56392942809405222 1.597360876393928 0.23967851310846591 0.56100348110446141 0.70833333333333337 2.260951872635681 -0.041175218204560916 -0.0025743126873128798 0.0013049867470079307 0.45833333333333343 0.052663751658181407 0.70833333333333337 0.29166666666666669 0.031031408338862688 0.025867088715307674 0.0468366990808693 0.11923189679862613 0.072557874558064075 0.27864197953805064 0.037112872136119031
decision_type=2 2 2 2 2 2 2 2 2 2 2 2 2 2 2 2 2 2 2 2 2 2 2 2 2 2 2 2 2 2 2 2 2
left_child=2 12 13 4 5 6 7 -4 11 -3 -8 22 20 28 -15 17 -17 -7 -13 -10 32 23 -6 -16 25 -23 -26 -11 31 -25 -14 -1 -2
right_child=1 9 3 -5 8 15 10 -9 19 27 -12 18 30 14 21 16 -18 -19 -20 -21 -22 24 -24 29 26 -27 -28 -29 -30 -31 -32 -33 -34
leaf_value=-0.0021271187984026395 -0.012865899003276201 -0.0052844104947731459 -0.017673389967530963 0.0059682881173356772 -0.0037375096879204437 0.00026247541187933269 0.00010603809182948132 -0.0043006644925967915 0.0086854908779327167 0.003450505055984196 -0.0039169294602821123 0.0021860658889259446 -0.0060429240246053766 0.0079157658274694575 0.0055321295106800922 0.00097029108348626865 0.0075702686547945543 -0.0014393785997283445 -0.002166795554868216 0.0030669515289542238 -0.0064480268576049375 0.00027007433340264482 -0.00058443050879686688 0.00095188928947916875 -0.0011914063483541169 0.0019809293441268262 0.00095274467245112121 -0.00060374950400175851 0.00026364554553725921 0.0026330901291938772 -0.002478696271387297 -0.0040250497849334708 -0.010135441602111977
leaf_weight=35 32 56 30 53 61 981 194 38 35 37 141 307 54 32 32 133 31 555 45 38 30 299 116 145 127 496 186 46 48 181 30 31 32
leaf_count=35 32 56 30 53 61 981 194 38 35 37 141 307 54 32 32 133 31 555 45 38 30 299 116 145 127 496 186 46 48 181 30 31 32
internal_value=5.73045e-06 -0.00487302 0.000360425 -0.000138789 -0.000259772 -0.000666551 -0.00305364 -0.0102617 0.00115615 -0.00141103 -0.00157892 0.000507284 -0.00755733 0.00121636 0.00143585 -9.87609e-05 0.00223998 -0.000350553 0.00162061 0.00581001 -0.00997267 0.00129183 -0.00168952 0.00222997 0.000985828 0.00134136 7.30694e-05 0.00116945 -0.00164031 0.00189504 -0.00481012 -0.0030687 -0.0115654
internal_weight=4687 317 4370 2758 2705 2103 403 68 602 139 335 529 178 1612 1498 1700 164 1536 352 73 94 1466 177 358 1108 795 313 83 114 326 84 66 64
internal_count=4687 317 4370 2758 2705 2103 403 68 602 139 335 529 178 1612 1498 1700 164 1536 352 73 94 1466 177 358 1108 795 313 83 114 326 84 66 64
is_linear=0
shrinkage=0.03


Tree=2
num_leaves=28
num_cat=0
split_feature=16 57 75 55 57 25 18 23 18 55 34 72 75 68 75 56 61 35 61 33 69 68 57 41 45 56 53
split_gain=8.47186 2.34986 2.29003 7.88943 1.87279 1.81453 2.2304 1.61017 1.43501 1.25754 1.22834 1.25714 3.85114 0.898251 1.24432 0.773321 0.634589 0.580594 0.571609 0.569083 0.430658 0.390673 0.369518 0.226985 0.207677 0.202952 0.0363948
threshold=0.061887406573949595 0.97377649765687646 836.50000000000011 0.044539267866163565 0.31310540950813603 1.7924174049023363 0.025914368937057706 1.5342806734899432 0.060177985391923879 0.10998387711046574 0.33752227152728892 0.29166666666666669 7688.5000000000009 0.61693915851404413 4642.5000000000009 0.92254191740147029 0.079262458808072228 0.5883846948485737 0.20526427419473933 0.0084826893927713049 0.18293248000613169 0.2053909349448062 0.93408061092665462 57.854278582045787 0.014511229882366106 0.5021417487520744 1.1065081215778287
decision_type=2 2 2 2 2 2 2 2 2 2 2 2 2 2 2 2 2 2 2 2 2 2 2 2 2 2 2
left_child=2 4 3 -1 -2 6 13 8 -7 17 11 12 -8 20 -15 -13 -16 22 -5 -3 21 -4 -6 26 25 -20 -9
right_child=1 19 5 18 9 7 10 23 -10 -11 -12 15 -14 14 16 -17 -18 -19 24 -21 -22 -23 -24 -25 -26 -27 -28
leaf_value=-0.016736823846481237 -0.00028627755573890979 -0.0029403657866554833 0.001783280102187707 -0.0034691537544808112 -0.0087451268758644354 0.010607271524295754 0.0022699186661144575 0.0029757547566002392 0.0019933275474566165 -0.0031975948076244736 0.004660217886930015 -0.00072252789141466717 -0.0033612591916008933 0.0058202266890336482 0.0026026472498688544 -0.0050644645704631137 0.00095936119928654261 -0.011212612243072372 0.00037175738845631433 0.0024189923214784212 0.0020259176793646829 -0.0014247097937878585 -0.004631544546879366 -0.00066627716468851061 -0.000680857607915135 0.0038468884218953916 0.0012395976570147116
leaf_weight=31 42 32 40 30 57 41 423 31 32 52 44 1548 147 56 260 38 1218 57 31 40 55 209 37 41 31 34 30
leaf_count=31 42 32 40 30 57 41 423 31 32 52 44 1548 147 56 260 38 1218 57 31 40 55 209 37 41 31 34 30
internal_value=5.5187e-06 -0.00472863 0.000349721 -0.00320414 -0.00612837 0.000482943 0.00035246 0.00347469 0.00688023 -0.00732158 -0.000290907 -0.000393553 0.00081207 0.00112415 0.00141976 -0.000828763 0.00125062 -0.00871884 0.000112168 0 -0.000357676 -0.000896818 -0.00716447 0.00100366 0.00126499 0.00223872 0.00217443
internal_weight=4687 317 4370 157 245 4213 4038 175 73 203 2200 2156 570 1838 1534 1586 1478 151 126 72 304 249 94 102 96 65 61
internal_count=4687 317 4370 157 245 4213 4038 175 73 203 2200 2156 570 1838 1534 1586 1478 151 126 72 304 249 94 102 96 65 61
is_linear=0
shrinkage=0.03


Tree=3
num_leaves=47
num_cat=0
split_feature=16 39 18 25 8 18 74 69 33 54 41 38 7 38 69 41 74 74 69 38 57 18 74 35 25 25 35 57 35 48 12 55 16 19 7 8 8 14 74 38 56 34 74 18 54 7
split_gain=7.97601 2.91529 2.05934 2.57732 2.09093 1.89939 3.86325 1.45303 1.40248 1.14044 1.07941 2.37225 1.04633 1.01563 0.80805 1.20857 0.70031 1.30795 0.781397 0.702987 0.499644 0.668694 0.52957 0.793857 0.468045 0.582694 0.437856 0.430465 0.40252 0.367794 0.349531 0.332341 0.31974 0.306892 0.299179 0.291268 0.289958 0.284961 0.269204 0.255831 0.223268 0.215623 0.153173 0.075507 0.0635261 0.0170173
threshold=0.061887406573949595 -0.22885362823697827 0.026333941897315472 1.7924174049023363 0.29492504654854651 0.03060295406512856 0.067123287671232892 0.25849124936940243 0.0084826893927713049 0.089965228176983117 37.311581272664348 -0.065955894065954743 0.068244927691896287 -0.042930711232696199 -0.036578942701507994 45.704557110281549 0.26986301369863019 0.68356164383561657 0.0096511657944809582 -0.0065561788453084571 0.33862578261728676 0.019706025235812257 0.5219178082191781 -0.24808641246274518 0.98549874812301785 0.53036103950493829 0.7154645016991743 0.93408061092665462 -0.21284794842459578 0.18594358452627094 0.025867088715307674 0.10998387711046574 0.018448291167966452 -0.00014690362820895454 0.43290306398864492 0.61332616916520133 0.66030752277326465 0.015534889659132573 0.4561643835616439 0.04798786355444274 0.28224065304873086 -0.044661918230725954 0.92191780821917824 0.021845471235078909 0.076870995271206638 0.67032579103016188
decision_type=2 2 2 2 2 2 2 2 2 2 2 2 2 2 2 2 2 2 2 2 2 2 2 2 2 2 2 2 2 2 2 2 2 2 2 2 2 2 2 2 2 2 2 2 2 2
left_child=2 9 16 5 13 6 -4 10 -3 27 26 -12 -9 -5 15 -8 24 20 36 40 21 38 29 -24 25 28 -7 44 32 -22 -10 -11 -1 -30 -16 -21 42 -26 -18 -6 -20 -23 -19 45 -2 -27
right_child=1 8 3 4 39 7 14 12 30 31 11 -13 -14 -15 34 -17 17 18 19 35 22 41 23 -25 37 43 -28 -29 33 -31 -32 -33 -34 -35 -36 -37 -38 -39 -40 -41 -42 -43 -44 -45 -46 -47
leaf_value=-0.0039094696308926364 -0.012373836409432329 -0.0049789733933733107 -0.012019585870363027 0.0040111341505211931 0.0012025581414882953 0.00080125163759658914 -0.00044567341505358119 0.00010862452365563209 0.0033199718883612527 -0.0064958138633383448 -0.0026120284718311472 0.00028415259215073429 0.0077475800861245524 0.010836300485044996 7.3220489945938889e-05 -0.0042127908744417422 0.0017413691138599171 0 0.0052696922923049592 -0.00052411023274850216 0.002884374500521176 -0.00035203716933816196 0.0026148049074512514 0.009055391633433928 0.0045581870165225299 -0.0035931530946314927 0.0043427731735561706 -0.0063423897414772862 -2.1871437997580778e-05 -0.00013270500823251547 -0.00054931059314560242 -0.0025467212658306353 0 0.0018598428156132521 -0.0030679085661047614 0.0013907960494719501 -0.0033106715879941575 0.00085831750944762887 0.0046215617799598464 -0.0025090550012000119 0.0021132374488423244 0.0013684507262640866 -0.002289489597489933 -0.0010757844913542698 -0.0094302030037070397 -0.0021035120614566077
leaf_weight=31 31 56 32 57 35 70 150 30 37 41 328 1130 37 32 277 161 60 120 38 142 263 113 43 31 31 30 61 32 162 40 46 43 46 145 30 141 44 54 67 31 54 149 34 41 31 30
leaf_count=31 31 56 32 57 35 70 150 30 37 41 328 1130 37 32 277 161 60 120 38 142 263 113 43 31 31 30 61 32 162 40 46 43 46 145 30 141 44 54 67 31 54 149 34 41 31 30
internal_value=5.32141e-06 -0.00458818 0.000339318 -0.000233258 0.0035078 -0.000486158 -0.00186042 5.15248e-05 -0.00130462 -0.00713328 -0.00012924 -0.000365466 0.00437712 0.0065082 -0.00132767 -0.00240622 0.001079 0.00145422 0.000363789 0.00117267 0.00226584 0.00149572 0.00305192 0.00536195 0.0001922 -0.000162072 0.0024753 -0.00943354 0.000364652 0.00247627 0.00114137 -0.00451536 -0.00155973 0.000857434 -0.00022486 0.000419517 -0.00115285 0.0022467 0.00328688 -0.000496548 0.00345387 0.000615111 -0.00051511 -0.00219272 -0.0109679 -0.00290299
internal_weight=4687 317 4370 2461 155 2306 650 1656 139 178 1589 1458 67 89 618 311 1909 1339 573 375 766 389 377 74 570 485 131 94 384 303 83 84 77 307 307 283 198 85 127 66 92 262 154 101 62 60
internal_count=4687 317 4370 2461 155 2306 650 1656 139 178 1589 1458 67 89 618 311 1909 1339 573 375 766 389 377 74 570 485 131 94 384 303 83 84 77 307 307 283 198 85 127 66 92 262 154 101 62 60
is_linear=0
shrinkage=0.03


Tree=4
num_leaves=25
num_cat=0
split_feature=75 60 25 25 18 18 75 8 15 8 56 72 68 75 61 6 61 8 56 8 44 60 40 23
split_gain=5.03799 8.01555 4.45994 2.55915 2.50831 2.0402 1.61821 1.45186 1.1334 1.76915 1.47159 1.36352 0.824239 1.23779 0.763816 0.586007 0.582084 0.542174 0.482119 0.431245 0.363952 0.414643 0.260887 0.0213252
threshold=836.50000000000011 0.91736344308654016 2.0229958396303052 1.8528958472938204 0.05689350349787118 0.025914368937057706 435.50000000000006 0.14571149591877566 0.0061546471567409554 2.0445762833052106 0.98267340267618797 0.29166666666666669 0.62871326993786469 4642.5000000000009 0.17672601901708093 -0.41201049292274283 0.079262458808072228 0.83502000143004684 0.75274491592942516 0.72995176956234176 0.01463069487724067 0.4286169874309293 53.425635807212686 0.98792014847740406
decision_type=2 2 2 2 2 2 2 2 2 2 2 2 2 2 2 2 2 2 2 2 2 2 2 2
left_child=1 -1 3 5 19 12 -3 -5 9 10 -7 -10 20 -14 -8 -16 -15 -13 -6 -4 21 -2 -17 -22
right_child=2 6 4 7 18 8 14 -9 11 -11 -12 17 13 16 15 22 -18 -19 -20 -21 23 -23 -24 -25
leaf_value=-0.018754020742886384 -0.001428363213713011 -0.0078080968494022469 0.00091300533029183353 0.0093933385563041948 -0.011316218582597681 -0.00019967059465678626 -0.0044575520445757598 0.0017842048162059064 0.0058135361535388095 -0.0058191534153800356 -0.0055111252484560443 0.0018042541396627739 0.0059036090972921819 0.0024764068455692062 -0.0022556562872760966 0.0033643869045488495 0.00090227293133259554 -0.0024920577391454829 -0.0063358313804932733 -0.0035879923761095167 -0.0016375007718154662 0.0011096608378243333 -0.00010460422688741774 -0.003131964788756695
leaf_weight=30 92 37 51 43 30 2084 40 50 58 54 48 68 52 260 49 46 1218 43 57 30 31 155 31 30
leaf_count=30 92 37 51 43 30 2084 40 50 58 54 48 68 52 260 49 46 1218 43 57 30 31 155 31 30
internal_value=5.11467e-06 -0.00429357 0.000230755 0.000419389 -0.0045612 0.00030939 -0.00213361 0.00534094 -0.000274216 -0.000458366 -0.000320913 0.00208887 0.00105876 0.00134419 -0.000846812 0.00027829 0.00118136 0.000112169 -0.00809867 -0.000719408 -0.000349374 0.000151988 0.00193055 -0.00242551
internal_weight=4687 233 4454 4286 168 4193 203 93 2355 2186 2132 169 1838 1530 166 126 1478 111 87 81 308 247 77 61
internal_count=4687 233 4454 4286 168 4193 203 93 2355 2186 2132 169 1838 1530 166 126 1478 111 87 81 308 247 77 61
is_linear=0
shrinkage=0.03


Tree=5
num_leaves=28
num_cat=0
split_feature=16 55 38 72 16 57 57 43 20 54 25 8 14 57 17 68 23 72 72 68 14 38 25 35 44 30 33
split_gain=6.81755 2.02074 2.62964 2.52484 3.02727 1.73996 1.6042 1.48456 1.32908 1.06792 1.04068 1.66915 1.3576 1.01371 0.940171 0.905123 0.901582 0.842506 0.816209 0.663727 0.531943 0.453522 0.384914 0.376594 0.315613 0.282251 0.11034
threshold=0.061887406573949595 0.092049527108255286 -0.063500728828074379 0.20833333333333334 0.038366256885036178 0.97377649765687646 0.31310540950813603 0.08041091048497255 0.026381715870877072 0.089965228176983117 0.9391745952225149 -0.44704794509200407 0.016052584831987293 0.65274996710021138 -0.0059317540937475636 0.741657819984608 0.33218341314210392 0.70833333333333337 0.54166666666666685 1.6392929861324161 0.053230995148728734 -0.0057501994434497319 -0.48069570058893091 0.5883846948485737 -0.053418980262930883 0.058282414442737192 0.038118643471101173
decision_type=2 2 2 2 2 2 2 2 2 2 2 2 2 2 2 2 2 2 2 2 2 2 2 2 2 2 2
left_child=1 2 3 4 -1 6 -2 8 15 23 12 -12 -10 -9 22 26 -3 18 -16 -17 -18 -7 -5 -8 -19 -11 -4
right_child=5 16 7 14 -6 21 9 13 10 25 11 -13 -14 -15 17 19 20 24 -20 -21 -22 -23 -24 -25 -26 -27 -28
leaf_value=-0.014049778381823726 0.00015463593245842907 0.0077093152806439426 -0.0025060329832839608 0.0040567377122448685 -0.0016656054365999666 0.0026566711158849039 -0.0065223462218833954 0.0090479444034174822 0.0024748842761432069 -0.005757943733634187 0.00685294745734682 0.00054508831129221151 -0.00077041091394058068 0.0012474963664312227 -0.0013430287422150019 0.0051783691117114668 -0.00028219807491389247 -0.002374598266896938 -0.0051440134054378858 0.0011408284674045881 0.0049696587268083427 -0.0022391039558479087 -0.00030294239872206388 -0.010452482047019403 0.00070605471402160303 -0.002389518838482155 -0.00049574344383104211
leaf_weight=31 37 43 57 42 43 30 47 30 126 55 41 489 1407 32 145 38 37 38 81 1431 31 39 30 57 139 45 51
leaf_count=31 37 43 57 42 43 30 47 30 126 55 41 489 1407 32 145 38 37 38 81 1431 31 39 30 57 139 45 51
internal_value=-1.25731e-05 0.00029233 0.000187202 -0.001749 -0.00690601 -0.00431124 -0.00551361 0.000475188 0.000395815 -0.00655595 -0.000104068 0.00103991 -0.000501573 0.00507871 -0.000937998 0.00105162 0.00428765 -0.00150661 -0.00272027 0.00124766 0.00207176 -6.63265e-05 0.00220069 -0.00871315 2.67646e-05 -0.00427602 -0.00158582
internal_weight=4672 4362 4251 549 74 310 241 3702 3640 204 2063 530 1533 62 475 1577 111 403 226 1469 68 69 72 104 177 100 108
internal_count=4672 4362 4251 549 74 310 241 3702 3640 204 2063 530 1533 62 475 1577 111 403 226 1469 68 69 72 104 177 100 108
is_linear=0
shrinkage=0.03


Tree=6
num_leaves=35
num_cat=0
split_feature=16 55 18 15 61 14 57 74 14 57 8 16 55 68 68 69 20 18 35 33 61 57 35 33 44 18 18 55 16 57 55 61 8 13
split_gain=6.41702 1.9016 2.51143 2.20294 1.70815 3.41572 1.63779 1.62983 1.53163 1.51124 1.24188 1.04187 1.00761 0.772515 0.960985 0.844974 0.707069 0.666187 0.548527 0.467192 0.465788 0.49037 0.451609 0.41845 0.363139 0.400089 0.331294 0.303494 0.302233 0.219735 0.190601 0.15817 0.142809 0.0555196
threshold=0.061887406573949595 0.092049527108255286 0.026333941897315472 0.0061546471567409554 0.09319210872535387 0.023145087333069709 0.97377649765687646 0.65342465753424672 0.035458269877596156 0.31310540950813603 1.905654859572415 0.051123570986590393 0.10998387711046574 0.61693915851404413 1.8887729495973946 0.093996846776523577 0.038179301564668346 0.05689350349787118 -0.077271919007167719 -0.13183567524534531 0.08742326730071398 0.33696452142324568 0.5883846948485737 0.0084826893927713049 0.010770375331975428 0.019828313555526701 0.023179866959624932 0.094388272375166657 0.052983751856598628 0.89143857008348371 0.028092822007893228 0.14060572737811225 0.19633534008325318 -0.0025678303988949489
decision_type=2 2 2 2 2 2 2 2 2 2 2 2 2 2 2 2 2 2 2 2 2 2 2 2 2 2 2 2 2 2 2 2 2 2
left_child=1 2 13 4 5 18 9 8 -5 -2 11 -6 22 24 15 -15 -10 -3 -4 -9 26 -22 29 -8 25 33 -16 -24 -19 -11 -17 -27 -26 -1
right_child=6 17 3 7 10 -7 23 19 16 12 -12 -13 -14 14 20 30 -18 28 -20 -21 21 -23 27 -25 32 31 -28 -29 -30 -31 -32 -33 -34 -35
leaf_value=-0.00032544981381859997 0.00015000942379133925 0.0067972895954479511 -0.0035295349662923794 -0.00017851445624172835 -0.00021362176671862288 -0.010390876443758208 -0.002471509759732224 -0.0032917503040769827 0.010287856777305126 -0.0078533130579621236 -0.0053085589221423595 -0.0035770622631438706 -0.0026116767628327989 0.0071092088723263766 0.0024916770158069017 0.00030825748794314345 0.0045353461215683691 0.0040441173595315389 0.00025808075652994486 0.0016411432443477483 9.9314981159450173e-05 0.0013484686522044543 -0.011922899491342316 0.0021915687766308201 -0.00081837837313668185 0.0019397505868920905 0 -0.0072838387979525269 -4.8448975163935815e-05 -0.004591268302110269 0.0031434104783239075 -2.519874227995529e-05 -0.0033191667551040055 -0.0020200335641508685
leaf_weight=34 37 49 54 40 1802 48 34 39 34 41 47 87 51 44 263 39 52 32 91 30 561 582 31 35 51 96 57 32 30 49 55 55 40 50
leaf_count=34 37 49 54 40 1802 48 34 39 34 41 47 87 51 44 263 39 52 32 91 30 561 582 31 35 51 96 57 32 30 49 55 55 40 50
internal_value=-1.22213e-05 0.00028357 0.000181567 -0.000481546 -0.0007622 -0.0034554 -0.00418272 0.00256607 0.00459912 -0.00534926 -0.000492001 -0.000370298 -0.00636096 0.000982834 0.00125427 0.00365511 0.00685375 0.00415936 -0.00113326 -0.00110433 0.00102552 0.000738054 -0.00758861 -6.30162e-05 -0.000340993 0.000271034 0.00204241 -0.00962937 0.00201864 -0.00611767 0.00200058 0.00120464 -0.00195299 -0.001371
internal_weight=4672 4362 4251 2324 2129 193 310 195 126 241 1936 1889 204 1927 1601 138 86 111 145 69 1463 1143 153 69 326 235 320 63 62 90 94 151 91 84
internal_count=4672 4362 4251 2324 2129 193 310 195 126 241 1936 1889 204 1927 1601 138 86 111 145 69 1463 1143 153 69 326 235 320 63 62 90 94 151 91 84
is_linear=0
shrinkage=0.03


Tree=7
num_leaves=46
num_cat=0
split_feature=16 75 75 18 74 38 25 8 75 57 75 57 18 25 75 57 75 54 20 16 68 38 74 61 75 33 35 38 69 74 74 72 38 69 75 33 75 30 14 12 20 45 25 62 12
split_gain=6.04106 2.13122 2.38395 2.84497 2.04976 3.96929 2.04429 1.79965 4.18108 1.54191 1.53371 1.42398 1.14164 1.08692 1.18295 1.70199 1.00186 0.953612 0.930937 0.827972 0.783884 0.618001 0.710811 0.613883 0.452276 0.457406 0.429792 0.411017 0.403594 0.398617 0.45321 0.392511 0.366864 0.348524 0.329307 0.30777 0.278269 0.258424 0.233936 0.179325 0.171582 0.17101 0.166803 0.138247 0.0443259
threshold=0.061887406573949595 2613.5000000000005 4117.5000000000009 0.026333941897315472 0.061643835616438367 -0.021467435133886489 -0.68705916916378873 0.27714048244602579 3944.5000000000005 0.97377649765687646 4292.5000000000009 0.31310540950813603 0.03060295406512856 1.4528260748572954 2683.5000000000005 0.66812178513124876 2308.5000000000005 0.089965228176983117 0.033495730919849136 0.038829062631792789 0.67878732142001652 0.040102413460893611 0.26438356164383564 0.080081783283846047 5986.5000000000009 0.0094939120657129301 0.26881766679406688 -0.0057501994434497319 0.16691882169740066 0.65616438356164386 0.28630136986301374 0.54166666666666685 0.073959613770381752 -0.08745845533575565 5363.5000000000009 0.1943547587250031 2989.5000000000005 0.058282414442737192 0.034021964020124119 0.045763522186481283 0.032524134627945844 -0.00093194785331978693 0.82243112727255907 0.59471388802304148 0.023319376922787242
decision_type=2 2 2 2 2 2 2 2 2 2 2 2 2 2 2 2 2 2 2 2 2 2 2 2 2 2 2 2 2 2 2 2 2 2 2 2 2 2 2 2 2 2 2 2 2
left_child=1 4 7 23 5 -1 -5 13 18 11 31 -2 -12 20 -15 -16 21 33 -9 -10 32 28 40 24 42 -26 39 -11 35 30 -25 -8 -3 38 -31 -6 -20 -19 -13 -18 -23 -21 -4 -24 -30
right_child=9 2 3 6 16 -7 10 8 19 27 12 17 -14 14 15 -17 26 37 36 41 -22 22 43 29 25 -27 -28 -29 44 34 -32 -33 -34 -35 -36 -37 -38 -39 -40 -41 -42 -43 -44 -45 -46
leaf_value=-0.014110909830840719 0.00014552127479111482 0.001949587389451897 0.0015806726267311639 0.0050041529524810753 -0.00018071429612959733 0.00031681380222749222 -0.0031234273608860223 0.0023814487464305454 0.0095982508347413238 0.0025302974662845608 -0.0018016855303351498 -0.011226608405901691 0.00017097876576031685 0.00059311277441019745 0.012493555886758661 0.0047052197651307392 -0.0057140635001884064 -0.0054331770529818402 -0.004523281374055407 0.0051358955070747898 0.0064808100006509065 0.0021719476452950015 -0.0019444689993646264 0.00042555131567162787 0.0024276012286592809 0.0061359079531563892 -0.00035757864120485998 -0.0021303472467733881 0.0034439540214513177 0.0014337829072914013 0.0018254225760517798 -0.0076204537657591003 -0.0017316398039532051 -0.0053531769489886883 -0.00045513893849652572 0.0025170072884958261 -0.0018703021142160939 -0.0022067580319798555 -0.0073115404009207255 -0.0026148823627995116 -0.00079116911584034913 0.0019595700790805202 -0.0010251759088948558 -0.0039914405615977047 0.0015821669624029487
leaf_weight=30 37 103 69 51 512 39 42 36 32 30 529 38 522 35 36 93 45 55 62 36 30 39 78 389 134 41 36 39 31 114 465 35 31 32 304 41 99 45 34 35 30 34 31 60 33
leaf_count=30 37 103 69 51 512 39 42 36 32 30 529 38 522 35 36 93 45 55 62 36 30 39 78 389 134 41 36 39 31 114 465 35 31 32 304 41 99 45 34 35 30 34 31 60 33
internal_value=-1.1939e-05 0.000275038 0.000639333 0.000254421 -0.000932518 -0.00592404 -0.000854267 0.00230772 0.000612031 -0.00405844 -0.00112222 -0.00519033 -0.000819145 0.00384368 0.0055813 0.00690994 -0.000562337 -0.0061724 -0.00192934 0.00554683 0.00208544 -0.000190824 -0.00161101 0.00110131 0.00239211 0.00331655 -0.00317309 -5.98354e-05 0.000280962 0.000819726 0.00119141 -0.00521367 0.00107493 -0.00821224 5.3066e-05 1.42925e-05 -0.00291274 -0.00401491 -0.00943214 -0.00440058 0.00084094 0.0036409 0.000742672 -0.00285843 0.00253474
internal_weight=4672 4362 3353 2726 1009 69 1179 627 299 310 1128 241 1051 328 164 129 940 204 197 102 164 824 207 1547 275 175 116 69 617 1272 854 77 134 104 418 553 161 100 72 80 69 70 100 138 64
internal_count=4672 4362 3353 2726 1009 69 1179 627 299 310 1128 241 1051 328 164 129 940 204 197 102 164 824 207 1547 275 175 116 69 617 1272 854 77 134 104 418 553 161 100 72 80 69 70 100 138 64
is_linear=0
shrinkage=0.03


Tree=8
num_leaves=55
num_cat=0
split_feature=68 74 23 8 57 74 69 8 68 74 39 74 69 68 23 57 74 74 14 68 56 7 8 57 14 7 23 14 68 33 8 39 14 74 68 35 33 6 33 55 74 74 69 4 57 8 68 57 23 54 8 21 57 28
split_gain=3.25937 1.98767 7.42818 1.81034 1.91848 2.43282 1.56529 1.4314 1.44912 1.10597 1.12006 1.09979 1.15666 1.32856 0.881974 0.778108 0.764773 0.760944 0.856349 0.742554 0.676074 0.674783 0.797537 1.39921 0.631259 0.601341 0.551414 0.544454 0.526853 0.458828 0.446613 0.435689 0.379125 0.352377 0.346231 0.338229 0.307689 0.279229 0.275743 0.270474 0.244875 0.183552 0.180675 0.178971 0.170351 0.142711 0.131013 0.122897 0.0936113 0.0918939 0.0883522 0.0433581 0.0427737 0.0302807
threshold=0.43021261481284817 0.12739726027397263 0.12342539880851484 0.29981744116606773 0.86177390294564116 0.80958904109589047 0.25491424814958302 -0.071620318871095531 1.1349912659975925 0.61232876712328788 -0.19783479770440074 0.65068493150684936 0.0096511657944809582 2.0864637384764282 -0.88826028813734348 0.94523125476244674 0.26986301369863019 0.26438356164383564 0.048346232683401574 0.72268463743275457 0.55069559186439332 -0.39061282304247325 1.1772341038588894 0.62359707727105929 0.038325392742967791 0.26944236739235189 -0.85074669830018312 0.028067687964210199 1.8887729495973946 -0.029751106716485117 -0.30669961412787949 0.4029825637388082 0.035880939179672645 0.80684931506849333 3.0914979035564047 -0.27467085855579471 0.028580007529747434 0.12537536301635546 -0.083291618395877107 0.023797505583114092 0.12739726027397263 0.19863013698630141 -0.22485983379172361 -0.069348904491917593 0.45202315113299335 -0.85549948475474358 0.60758232569776693 0.4575950859415005 -0.28688672589647674 0.030972973987559656 0.89573393348723618 0.84496516673220068 0.34444064989534001 -0.0026147279756693616
decision_type=2 2 2 2 2 2 2 2 2 2 2 2 2 2 2 2 2 2 2 2 2 2 2 2 2 2 2 2 2 2 2 2 2 2 2 2 2 2 2 2 2 2 2 2 2 2 2 2 2 2 2 2 2 2
left_child=1 2 -1 4 6 24 14 9 19 27 -11 26 13 -13 45 17 -16 -5 35 21 44 -9 32 -24 -6 -15 -10 36 38 52 42 -30 -23 34 -14 -19 37 41 -28 -35 -32 -2 -29 -44 51 -3 -38 -42 -48 -31 -20 -4 -12 -51
right_child=7 3 20 15 5 -7 -8 8 11 10 29 12 33 25 16 -17 -18 18 50 -21 -22 22 23 -25 -26 -27 28 30 31 49 40 -33 -34 39 -36 -37 46 -39 -40 -41 47 -43 43 -45 -46 -47 48 -49 -50 53 -52 -53 -54 -55
leaf_value=-0.014193290425716218 -0.00087647092020852989 -0.0015494199512734602 -0.0010571806781672845 0.00089606068632982257 -0.0099408883826677188 0.0028882592950800531 0.0069458326155963897 0.006572052824134594 0.0050668122504498357 0.0048971925946307482 -0.00067670501476614891 -0.0066942747580341277 -0.00152039397372714 0.00054729254143456982 0.0024863617323145543 0.0013544184744466829 3.7588092266295292e-05 -0.0053561120601291331 -0.0052394121913666115 0.0069341070198605196 -0.0034107014627369988 0.0014044850661098121 0.0092803333244523053 0.0013137173114052736 -0.0043420506698398859 -0.0024977235144837354 0.00027976755473601856 0.00037187215842937577 0.001305104738042847 0.0026276918459935197 -0.0013872674874577705 -0.0021067890102406304 -0.0017839543921267936 -0.00018672189286432519 0.0011516679666804528 -0.00206670367300289 -0.00080124380776164358 0.0012677672578399362 -0.0036996990910557596 0.0021486017620146801 -0.0035497956291602089 -0.0032096734432812365 -0.003640188858986231 -0.0010180398721083108 0.0021949591900962979 -0.0045164937360479855 0.000200168747575901 -0.0063883011259658392 0.0020455486321556697 -1.5969858736888906e-05 -0.0079558212015517927 0.00048091541417733831 -0.0022782962328835926 0.0010154523978207772
leaf_weight=48 77 33 32 39 30 36 32 30 32 55 31 43 96 118 140 41 650 35 37 35 55 144 31 58 55 113 30 43 1103 31 30 34 43 59 79 190 41 30 30 158 42 56 36 82 41 34 53 30 54 30 30 31 49 77
leaf_count=48 77 33 32 39 30 36 32 30 32 55 31 43 96 118 140 41 650 35 37 35 55 144 31 58 55 113 30 43 1103 31 30 34 43 59 79 190 41 30 30 158 42 56 36 82 41 34 53 30 54 30 30 31 49 77
internal_value=-1.15285e-05 -0.00111584 -0.00385994 -0.000702404 -4.03557e-05 -0.00358548 0.000439139 0.000556688 0.000954984 -0.000491223 0.00107454 0.000628879 -0.000349399 -0.00184743 0.000191899 -0.00249135 0.000475605 -0.00297704 -0.00350473 0.00275769 -0.000714619 0.00226809 0.00178719 0.00412958 -0.00636272 -0.000929716 0.00116144 -0.0012412 0.00105411 9.45531e-05 -0.00224802 0.00120026 0.000654719 0.000690247 -0.000297047 -0.00259387 -0.000379675 -0.00128436 -0.00166289 0.00150004 -0.0038148 -0.00188308 -0.00123504 -0.00184582 0.000684282 -0.0031043 0.000596638 -0.00478134 0.00116053 0.00115519 -0.00651047 -0.000253233 -0.00169675 0.000698512
internal_weight=4672 1589 207 1382 1010 121 889 3083 2236 847 273 1895 666 274 857 372 790 331 292 341 159 306 276 89 85 231 1229 574 1197 218 263 1137 187 392 175 225 311 163 60 217 102 133 161 118 104 67 148 72 107 138 67 63 80 107
internal_count=4672 1589 207 1382 1010 121 889 3083 2236 847 273 1895 666 274 857 372 790 331 292 341 159 306 276 89 85 231 1229 574 1197 218 263 1137 187 392 175 225 311 163 60 217 102 133 161 118 104 67 148 72 107 138 67 63 80 107
is_linear=0
shrinkage=0.03


Tree=9
num_leaves=27
num_cat=0
split_feature=16 75 55 55 18 43 57 25 8 75 23 57 75 75 75 54 61 38 61 56 38 16 57 56 27 8
split_gain=5.34548 1.97684 7.30776 1.77967 1.51911 1.65993 1.3571 1.41289 1.26619 1.48618 1.05921 0.843758 0.669988 0.658611 0.791854 0.630524 0.518547 0.469439 0.465218 0.459422 0.34655 0.375249 0.278745 0.168684 0.116288 0.0794142
threshold=0.061887406573949595 836.50000000000011 0.044539267866163565 0.092049527108255286 0.026333941897315472 0.08041091048497255 0.95525992254731029 -0.107976424008664 -0.34208707789298409 7614.5000000000009 0.10752778931006284 0.65274996710021138 3223.5000000000005 3781.5000000000005 4642.5000000000009 0.093231293948227156 0.080081783283846047 -0.023254574186667151 0.20878261608488732 0.36231892485943629 0.029071644868407524 0.020741355284204947 0.82390368019200066 0.70923483344050131 0.019489257362821592 0.19633534008325318
decision_type=2 2 2 2 2 2 2 2 2 2 2 2 2 2 2 2 2 2 2 2 2 2 2 2 2 2
left_child=1 2 -1 4 13 8 7 19 10 -10 -6 -7 22 20 -15 23 -16 -8 -4 -2 21 -3 -5 -9 -20 -22
right_child=6 3 18 12 5 11 17 15 9 -11 -12 -13 -14 14 16 -17 -18 -19 24 -21 25 -23 -24 -25 -26 -27
leaf_value=-0.01606992236527216 0.00087810906322087598 -0.00082150340827295983 -0.0030291373772775611 0.0046855254334852445 -0.0005985749415328565 0.0081963429929212076 0.0019283768308733028 -0.0097047532684481283 -0.00035444860897763795 -0.002613638269192713 0.0019575361742845592 0.0010707074328908852 0.0078854503883245847 0.0046691620396699177 0.0022275069066027106 -0.0040497134526254266 0.0007658821510200533 -0.0025243384441713634 0.000349112802263408 -0.0036084682152247253 -0.0010138325491913041 0.0015123524721508577 0.00065554245782711656 -0.0065357588310220724 0.0026018795794794472 -0.0030007011206615759
leaf_weight=31 30 133 30 30 267 30 37 54 1198 337 318 32 33 56 268 47 1270 49 57 59 46 115 36 34 36 39
leaf_count=31 30 133 30 30 267 30 37 54 1198 337 318 32 33 56 268 47 1270 49 57 59 46 115 36 34 36 39
internal_value=-1.12444e-05 0.000258668 -0.00307651 0.000381508 0.000284908 -0.000256097 -0.0038177 -0.00504894 -0.000398995 -0.000852532 0.000785871 0.00457455 0.00435628 0.000899043 0.00115293 -0.00699214 0.00102265 -0.000573777 0.000184282 -0.00206318 -0.000307221 0.00024881 0.00253706 -0.00852323 0.00125523 -0.00196316
internal_weight=4672 4362 154 4208 4109 2182 310 224 2120 1535 585 62 99 1927 1594 135 1538 86 123 89 333 248 66 88 93 85
internal_count=4672 4362 154 4208 4109 2182 310 224 2120 1535 585 62 99 1927 1594 135 1538 86 123 89 333 248 66 88 93 85
is_linear=0
shrinkage=0.03


Tree=10
num_leaves=27
num_cat=0
split_feature=59 75 55 39 38 20 21 7 38 55 57 57 23 6 74 75 75 61 19 44 57 74 72 36 59 7
split_gain=5.56701 2.01172 5.43058 1.96852 1.4419 1.189 1.2262 1.1751 1.01985 0.966075 1.00832 1.25467 0.73075 0.760291 0.729706 0.641871 1.2521 0.427098 0.361938 0.342711 0.308716 0.274434 0.187922 0.0986222 0.0754395 0.0380223
threshold=0.95696122574937958 836.50000000000011 0.044115693988656085 0.48217083208028849 -0.19664533281863736 0.026456557096435056 -0.037913643471409512 -0.43383221476635181 -0.071691522256219484 0.10998387711046574 0.39090699484920782 0.95525992254731029 1.7718586368879954 0.53487672770672401 0.65616438356164386 3848.5000000000005 4712.5000000000009 0.20526427419473933 0.0041211053806332627 -0.020354100867356825 0.88465101701248805 0.27534246575342469 0.54166666666666685 0.41452164364262384 0.31765240519149446 -0.18819556609168367
decision_type=2 2 2 2 2 2 2 2 2 2 2 2 2 2 2 2 2 2 2 2 2 2 2 2 2 2
left_child=1 2 -1 9 -3 15 12 14 -9 10 -2 20 13 -7 -8 19 -17 -4 -18 -6 -12 -11 -19 -22 -21 -14
right_child=3 4 17 -5 5 6 7 8 -10 21 11 -13 25 -15 -16 16 18 22 -20 24 23 -23 -24 -25 -26 -27
leaf_value=-0.013457272265138279 -0.0012174402361272113 0.005991762573622595 -0.0030681494811427928 0.0029463643809923756 0.0014118463228269566 -0.0011776439705999339 0.001539780383563604 -0.0024674856215234852 0.00049609602082775252 -0.0030762386976956662 -0.0095005300074771336 -0.0022018722351059591 0.003208566868640606 0.0035653160695717262 0.006491351521286568 0.0067481139148227298 0.0011172412418119855 -0.0006431554748241807 -0.00082622560917567267 -0.0013438384149863957 -0.0050093579936225652 0.00050250704443761116 0.0020719231343481639 -0.0077627909070955665 -0.0033303864846945795 0.0014082858418006188
leaf_weight=35 42 41 32 35 33 984 77 114 1220 44 67 48 30 31 43 35 1408 37 90 54 36 32 55 33 33 30
leaf_count=35 42 41 32 35 33 984 77 114 1220 44 67 48 30 31 43 35 1408 37 90 54 36 32 55 33 33 30
internal_value=-1.48877e-05 0.000270257 -0.0030392 -0.0037305 0.000395641 0.000339917 -6.79411e-05 0.000498756 0.000240422 -0.00451495 -0.00550392 -0.00646487 -0.000837197 -0.00102949 0.003343 0.0009657 0.00113209 -6.59605e-05 0.000998428 -0.0011341 -0.00794469 -0.0015313 0.000947903 -0.00637896 -0.00213476 0.00236218
internal_weight=4719 4382 159 337 4223 4182 2529 1454 1334 302 226 184 1075 1015 120 1653 1533 124 1498 120 136 76 92 69 87 60
internal_count=4719 4382 159 337 4223 4182 2529 1454 1334 302 226 184 1075 1015 120 1653 1533 124 1498 120 136 76 92 69 87 60
is_linear=0
shrinkage=0.03


Tree=11
num_leaves=29
num_cat=0
split_feature=16 20 55 43 57 68 54 54 61 12 8 8 68 68 16 33 55 8 16 20 33 8 57 7 13 5 68 16
split_gain=5.24089 1.3408 1.58529 1.31115 1.22649 1.27842 1.45335 0.808376 2.38052 1.89478 0.904046 0.621637 0.604176 1.40861 0.589183 0.496755 0.350316 0.313749 0.368043 0.287915 0.272042 0.270565 0.235781 0.189133 0.174128 0.143851 0.125378 0.0323041
threshold=0.060282890896771392 0.026456557096435056 0.092049527108255286 0.08041091048497255 0.97377649765687646 0.4869201701127242 0.093231293948227156 0.031386258640258617 0.092314853069432143 0.020143182195810013 -0.40163995122932566 0.20412527766637115 0.741657819984608 1.597360876393928 0.052983751856598628 0.0084826893927713049 0.047901832751930322 1.8250288028293782 0.026514508530368228 0.027300106899988841 0.049771351572216467 -0.76551065751607383 0.88465101701248805 -0.55962320336390647 0.0061010440011587414 -0.13043335169656714 1.0609725795703173 0.019801852812933229
decision_type=2 2 2 2 2 2 2 2 2 2 2 2 2 2 2 2 2 2 2 2 2 2 2 2 2 2 2 2
left_child=1 12 3 7 5 6 22 11 9 -9 -10 19 20 -14 23 -6 17 18 -15 -3 27 -8 25 -4 -19 -2 -13 -1
right_child=4 2 14 -5 15 -7 21 8 10 -11 -12 26 13 16 -16 -17 -18 24 -20 -21 -22 -23 -24 -25 -26 -27 -28 -29
leaf_value=-0.0015796909095987758 -0.0070216467315671448 -0.00050840758031982214 0.0069644929947244695 0.0045568801166372113 -0.0024339911949219713 -0.0003898433560569738 -0.00051469201705530853 -0.0012020752050619029 0.00063456011543684188 -0.0081293887442003606 -0.0007487648223989976 -0.002164215245233934 0.0074323416423423879 0.0012184071987042919 0.00055724769528456069 0.0026953944985136807 0.0041429423762431479 -0.0020478123852823616 -0.00012249394139660034 0.0023128636718307582 0.00045855177728206675 -0.0039888477098349844 -0.0060605989289494056 0.0034741726377075979 0.00055315099710779984 -0.010392307761147267 -9.5084808254433813e-05 -0.0031977885417113156
leaf_weight=36 30 37 31 49 36 55 37 81 599 65 1452 37 31 1167 43 32 31 48 214 196 53 51 58 36 42 38 103 31
leaf_count=36 30 37 31 49 36 55 37 81 599 65 1452 37 31 1167 43 32 31 48 214 196 53 51 58 36 42 38 103 31
internal_value=-1.44523e-05 0.000262196 -0.000145271 -0.000294563 -0.00361961 -0.00452926 -0.00557844 -0.000388402 -0.000608451 -0.00431014 -0.000343287 0.000899477 0.000936681 0.00109814 0.00337903 0 0.000964923 0.000895632 0.00100845 0.00185195 -0.00110016 -0.00256442 -0.00765598 0.00514178 -0.000801466 -0.0089618 -0.000664494 -0.00237672
internal_weight=4719 4382 2729 2619 337 269 214 2570 2197 146 2051 373 1653 1533 110 68 1502 1471 1381 233 120 88 126 67 90 68 140 67
internal_count=4719 4382 2729 2619 337 269 214 2570 2197 146 2051 373 1653 1533 110 68 1502 1471 1381 233 120 88 126 67 90 68 140 67
is_linear=0
shrinkage=0.03


Tree=12
num_leaves=46
num_cat=0
split_feature=16 18 25 18 60 8 25 18 36 14 56 38 36 74 57 74 18 38 74 74 61 7 57 18 61 74 8 57 57 7 16 25 36 25 60 19 27 18 14 8 72 74 38 8 16
split_gain=4.93534 1.55625 1.89471 1.76617 2.45876 1.41796 1.16611 1.82035 1.02317 0.995075 0.890182 0.860367 2.67472 1.35116 1.29267 1.23681 1.69499 0.728092 0.594382 1.19466 0.591507 0.570532 0.509988 0.527253 0.511451 0.604619 0.469017 0.741825 0.493311 0.385323 0.380117 0.369698 0.558974 0.38093 0.315711 0.28626 0.27075 0.255953 0.244807 0.198236 0.122566 0.104402 0.0983372 0.0723381 0.016609
threshold=0.060282890896771392 0.026333941897315472 1.7556489110244986 0.03060295406512856 0.62350802714591469 0.33032187533315743 2.0229958396303052 0.060747192314365574 0.085144172516900554 0.03871080465072519 0.34369411937066191 -0.065955894065954743 0.30443691663311639 0.67534246575342471 0.66812178513124876 0.24794520547945206 0.04519720352480807 -0.042930711232696199 0.26986301369863019 0.68356164383561657 0.052663751658181407 1.3713759691989786 0.33926845314663845 0.019828313555526701 0.25175004209880264 0.52739726027397271 -0.82640663046464546 0.91764994886497531 0.39895152632025865 -0.24550226184574045 0.019706268390270124 0.99430109120291477 -0.18375482537723806 0.53036103950493829 0.3277565014685781 -0.00014690362820895454 0.0065264640862433563 0.018652680684506203 0.016568432264765069 0.33032187533315743 0.79166666666666685 0.14931506849315071 0.043993125038449994 0.08112630765137431 0.021043710350905697
decision_type=2 2 2 2 2 2 2 2 2 2 2 2 2 2 2 2 2 2 2 2 2 2 2 2 2 2 2 2 2 2 2 2 2 2 2 2 2 2 2 2 2 2 2 2 2
left_child=1 18 3 4 8 17 7 -2 9 -3 -9 12 13 -5 -14 16 -13 -4 31 22 -21 -17 23 30 25 -24 -12 28 -28 -10 -20 32 37 35 44 -34 -8 -1 -33 -25 -36 -39 -7 -38 -22
right_child=6 2 5 11 -6 42 36 10 29 -11 26 15 14 -15 -16 21 -18 -19 19 20 34 -23 24 39 -26 -27 27 -29 -30 -31 -32 38 33 -35 40 -37 43 41 -40 -41 -42 -43 -44 -45 -46
leaf_value=-0.0039892785962852067 0.0037915076169899955 -0.003079499950141576 0.003306987268414201 -0.0054165168854932418 -0.010012770948985478 0.00068588551285111499 -0.0087958741911546203 0.0010402644691536217 -0.0021082206029626057 0.0011698681913739431 -0.00079340030617882002 0.0011458715042021921 -0.00024807335889246129 -0.00041134570273553277 0.0048103564416382364 9.7296027378881644e-05 0.0072913242826962415 0.0090857937414999864 0.0033919286392502255 0.0036565892212092875 0.0010429459527989428 -0.003135083048839494 0.0025688953983423902 0.0009415594926538587 -8.7213433506323171e-05 0.0059051505834818024 -0.0034117831177171015 -0.0020896944663918175 -0.0082795930240278873 0.00062741889583897855 0 0.0039383769690360193 -4.7624831568236833e-05 -0.0019535110120814142 -0.0012916042569802075 0.0018028262329851563 -0.0062093655845898684 -7.3698286562371486e-05 0.00052589106826602435 -0.00088595831877510468 -0.00012393494382788767 -0.0022054676757392098 -0.0016020545413810458 -0.0037318882061496521 0.0020577466589772799
leaf_weight=39 36 306 58 129 31 35 31 32 59 58 30 266 153 80 64 851 48 32 121 41 66 52 276 159 47 62 31 52 61 214 38 33 160 53 112 137 34 52 50 79 317 38 31 30 35
leaf_count=39 36 306 58 129 31 35 31 32 59 58 30 266 153 80 64 851 48 32 121 41 66 52 276 159 47 62 31 52 61 214 38 33 160 53 112 137 34 52 50 79 317 38 31 30 35
internal_value=-1.41049e-05 0.000254338 -0.000242813 -0.000459991 -0.00176071 0.0029535 -0.0035126 -0.00238529 -0.0013529 -0.00239403 -0.0034806 6.70943e-05 -0.00109096 -0.00351612 0.00123152 0.000474981 0.00209688 0.00540277 0.00089634 0.00123709 0.000187993 -8.58478e-05 0.00199917 0.00123061 0.00278337 0.00319131 -0.00432937 -0.00504415 -0.00667741 2.46596e-05 0.00257041 7.05745e-05 -0.000244286 0.000370784 -7.53122e-05 0.000796172 -0.00634722 -0.00193531 0.00192187 0.000322229 -0.000436002 -0.00100852 -0.000344165 -0.00510248 0.00142597
internal_weight=4719 4382 2467 2311 668 156 337 242 637 364 206 1643 426 209 217 1217 314 90 1915 1353 571 903 782 397 385 338 174 144 92 273 159 562 479 350 530 297 95 129 83 238 429 90 66 64 101
internal_count=4719 4382 2467 2311 668 156 337 242 637 364 206 1643 426 209 217 1217 314 90 1915 1353 571 903 782 397 385 338 174 144 92 273 159 562 479 350 530 297 95 129 83 238 429 90 66 64 101
is_linear=0
shrinkage=0.03


Tree=13
num_leaves=25
num_cat=0
split_feature=59 75 74 39 38 20 25 74 58 19 57 75 19 68 68 61 25 59 44 57 12 50 59 25
split_gain=4.64707 1.84362 4.50606 1.70127 1.25443 0.989974 1.04484 1.1504 0.880165 1.03554 0.799856 0.826338 0.792871 0.56048 1.2999 0.440985 0.364866 0.354856 0.308917 0.278209 0.332921 0.270203 0.201946 0.087501
threshold=0.95696122574937958 836.50000000000011 0.36849315068493155 0.48217083208028849 -0.19664533281863736 0.026456557096435056 1.715943206323381 0.50547945205479461 0.25095629662683822 -0.0020249175782334769 0.30663004279479122 3223.5000000000005 -0.0069485711700752696 0.741657819984608 1.597360876393928 0.17672601901708093 1.1349460547679124 0.30575976810790217 -0.020354100867356825 0.39895152632025865 0.029137457874557657 -45.008371742522861 0.54501117435226132 0.39564518065943755
decision_type=2 2 2 2 2 2 2 2 2 2 2 2 2 2 2 2 2 2 2 2 2 2 2 2
left_child=1 2 -1 10 -3 13 8 -8 17 -10 -2 12 -12 18 -15 -4 -16 -7 -6 -14 -21 -9 -17 -20
right_child=3 4 15 -5 5 6 7 21 9 -11 11 -13 19 14 16 22 -18 -19 23 20 -22 -23 -24 -25
leaf_value=-0.012077670451591757 0.00018266576362683737 0.0055867281624109207 -0.0029173848982332815 0.0027955515115943726 0.0013386734447714921 0 0.0078608214684400043 -0.0011226200029602852 0.00087633088910584703 -0.00068192565204973235 -0.0007696773963005736 -0.00088680038625114227 -0.0033097587037124814 0.007126556854587276 0.0011199590150220045 -0.00088578489095442908 -0.00013489618833317001 0.0028390841677155406 -0.0010461273786143226 -0.0093004000749228131 -0.0058370438809702318 0.0025690521216308673 0.002108085914788877 -0.0030981397060120012
leaf_weight=37 33 41 36 35 33 60 30 33 489 1765 30 45 31 31 1257 30 245 115 47 37 126 37 56 40
leaf_count=37 33 41 36 35 33 60 30 33 489 1765 30 45 31 31 1257 30 245 115 47 37 126 37 56 40
internal_value=-1.37385e-05 0.000246728 -0.00292142 -0.00340855 0.000366789 0.000314763 -5.72947e-05 0.00294469 -0.000182235 -0.000342511 -0.00413818 -0.00467927 -0.00542703 0.000885775 0.00104134 -0.000112335 0.00091328 0.001864 -0.00107575 -0.00613101 -0.00664682 0.000786778 0.00102905 -0.0020265
internal_weight=4719 4382 159 337 4223 4182 2529 100 2429 2254 302 269 224 1653 1533 122 1502 175 120 194 163 70 86 87
internal_count=4719 4382 159 337 4223 4182 2529 100 2429 2254 302 269 224 1653 1533 122 1502 175 120 194 163 70 86 87
is_linear=0
shrinkage=0.03


Tree=14
num_leaves=46
num_cat=0
split_feature=59 39 18 61 12 6 57 23 23 20 20 59 56 6 72 72 20 8 57 23 36 50 8 57 20 20 72 39 12 57 18 38 36 14 57 18 20 18 34 57 45 23 21 18 61
split_gain=4.37413 1.60202 1.40368 1.82527 2.42531 2.05434 1.09601 1.47357 1.07757 1.06011 0.983051 0.781634 0.753883 0.680756 0.522617 0.948428 0.578114 0.505788 0.717514 0.475127 0.577878 0.451879 0.441066 1.19327 0.401614 0.381462 0.361508 0.323179 0.310443 0.403449 0.302242 0.287605 0.264619 0.263687 0.26005 0.249995 0.224582 0.202718 0.200619 0.184476 0.173262 0.130101 0.124765 0.0647879 0.0419844
threshold=0.95696122574937958 0.48217083208028849 0.026333941897315472 0.090351553392889375 0.020143182195810013 0.01377547112529698 0.80031247327015465 0.024496982325283762 0.2745361662134656 0.029132005849584034 0.038473574396948811 0.74711070627060094 0.34369411937066191 -0.20966359742977927 0.29166666666666669 0.70833333333333337 0.020571599372231426 -0.82640663046464546 0.95525992254731029 1.2357629884546131 -0.18375482537723806 -42.557556130179236 0.13196245350515326 0.41319333133809388 0.022142332410080425 0.026692606167589842 0.79166666666666685 -0.086735792886108595 0.052133932027123957 0.40193498093455582 0.061178045676899752 -0.0098567299994664053 -0.23087097638005263 0.014261501369474039 0.35069256901661111 0.018652680684506203 0.02607741456264662 0.014768248724121946 -0.030726814167175372 0.32825944486717235 0.0012282814557585092 1.0070355235511494 0.21173257805034137 0.021254586363118461 0.11091916523169251
decision_type=2 2 2 2 2 2 2 2 2 2 2 2 2 2 2 2 2 2 2 2 2 2 2 2 2 2 2 2 2 2 2 2 2 2 2 2 2 2 2 2 2 2 2 2 2
left_child=2 12 14 4 26 -6 7 11 21 25 -11 13 -2 -5 19 22 39 -14 28 20 35 -8 23 27 32 -9 42 -16 29 -19 -10 33 -24 -18 -26 -1 -33 -22 -30 -17 -13 -39 -4 -41 -37
right_child=1 -3 3 6 5 -7 8 9 30 10 -12 40 17 -15 15 16 31 18 -20 -21 37 -23 24 -25 34 -27 -28 -29 38 -31 -32 36 -34 -35 -36 44 -38 41 -40 43 -42 -43 -44 -45 -46
leaf_value=-0.0041345671326995228 0.00017720233302055561 0.0027119239279602327 -0.00058026470601573322 0.00045318357385753383 -0.013381901262357974 -0.0024913110229499028 0.0078122462986785672 0 0.0017501451838102752 0.0016902402737772164 -7.7745648506195923e-05 -0.0026812435683600086 -0.00074666377214213631 -0.0014166308792522421 -0.00024889389418378255 0.0039699368318940834 0.0033441647143912646 -0.0038437602031748388 -0.0019110237848784387 0.0036305162692712046 0.0026677218279757787 0.0028733775601552346 0.00079442778098857752 0.0085011017594820628 -0.0003163707086334958 -0.0031800144115566083 -0.0033177380626152756 0.0026173256458160415 -0.0060276789155917082 -0.0081195466930555939 -0.0024533412885849063 -0.00019041336100546313 0.0029036707487367693 0.00017712050753240435 0.0015182516296202923 -0.0019347046589844412 -0.001915462108759345 0.00038119707981831358 -0.002649709930753006 0.00054371619858900122 -0.0056508545856052469 -0.0014313610039066124 0.0016802372655597864 0.00230523205416437 -0.00043294891377820545
leaf_weight=36 33 35 46 257 31 33 32 57 31 559 567 56 30 537 41 35 32 31 55 31 32 41 86 30 149 87 31 194 34 80 30 255 165 99 127 32 95 298 39 52 32 40 40 36 50
leaf_count=36 33 35 46 257 31 33 32 57 31 559 567 56 30 537 41 35 32 31 55 31 32 41 86 30 149 87 31 194 34 80 30 255 165 99 127 32 95 298 39 52 32 40 40 36 50
internal_value=-1.33528e-05 -0.00330698 0.00023933 -0.000232778 -0.00313194 -0.00782589 -1.79039e-06 -0.000167067 0.00262828 0.000485492 0.000797375 -0.00111004 -0.00401513 -0.000807655 0.000849071 0.0011513 0.000250052 -0.00454045 -0.0050036 3.02978e-05 -0.000192955 0.00508713 0.00183471 0.00284299 0.00132156 -0.0019313 -0.000534196 0.00210461 -0.00591018 -0.00695695 -0.000268675 -0.000213749 0.00219353 0.000975594 0.0005172 -0.00202415 -0.000667623 0.000383332 -0.00427014 0.00208685 -0.00380034 0.00015746 0.000437019 0.00130019 -0.00105718
internal_weight=4719 337 4382 2467 181 64 2286 2152 134 1270 1126 882 302 794 1915 1396 604 269 239 519 488 73 792 265 527 144 117 235 184 111 61 481 251 131 276 118 350 370 73 123 88 338 86 88 82
internal_count=4719 337 4382 2467 181 64 2286 2152 134 1270 1126 882 302 794 1915 1396 604 269 239 519 488 73 792 265 527 144 117 235 184 111 61 481 251 131 276 118 350 370 73 123 88 338 86 88 82
is_linear=0
shrinkage=0.03


Tree=15
num_leaves=30
num_cat=0
split_feature=16 39 55 38 74 43 74 61 74 8 54 35 20 74 40 8 23 8 7 45 23 16 38 20 7 5 55 58 16
split_gain=3.80534 1.4898 1.27605 1.4247 1.92301 1.95958 0.947613 1.01829 0.859369 1.08543 0.688386 0.673846 0.745707 0.688902 0.673159 0.612909 0.704814 0.689694 0.56927 0.483309 0.362966 0.358342 0.327054 0.285165 0.220332 0.275656 0.197937 0.186043 0.0804108
threshold=0.061887406573949595 -0.22885362823697827 0.092049527108255286 -0.065955894065954743 0.23150684931506851 -0.025785478711451103 0.68904109589041107 0.42626271929535531 0.74931506849315077 0.55030016269538828 0.089965228176983117 0.3866880667229608 0.021193799246182057 0.94657534246575359 51.166595529661571 -0.61003026145700623 0.28097226291478544 -0.52250027098277818 -0.086998623572999242 -0.0078279211534306187 1.2749121340147023 0.040321175655901771 -0.0057501994434497319 0.058654810913740328 -0.36180426749608474 -0.21371876426129807 0.10998387711046574 1.0425052672018007 0.033508909070171129
decision_type=2 2 2 2 2 2 2 2 2 2 2 2 2 2 2 2 2 2 2 2 2 2 2 2 2 2 2 2 2
left_child=2 10 3 4 5 -1 7 15 9 21 24 12 22 -14 27 16 -5 -17 -10 -4 -9 -6 -8 -21 25 -2 -12 -3 -20
right_child=1 14 19 6 8 -7 11 20 18 -11 26 -13 13 -15 -16 17 -18 -19 28 23 -22 -23 -24 -25 -26 -27 -28 -29 -30
leaf_value=-0.0019296942130191765 -0.0052471553183611689 0.0023234922549957844 0.00045094659800512873 -0.0040954563354199894 0.00021527280544539568 -0.011442110169068027 0.0032220613809227699 0.002136836523747796 0.0045379154571867364 -0.0054116699036845023 -0.004418165893700355 0.0032712019457906282 -0.0013005647173021404 0.0011032609563774254 -0.0033317609135626374 0.003908268003320268 0.00093388011626527518 0.00058918611235966195 0.00091183443940857521 0.0067363285097315553 0.006247746706256576 -0.0022694137794831183 0.00039508307294620031 0.0027340486235479626 -0.0042912334799047836 -0.0094689958865248301 -0.0013634869454073762 -0.00060694800855191509 -0.00074806103473993766
leaf_weight=55 30 45 34 53 161 31 46 49 38 51 40 44 709 125 52 58 46 2378 66 38 36 76 202 34 31 38 44 32 42
leaf_count=55 30 45 34 53 161 31 46 49 38 51 40 44 709 125 52 58 46 2378 66 38 36 76 202 34 31 38 44 32 42
internal_value=1.8819e-05 -0.00318085 0.000247911 0.000166342 -0.00130371 -0.00540274 0.000371237 0.000684424 -0.000483494 -0.00143894 -0.00492334 -0.000354826 -0.000505341 -0.000936593 -0.000683798 0.000574651 -0.00172974 0.000669601 0.00138038 0.00349917 0.00391848 -0.000569473 0.000932621 0.00489439 -0.00664143 -0.00766091 -0.00285729 0.00106753 0.000238473
internal_weight=4684 312 4372 4266 520 86 3746 2620 434 288 183 1126 1082 834 129 2535 99 2436 146 106 85 237 248 72 99 68 84 77 108
internal_count=4684 312 4372 4266 520 86 3746 2620 434 288 183 1126 1082 834 129 2535 99 2436 146 106 85 237 248 72 99 68 84 77 108
is_linear=0
shrinkage=0.03


Tree=16
num_leaves=40
num_cat=0
split_feature=16 75 75 75 19 75 39 18 7 23 72 16 75 16 7 57 60 38 55 68 60 7 23 57 57 14 16 55 44 55 4 39 56 10 60 40 72 55 12
split_gain=3.58443 1.52549 2.09161 1.79793 1.74164 3.70895 1.40274 1.16708 1.30377 1.10391 3.95273 0.888776 0.832691 0.778754 0.763307 0.824941 1.94586 0.640032 0.567371 0.496312 0.464473 0.463045 0.426961 0.317844 0.31214 0.297499 0.519641 0.300542 0.286166 0.272082 0.257986 0.244563 0.214519 0.207219 0.174398 0.137282 0.135345 0.131197 0.0621466
threshold=0.061887406573949595 2613.5000000000005 4117.5000000000009 4259.5000000000009 0.00097004813423735359 3944.5000000000005 -0.22885362823697827 0.026333941897315472 -0.54096242687147511 -0.20508193356842949 0.54166666666666685 0.038540978842448136 2308.5000000000005 0.045114511678164902 0.58749034651973553 0.41156487009043147 0.53841706667388312 -0.013005515003250255 0.10998387711046574 -0.01105930156562439 0.53172824397754559 -0.33348552291348732 -0.09288302573169234 0.94523125476244674 0.52475100792916696 0.013361239369517351 0.019261054936721127 0.025748700573175336 0.024388407062053568 0.027156930807000785 0.0079007647767872519 0.1092444826184621 0.68372837808158071 0.018295451126736743 0.9445034638595079 40.804468284684923 0.45833333333333343 0.054780778235104556 0.037061886006988551
decision_type=2 2 2 2 2 2 2 2 2 2 2 2 2 2 2 2 2 2 2 2 2 2 2 2 2 2 2 2 2 2 2 2 2 2 2 2 2 2 2
left_child=1 9 4 22 14 20 18 25 -9 10 -1 -7 19 -10 15 -3 -17 33 23 30 -6 -14 -4 32 -12 26 -5 -27 -22 -21 34 -31 -2 -8 -11 -23 -32 -13 -37
right_child=6 2 3 7 5 11 17 8 13 12 24 37 21 -15 -16 16 -18 -19 -20 29 28 35 -24 -25 -26 27 -28 -29 -30 31 36 -33 -34 -35 -36 38 -38 -39 -40
leaf_value=-0.011658267726107547 -0.008138794781124524 0.00067880807648972345 -0.0018600526600203863 0.001045895109959774 0.00083245762705422223 0.0096373059637720783 0.0029497512202561944 0.0055336912185232215 -0.00035775979093508503 0.0039326827911434666 0.0011818172374023401 0.0016762297605898025 0.00058530991025556515 -0.0033540313619710989 -0.00048025181838195162 0.011085288227777781 0.0036484921635315621 -0.0031261420336817333 -0.0019177240134708113 -0.0024536661334962763 -0.0018957377731697335 -0.0019065339053413676 -0.0066205319609788371 -0.0033489715047847583 -0.0019427659184251538 -6.8088903073265083e-05 0.0049129134248898912 0.000955821545165877 -0.0049370919604625491 0.00017440854551982308 0.0017116872757515463 -0.0014305693301807892 -0.0049543733095347604 -0.0001917187599664346 0.00096727148822271119 -0.0054218692279794957 -0.00096696784908655931 0.0046580630198264812 -0.0031490709952459069
leaf_weight=37 53 55 34 126 41 30 32 32 1007 47 57 31 31 85 36 38 209 55 49 51 114 37 39 39 57 336 43 1040 40 414 30 107 42 42 34 34 38 31 31
leaf_count=37 53 55 34 126 41 30 32 32 1007 47 57 31 31 85 36 38 209 55 49 51 114 37 39 39 57 336 43 1040 40 414 30 107 42 42 34 34 38 31 31
internal_value=1.82633e-05 0.000240625 0.000547307 0.000189093 0.00211378 0.000383185 -0.00308712 0.000317262 -0.000416419 -0.000783806 -0.00315005 0.00535374 -0.000361587 -0.000594019 0.00357384 0.00406704 0.00480878 -0.000663321 -0.00477801 3.6777e-05 -0.00194806 -0.00254208 -0.00444994 -0.00579936 -0.000354515 0.000852954 0.00204988 0.00070363 -0.00270786 -0.00036073 0.00158212 -0.000149667 -0.00676918 0.00112842 0.00272766 -0.00352159 0.000171517 0.00322056 -0.0043905
internal_weight=4684 4372 3367 2742 625 287 312 2669 1124 1005 151 92 854 1092 338 302 247 129 183 721 195 133 73 134 114 1545 169 1376 154 572 149 521 95 74 81 102 68 62 65
internal_count=4684 4372 3367 2742 625 287 312 2669 1124 1005 151 92 854 1092 338 302 247 129 183 721 195 133 73 134 114 1545 169 1376 154 572 149 521 95 74 81 102 68 62 65
is_linear=0
shrinkage=0.03


Tree=17
num_leaves=29
num_cat=0
split_feature=16 55 38 74 43 57 74 43 74 8 68 54 68 56 23 7 8 7 21 45 40 7 16 20 55 5 56 16
split_gain=3.37539 1.15572 1.28065 1.76342 1.79832 0.996144 0.868091 0.854738 0.772548 0.979165 0.750157 1.05195 0.61117 0.583957 0.577239 0.53383 0.526034 0.519563 0.514952 0.444613 0.376325 0.349574 0.329373 0.266704 0.188165 0.134302 0.164415 0.0752648
threshold=0.061887406573949595 0.092049527108255286 -0.065955894065954743 0.23150684931506851 -0.025785478711451103 0.95525992254731029 0.68904109589041107 0.063435062123472566 0.74931506849315077 0.55030016269538828 0.57960329725435333 0.089965228176983117 2.3132772287703003 0.74247533127054244 0.098997965597596285 0.96112915750872763 -0.26549890383931252 -0.086998623572999242 0.42268441973779974 -0.0078279211534306187 49.093682365460545 0.29963680140216059 0.040321175655901771 0.058654810913740328 0.10998387711046574 -0.21371876426129807 0.68372837808158071 0.033508909070171129
decision_type=2 2 2 2 2 2 2 2 2 2 2 2 2 2 2 2 2 2 2 2 2 2 2 2 2 2 2 2
left_child=1 2 3 4 -1 10 7 12 9 22 11 25 14 15 -4 16 -8 -10 -9 -3 -7 -14 -5 -21 -13 -2 -27 -19
right_child=5 19 6 8 -6 20 13 18 17 -11 -12 24 21 -15 -16 -17 -18 27 -20 23 -22 -23 -24 -25 -26 26 -28 -29
leaf_value=-0.0018335575368948374 -0.005193924574596046 0.00040069737454570412 -0.00056413505193465255 0.00021986307710707462 -0.010949488100610746 0.0016230367755562791 0.00089318833310731869 0.00071347017550545035 0.0043311678838190131 -0.0051318712342155043 -0.00047008334665375506 -0.0041025623950221198 0.0016912569978639112 -0.0038591355959592512 0.00064693584484740163 0.0026080040381519995 -0.00073363453620615808 0.00087469538604719463 0.0057875280524654522 0.0064473093066393858 -0.0022877969947187639 0.00059450294404412196 -0.002162049018796876 0.0025734693622571632 -0.0011875115772054859 -0.0097677787414221003 -0.0061549780861879901 -0.00073120359663194539
leaf_weight=55 30 34 596 161 31 45 229 32 38 51 44 39 490 41 869 57 799 66 46 38 43 587 76 34 49 32 30 42
leaf_count=55 30 34 596 161 31 45 229 32 38 51 44 39 490 41 869 57 799 66 46 38 43 587 76 34 49 32 30 42
internal_value=1.76103e-05 0.000233409 0.000155746 -0.00123795 -0.00516328 -0.00299584 0.00035004 0.000649821 -0.000452199 -0.00135838 -0.00405888 -0.00491874 0.000553436 -0.000344828 0.000152188 -0.000208922 -0.00036827 0.00131452 0.00374785 0.00332763 -0.000254314 0.00109639 -0.000531894 0.00466571 -0.00251665 -0.00717858 -0.00808068 0.000222328
internal_weight=4684 4372 4266 520 86 312 3746 2620 434 288 224 180 2542 1126 1465 1085 1028 146 78 106 88 1077 237 72 88 92 62 108
internal_count=4684 4372 4266 520 86 312 3746 2620 434 288 224 180 2542 1126 1465 1085 1028 146 78 106 88 1077 237 72 88 92 62 108
is_linear=0
shrinkage=0.03


Tree=18
num_leaves=45
num_cat=0
split_feature=16 75 75 75 8 75 39 18 17 25 16 36 68 16 16 25 20 68 38 54 38 36 73 20 61 39 38 16 34 39 7 39 61 8 18 39 41 55 50 68 18 55 61 20
split_gain=3.17953 1.42192 1.94218 1.63539 1.60737 3.43419 1.25871 1.07785 1.22272 0.840904 0.998171 0.968661 1.31044 0.838025 0.813307 0.726226 5.15832 0.84506 0.586188 0.579281 0.512011 0.491137 0.612832 0.417371 0.374619 0.324067 0.317856 0.304813 0.503487 0.293647 0.241248 0.237189 0.233651 0.200935 0.191334 0.188521 0.174437 0.16669 0.146879 0.143376 0.127379 0.125251 0.0926808 0.0176575
threshold=0.061887406573949595 2613.5000000000005 4117.5000000000009 4259.5000000000009 0.27714048244602579 3944.5000000000005 -0.22885362823697827 0.026333941897315472 -0.0061272923499637718 1.6367636145203375 0.047452527645876957 0.19789697178036428 0.70587088061821679 0.045114511678164902 0.038540978842448136 0.39564518065943755 0.033917087144094693 0.26232824541447691 -0.021467435133886489 0.089965228176983117 0.040102413460893611 0.016915507861304805 0.37500000000000006 0.033495730919849136 0.056283075169040998 0.52761214075793905 -0.19664533281863736 0.042786704791553561 0.099216871295436229 0.23509057452935869 1.1772866548316243 -0.078668734827667772 0.25686962129516616 -0.31504932000413371 0.06513433219625768 0.17374381203766412 43.959071187135244 0.10998387711046574 -43.785124819370118 0.32818722084179169 0.0361466133873986 0.054780778235104556 0.19772729445899054 0.027942979358272915
decision_type=2 2 2 2 2 2 2 2 2 2 2 2 2 2 2 2 2 2 2 2 2 2 2 2 2 2 2 2 2 2 2 2 2 2 2 2 2 2 2 2 2 2 2 2
left_child=1 15 4 25 9 23 19 24 -9 11 -11 12 -3 -10 -7 20 17 21 33 34 27 22 -17 -6 35 -4 -12 28 31 -26 -25 -1 -29 -8 -2 -5 39 -21 -23 -19 42 -16 -22 -38
right_child=6 2 3 7 5 14 18 8 13 10 26 -13 -14 -15 41 16 -18 36 -20 37 40 38 -24 30 29 -27 -28 32 -30 -31 -32 -33 -34 -35 -36 -37 43 -39 -40 -41 -42 -43 -44 -45
leaf_value=-0.00034923364158334012 -0.0043472686695762318 0.00059384045575327094 -0.0066281370713204817 0.0013149766841157669 0.00075858659763568931 0.0092526849955815397 -0.00040794702781381199 0.0049417501889831936 -0.00035229182815699959 0.010260115541050576 0.0059287743048680513 0.007281892552349508 0.0074073630460287348 -0.0035480735790723947 0.0015973130188031881 0.0018431526496195897 -0.013650019670097139 0 -0.0028261689791162759 -0.0040438800912694145 -0.0018324186228434584 0.0008434439918209519 -0.0022904804196058476 -0.001954671079701435 0.00097502997887033329 -0.0024064780738577464 0.0017969476255736872 -0.0031613854588124777 0.0036592328738963686 1.9901041596690185e-05 -0.0050200383723309188 0.0013299133756271488 0.00026177051684811426 0.0027420700366566119 -0.0073071271811991981 0.0048025082763272463 -0.0029901129291519477 -0.0012305591924458132 0.0032776157680297099 -0.0028411186270219978 -0.0030907077381599119 0.0045126804635168272 0.00022158245901933533 -0.0045160566404503135
leaf_weight=173 42 172 31 31 41 30 33 37 1007 31 33 32 30 80 31 45 30 31 59 40 45 112 109 123 1078 42 40 33 49 405 31 132 36 37 57 31 33 44 30 37 43 31 31 36
leaf_count=173 42 172 31 31 41 30 33 37 1007 31 33 32 30 80 31 45 30 31 59 40 45 112 109 123 1078 42 40 33 49 405 31 132 36 37 57 31 33 44 30 37 43 31 31 36
internal_value=1.70271e-05 0.000226491 0.000522602 0.00017738 0.00203209 0.000369075 -0.00290767 0.000299667 -0.000405351 0.00343478 0.00570019 0.00241312 0.00162376 -0.000590556 0.0051523 -0.000762526 -0.00163498 -0.000792644 -0.000610371 -0.00450947 -1.1538e-05 9.94295e-05 -0.00106272 -0.00187373 0.000814507 -0.00424689 0.00371135 0.000472006 0.000832809 0.000716231 -0.00259405 0.000367844 -0.00133418 0.0012158 -0.00608736 0.00311198 -0.00274059 -0.00260912 0.00138076 -0.00158198 -0.0017545 0.00310823 -0.00095599 -0.00383506
internal_weight=4684 4372 3367 2742 625 287 312 2669 1124 338 104 234 202 1087 92 1005 463 433 129 183 542 296 154 195 1545 73 73 423 354 1483 154 305 69 70 99 62 137 84 142 68 119 62 76 69
internal_count=4684 4372 3367 2742 625 287 312 2669 1124 338 104 234 202 1087 92 1005 463 433 129 183 542 296 154 195 1545 73 73 423 354 1483 154 305 69 70 99 62 137 84 142 68 119 62 76 69
is_linear=0
shrinkage=0.03


Tree=19
num_leaves=33
num_cat=0
split_feature=16 38 18 23 74 57 74 25 57 23 68 57 8 8 25 68 68 74 74 56 40 61 74 44 18 17 8 7 56 56 45 13
split_gain=2.99446 0.992384 1.06357 1.24035 1.59174 1.36846 1.11053 1.31349 0.908412 0.84146 0.810469 0.79644 0.733207 0.722239 0.698785 0.474535 0.651875 0.677441 0.444901 0.43167 0.345 0.338972 0.3177 0.222219 0.28784 0.150382 0.123698 0.108117 0.106183 0.0917861 0.0619441 0.0461867
threshold=0.061887406573949595 -0.19664533281863736 0.025914368937057706 0.071132124716615494 0.061643835616438367 0.7930062056856495 0.50547945205479461 1.7556489110244986 0.95525992254731029 1.0539266649548404 2.5541513285553585 0.54003421667657558 0.8226535415760422 0.95851660986199982 -0.107976424008664 0.58348016746533138 1.1349912659975925 0.50821917808219197 0.26438356164383564 0.63544998602483715 47.725337766601236 0.056283075169040998 0.68904109589041107 0.0081104541596684152 0.019828313555526701 -0.0048519805552173579 0.19633534008325318 -0.36180426749608474 0.36395106345766554 0.36395106345766554 -0.00055980418989433919 -0.0024877406574487001
decision_type=2 2 2 2 2 2 2 2 2 2 2 2 2 2 2 2 2 2 2 2 2 2 2 2 2 2 2 2 2 2 2 2
left_child=1 -1 15 4 -4 10 7 13 14 11 -6 -8 -11 -5 18 23 17 -17 -2 -16 -10 30 -23 24 31 -21 -25 -7 -26 -20 -18 -3
right_child=8 2 3 6 5 27 9 -9 20 12 -12 -13 -14 -15 19 16 21 -19 29 25 -22 22 -24 26 28 -27 -28 -29 -30 -31 -32 -33
leaf_value=0.0041864384489163839 -0.0046204314658030016 -0.00023130429977643978 -0.0060954279260411279 0.00064092124764052617 -0.0014607724681847121 0.004874420254212801 0.0022002826875948209 0.0065478626787987652 0.0017229308828384108 -0.00076903882801337173 0.00084728324607856302 -0.00070486357311522966 -0.0042288118627897371 0.0050993782226155457 -0.0078997903045294054 0.0011035160304504698 0.0018359494590249987 0.0071733384720510818 0.00087855564380850504 -0.0021482667054118546 -0.0020255432677921915 0.00097423984744593245 0 -0.00057582671769089964 0.0016722593719121727 -0.004967188599235707 -0.0028148396957638488 0.0021439392975315754 -0.0001258216243924717 -0.0014228548609555795 0.0040606900711738789 -0.0017515936696868455
leaf_weight=56 33 36 53 546 764 30 163 40 42 358 165 175 66 35 41 40 30 30 30 31 46 1017 427 58 88 58 41 34 40 31 30 50
leaf_count=56 33 36 53 546 764 30 163 40 42 358 165 175 66 35 41 40 30 30 30 31 46 1017 427 58 88 58 41 34 40 31 30 50
internal_value=1.65211e-05 0.000219816 0.000167558 -0.000246609 -0.00102679 -0.000752655 0.000341329 0.00128412 -0.00282176 -0.000423137 -0.00104756 0.000687502 -0.00131553 0.000915497 -0.00383681 0.00070226 0.000914939 0.00375419 -0.00181448 -0.00527353 -0.000202522 0.000780557 0.000685927 -0.000357617 0.000173637 -0.0040225 -0.00153527 0.00347626 0.00108728 -0.000242328 0.00300314 -0.00115104
internal_weight=4684 4372 4316 2429 1046 993 1383 621 312 762 929 338 424 581 224 1887 1574 70 94 130 88 1504 1444 313 214 89 99 64 128 61 60 86
internal_count=4684 4372 4316 2429 1046 993 1383 621 312 762 929 338 424 581 224 1887 1574 70 94 130 88 1504 1444 313 214 89 99 64 128 61 60 86
is_linear=0
shrinkage=0.03


Tree=20
num_leaves=38
num_cat=0
split_feature=16 39 25 18 18 20 8 16 68 68 68 16 57 16 38 25 20 54 33 18 68 68 18 20 20 18 8 8 8 39 6 18 30 6 40 5 12
split_gain=2.77174 1.3516 1.05969 1.25174 1.97398 3.01534 1.11219 0.84613 0.833186 1.74023 1.47745 1.53152 1.21854 0.727767 0.726127 0.574783 0.81446 0.56064 0.544934 0.449483 0.429521 0.776003 0.595275 0.412206 0.358464 0.355142 0.322756 0.307447 0.262616 0.246803 0.44675 0.161216 0.12334 0.0913123 0.0898093 0.0577301 0.05156
threshold=0.061887406573949595 -0.18968220457371601 1.7924174049023363 0.026669975541039091 0.03060295406512856 0.039366592265262672 0.15706644625343527 0.050374117968519545 0.43021261481284817 0.33770182531943566 0.51404568555745467 0.044428650926845711 0.60969125487896414 0.034038999832743742 -0.052648052967504848 -0.48069570058893091 0.031373888146326932 0.089965228176983117 0.011372266773302721 0.06513433219625768 0.58348016746533138 1.8887729495973946 0.024329963894751245 0.029517848730776966 0.026864798042748942 0.024128061629205829 1.8250288028293782 0.65309675765304498 0.19633534008325318 -0.048741370824168677 0.13553926936661478 0.062757926953066492 0.069506193973830635 0.018863756605316143 60.549372843437709 -0.0544538265618058 0.036259740905257125
decision_type=2 2 2 2 2 2 2 2 2 2 2 2 2 2 2 2 2 2 2 2 2 2 2 2 2 2 2 2 2 2 2 2 2 2 2 2 2
left_child=2 17 3 20 5 15 7 -4 9 12 13 -12 -6 -10 -11 -5 -17 19 -3 -2 28 22 34 -24 26 -26 -23 36 29 35 -31 -20 -19 -30 -22 -1 -8
right_child=1 18 6 4 8 -7 27 -9 10 14 11 -13 -14 -15 -16 16 -18 32 31 -21 21 24 23 -25 25 -27 -28 -29 33 30 -32 -33 -34 -35 -36 -37 -38
leaf_value=-3.0144861702050427e-05 -0.0037657566509216723 -0.0026961630095295149 0.0087680112205943787 0.0025639793415736536 -0.00039712736734757656 -0.01083471418636912 0.0024556070330407332 0.0023758717804292962 0.0077498385450026118 -0.0044224897482472297 0.00082453382761122371 -0.0035735950595026816 0.0027435354996531553 0.0024493301688392768 -0.00079252781162997981 -0.0024853775817750244 -6.486162832388591e-05 -0.0033555815623031332 0.0029951326755738731 -0.0078896548664787233 0.00201552632971388 0.00088061685563099051 0.0067590081645728852 0.0022150689969129517 0.0011239692818854198 -0.0024192182103171356 -0.00094751879392557324 -0.0019927567904241533 -0.00064603512306747601 0.0019441139003225564 -0.0020607126229138018 7.1357912922493448e-05 -0.00079159217337424869 -0.0027514494243426387 1.690651353473971e-05 -0.0014550136967312753 0.00062901629715598746
leaf_weight=49 52 52 33 31 535 32 30 47 30 119 497 83 140 121 89 343 201 53 30 52 43 1210 42 36 40 66 92 34 40 107 32 44 30 44 44 66 37
leaf_count=49 52 52 33 31 535 32 30 47 30 119 497 83 140 121 89 343 201 53 30 52 43 1210 42 36 40 66 92 34 40 107 32 44 30 44 44 66 37
internal_value=-2.84647e-05 -0.00275447 0.000168729 6.95343e-05 -0.000413986 -0.00187256 0.00241536 0.00505774 0.000132785 -0.000485184 0.000883318 0.000189467 0.000250135 0.0035267 -0.00288483 -0.00136678 -0.00159672 -0.00437336 -0.000326485 -0.00586212 0.000633052 0.000842071 0.00279305 0.00470574 0.000611128 -0.00105409 0.000749073 0.000289785 -0.000330777 0.000139351 0.000999754 0.0012996 -0.00246701 -0.0017865 0.00104035 -0.000874514 0.00149404
internal_weight=4626 313 4313 4132 2221 607 181 80 1614 883 731 580 675 151 208 575 544 187 126 104 1911 1573 165 78 1408 106 1302 101 338 254 139 74 83 84 87 115 67
internal_count=4626 313 4313 4132 2221 607 181 80 1614 883 731 580 675 151 208 575 544 187 126 104 1911 1573 165 78 1408 106 1302 101 338 254 139 74 83 84 87 115 67
is_linear=0
shrinkage=0.03


Tree=21
num_leaves=24
num_cat=0
split_feature=75 74 25 25 59 59 19 68 34 14 19 70 59 75 14 75 23 19 21 23 21 56 28
split_gain=2.98396 5.10252 1.69765 1.63631 0.933447 0.862644 0.723162 0.697642 0.715821 0.646761 0.832292 0.490516 0.46538 0.42857 0.394973 0.385353 0.319157 0.247717 0.221156 0.20151 0.155868 0.140623 0.0867976
threshold=836.50000000000011 0.11643835616438357 2.0229958396303052 1.8528958472938204 0.95696122574937958 0.84109098563830054 0.00062954848454375685 2.3750045082583213 0.33752227152728892 0.017931460462000507 -0.0017015444753780908 -0.0665659757991688 0.51848246817268884 3848.5000000000005 0.045981858373542378 5008.5000000000009 1.3695046677477956 0.0016287651249268229 -0.48800416095340654 0.74218496340459694 -0.21589704764437603 0.46996826200992781 0.021491503063584497
decision_type=2 2 2 2 2 2 2 2 2 2 2 2 2 2 2 2 2 2 2 2 2 2 2
left_child=1 -1 3 7 20 11 -5 8 9 13 -11 -3 15 -2 -7 19 -17 -14 -6 -9 -4 -13 -20
right_child=2 5 4 6 18 14 -8 12 -10 10 -12 21 17 -15 -16 16 -18 -19 22 -21 -22 -23 -24
leaf_value=-0.013567355056456476 1.5854210867027962e-05 0.0031055638179524406 -0.0015427792454110259 0.0067583621969047672 -0.0068216913785332832 -0.0059262706149843273 0.0014231604273923359 0.0034035265380763647 0.0034613549821413386 0.00062830376344212796 -0.00067446961484795458 -0.0022913890662025252 0.0046987249686971039 0.001934345640095455 -0.0014543046921470981 0.00030838233483830476 0.0025841178919004302 0.0012868754447558197 -0.0046451902054149832 0.0005394422526903978 0.0013437459192886028 0.00020798574719988223 -0.0022051580062501393
leaf_weight=37 228 37 33 48 32 40 47 64 50 585 1776 41 39 199 36 1055 59 44 37 38 34 36 31
leaf_count=37 228 37 33 48 32 40 47 64 50 585 1776 41 39 199 36 1055 59 44 37 38 34 36 31
internal_value=-2.76333e-05 -0.00338152 0.000144827 0.000262576 -0.00281949 -0.00137609 0.00415466 0.000172377 -9.02528e-05 -0.000155145 -0.00035039 0.000250207 0.00074843 0.00091722 -0.00385209 0.000596838 0.000431824 0.00292986 -0.00465428 0.00236747 -3.34465e-05 -0.00108519 -0.00358175
internal_weight=4626 227 4399 4232 167 190 95 4137 2838 2788 2361 114 1299 427 76 1216 1114 83 100 102 67 77 68
internal_count=4626 227 4399 4232 167 190 95 4137 2838 2788 2361 114 1299 427 76 1216 1114 83 100 102 67 77 68
is_linear=0
shrinkage=0.03


Tree=22
num_leaves=37
num_cat=0
split_feature=16 25 8 18 18 74 74 57 57 69 35 69 50 34 54 74 74 74 69 23 35 11 57 61 14 16 33 69 12 74 74 8 8 31 12 29
split_gain=2.44356 0.961148 1.26865 1.17762 1.94318 2.94113 0.990355 0.832305 0.830471 0.688261 0.827345 0.642625 1.00219 0.610809 0.602808 0.523796 0.367538 0.84333 0.492472 0.461355 0.601512 0.377544 0.458302 0.371685 0.342093 0.332339 0.303646 0.298279 0.292149 0.238024 0.234938 0.20556 0.197796 0.101246 0.0891908 0.072489
threshold=0.061887406573949595 1.7556489110244986 0.43334222407565576 0.026669975541039091 0.03060295406512856 0.061643835616438367 0.50547945205479461 0.97377649765687646 0.30663004279479122 0.25849124936940243 -0.1117058514935959 -0.039437089642201661 -55.001213880665652 0.31398333495400738 0.089965228176983117 0.23150684931506851 0.26986301369863019 0.68356164383561657 0.014094221906014517 1.3854934372192382 -0.21702295299857874 0.01265141581357737 0.33769154933584217 0.063467336518152062 0.041880268699910732 0.019909753919525996 0.020915177821305701 -0.1140871591903561 0.038717581702624466 0.82054794520547947 0.10547945205479455 0.68236581161644916 0.93075952584282085 0.14177620168023511 0.024792945638917863 0.061321769421660351
decision_type=2 2 2 2 2 2 2 2 2 2 2 2 2 2 2 2 2 2 2 2 2 2 2 2 2 2 2 2 2 2 2 2 2 2 2 2
left_child=1 3 6 16 5 -5 -3 8 -2 13 -11 12 -7 15 27 -6 19 21 25 20 30 22 -18 -20 -13 -19 -9 35 -15 -8 -1 -4 -22 -16 -23 -10
right_child=7 2 31 4 9 11 29 26 14 10 -12 24 -14 28 33 -17 17 18 23 -21 32 34 -24 -25 -26 -27 -28 -29 -30 -31 -32 -33 -34 -35 -36 -37
leaf_value=-0.00019786937608800304 0.00088530386951780145 0.0087838033280361466 0.00067850183150424293 -0.010872085657887089 0.00090621105234240805 -0.0013268392666292051 0.00067876382533203598 -0.0017577295369315498 -0.0083430722160874118 0.0060246899447451516 -0.00049169310706988028 -0.00072373762347334133 -0.0054471035811910606 0.0050684927709932839 -0.0031777593547750787 -0.00043448523976170287 0.00098347661240160951 0.00023402793203081552 0.0033091149297856189 0.0035205149336738979 0.00047977882648921234 0.00053837757988476037 0.0025460045205154781 0.00032211395993849849 0.0025581949064943273 -0.0021288721566144332 0.0020489379141010399 -0.0038338939473032954 0.00074443091342900184 0.0040432462768049604 -0.0032301049261391373 -0.0022651686933061878 -0.0016526436039220687 -0.00099914549711777241 -0.0015749940520147427 -0.0056500686799172946
leaf_weight=37 33 32 50 31 340 215 39 37 32 38 31 246 72 30 51 1138 359 90 43 31 389 32 335 318 32 125 38 53 30 42 72 36 43 39 37 30
leaf_count=37 33 32 50 31 340 215 39 37 32 38 31 246 72 30 51 1138 359 90 43 31 389 32 335 318 32 125 38 53 30 42 72 36 43 39 37 30
internal_value=-2.66729e-05 0.000158439 0.00219458 5.91675e-05 -0.000412747 -0.00187595 0.00428577 -0.00258624 -0.00345488 0.000128139 0.00305715 -0.00137521 -0.00237248 -1.50593e-06 -0.00416826 -0.000124001 0.000604753 0.000876733 4.94934e-06 -2.6727e-05 -0.000236146 0.00153084 0.0017423 0.000687032 -0.00033439 -0.00112616 0.000131195 -0.00562519 0.00296121 0.00246314 -0.00222944 -0.000520089 0.000260248 -0.00226915 -0.000552104 -0.00709951
internal_weight=4626 4313 199 4114 2203 596 113 313 238 1607 69 565 287 1538 205 1478 1911 1339 576 572 541 763 694 361 278 215 75 115 60 81 109 86 432 90 69 62
internal_count=4626 4313 199 4114 2203 596 113 313 238 1607 69 565 287 1538 205 1478 1911 1339 576 572 541 763 694 361 278 215 75 115 60 81 109 86 432 90 69 62
is_linear=0
shrinkage=0.03


Tree=23
num_leaves=24
num_cat=0
split_feature=75 74 16 14 16 34 34 14 68 39 23 7 74 54 39 14 74 34 75 38 16 45 13
split_gain=2.7242 4.70653 1.32669 0.912161 0.788555 0.697914 0.688876 0.726757 0.804651 0.653784 0.763635 0.785228 0.565838 0.478708 0.430158 0.355345 0.314301 0.260333 0.190491 0.0945137 0.0772 0.0644621 0.0334743
threshold=836.50000000000011 0.11643835616438357 0.05637444524078191 0.067191707937253917 0.052983751856598628 0.31398333495400738 -0.22618709875396217 0.027853540911939683 2.3750045082583213 0.52761214075793905 0.60952836398509713 -0.50125283407522225 0.68356164383561657 0.049609013293272254 -0.2165294031734786 0.045981858373542378 0.50547945205479461 0.022846542175919752 3060.5000000000005 0.046073848522259493 0.067372258843212116 -0.0031382303095014827 -0.003216893026019766
decision_type=2 2 2 2 2 2 2 2 2 2 2 2 2 2 2 2 2 2 2 2 2 2 2
left_child=1 -1 3 5 13 6 -2 12 -9 10 17 -12 -8 19 -7 -6 -5 -4 20 -3 -13 -20 -19
right_child=2 4 9 16 15 14 7 8 -10 -11 11 18 -14 -15 -16 -17 -18 22 21 -21 -22 -23 -24
leaf_value=-0.013013295863966538 0.0038587925775583729 -0.0002287135576910299 -0.0021722852306538015 0.0053613259733049532 -0.0056402151082221999 0.0054256851666398603 0.00071347377056804368 -0.00077121195415168805 0.0010706747920772586 0.0014955366800604446 0.00074044101311518894 -0.0046472940816779003 -0.00028968292153081214 0.0026760104634363344 0.00051818012064502503 -0.0013908656844704788 0.0012792113177433292 5.9953955645314049e-05 -0.0070334018345239455 -0.0025649730479646395 -0.0024232575503067735 -0.0045232024467070633 0.0015490918962183869
leaf_weight=37 45 39 40 41 40 37 1806 1129 262 47 30 32 698 45 31 36 33 30 31 30 43 30 34
leaf_count=37 45 39 40 41 40 37 1806 1129 262 47 30 32 698 45 31 36 33 30 31 30 43 30 34
internal_value=-2.58401e-05 -0.00323046 0.000138914 0.000284745 -0.00130375 0.000222965 0.000170112 0.000126627 -0.000422077 -0.00172898 -0.00230174 -0.00356545 0.000432641 0.000250129 0.00323654 -0.00367126 0.00358559 -0.000254371 -0.00453716 -0.00129014 -0.00341705 -0.0058574 0.000899043
internal_weight=4626 227 4399 4082 190 4008 3940 3895 1391 317 270 166 2504 114 68 76 74 104 136 69 75 61 64
internal_count=4626 227 4399 4082 190 4008 3940 3895 1391 317 270 166 2504 114 68 76 74 104 136 69 75 61 64
is_linear=0
shrinkage=0.03


Tree=24
num_leaves=24
num_cat=0
split_feature=75 20 25 25 56 16 8 20 39 74 21 75 75 39 68 75 25 25 38 16 54 37 21
split_gain=2.56559 5.8027 1.4459 1.4624 0.838934 0.773356 0.640659 0.63818 0.677431 1.52335 1.10746 0.717052 1.71249 0.558572 0.423496 0.400706 0.504671 0.487055 0.355834 0.30226 0.24658 0.155984 0.141394
threshold=836.50000000000011 0.058654810913740328 2.0229958396303052 1.8528958472938204 0.46996826200992781 0.060282890896771392 0.1720494606648684 0.02607741456264662 0.096963643450461059 0.078082191780821944 -1.6726488143905784 8254.5000000000018 7614.5000000000009 -0.2079756641301759 0.78063725875675993 5008.5000000000009 0.61052900124278509 0.41941769060383027 -0.081906904003966871 0.052983751856598628 0.08656593563826516 -0.00535617393326454 -0.21589704764437603
decision_type=2 2 2 2 2 2 2 2 2 2 2 2 2 2 2 2 2 2 2 2 2 2 2
left_child=1 -1 3 7 19 22 -5 14 11 -10 -11 12 -9 -13 21 16 -16 -17 -6 -3 -7 -2 -4
right_child=2 4 5 6 18 20 -8 8 9 10 -12 13 -14 -15 15 17 -18 -19 -20 -21 -22 -23 -24
leaf_value=-0.015412109073783669 -0.00030565870143413988 -0.0014767696104000811 -0.0014989848740313066 0.0063748253050130519 -0.0013023869031596259 -0.0059115505887634432 0.0013471041607913696 0.00050351253756734059 0.0058020072437798059 0.0039902798723017744 -0.0012963132502011128 0.0048155147798706315 -0.0019046280429241538 0.0010254444335069809 0.00094078945868362204 0.0011928860044013079 0.0043762640307109532 -3.020764706531977e-06 0.002254856880343355 -0.0049642532128306282 -0.0027514657650753267 -0.0029858287839708551 0.001248167420319579
leaf_weight=30 55 48 33 48 45 47 47 1242 30 37 792 45 338 173 116 605 60 611 56 48 53 33 34
leaf_count=30 55 48 33 48 45 47 47 1242 30 37 792 45 338 173 116 605 60 611 56 48 53 33 34
internal_value=-2.50584e-05 -0.003135 0.000134808 0.000243526 -0.00124329 -0.00260078 0.003923 0.000158214 -0.000118922 -0.000812629 -0.00105629 0.000210857 -9.83597e-06 0.0018234 0.00065775 0.000786731 0.00213083 0.000589564 0.000640552 -0.00325508 -0.0042711 -0.00134702 -6.04157e-05
internal_weight=4626 227 4399 4232 197 167 95 4137 2657 859 829 1798 1580 218 1480 1392 176 1216 101 96 100 88 67
internal_count=4626 227 4399 4232 197 167 95 4137 2657 859 829 1798 1580 218 1480 1392 176 1216 101 96 100 88 67
is_linear=0
shrinkage=0.03


Tree=25
num_leaves=33
num_cat=0
split_feature=16 75 75 60 74 39 60 25 15 57 75 35 75 25 55 38 74 54 39 16 21 75 60 33 9 31 70 35 67 8 74 69
split_gain=2.62114 1.20959 2.58394 1.25784 1.10171 2.44264 0.840073 0.878041 0.795897 0.723978 0.706704 0.638474 0.57389 0.556692 0.442383 0.400174 0.560293 0.366958 0.362598 0.468528 0.333632 0.303367 0.283124 0.250641 0.20439 0.188922 0.137523 0.0908505 0.0875131 0.0691319 0.0624743 0.00909023
threshold=0.061887406573949595 2683.5000000000005 2817.5000000000005 0.90397559777362801 0.061643835616438367 -0.048741370824168677 0.41879675612103923 -0.67025071879185105 -0.00088489062196816148 0.97377649765687646 2308.5000000000005 0.29329024581103241 4712.5000000000009 -0.107976424008664 0.048602362966882688 0.040102413460893611 0.25890410958904114 0.077744681377586208 0.1092444826184621 0.043318741103134828 0.54581632098367694 3223.5000000000005 0.51383525988248857 0.0084826893927713049 -0.023159569382999953 -0.030621605194463938 -0.051304087531907919 0.1588454586850451 0.49237035558462489 0.15192816418727886 0.29178082191780824 -0.1124645777248952
decision_type=2 2 2 2 2 2 2 2 2 2 2 2 2 2 2 2 2 2 2 2 2 2 2 2 2 2 2 2 2 2 2 2
left_child=1 4 -3 6 5 -1 12 -8 -9 13 15 26 -4 20 -14 18 22 -15 19 -6 30 -5 -17 -11 -19 -18 -12 -28 -26 -20 -2 -30
right_child=9 2 3 21 10 -7 7 8 -10 23 11 -13 14 17 -16 16 25 24 29 -21 -22 -23 -24 -25 28 -27 27 -29 31 -31 -32 -33
leaf_value=0.00038586440536934527 -0.0011930064245956645 0.008689054780615128 0.0047199286787919809 0.0019691918613910547 0.00090603417651533393 -0.010800651703401162 0.0038981470090100729 -0.0011260816139699904 0.0002327491708839841 -0.0016616803317595896 -0.0017878153240652311 0.0012077627266542268 0.00062612229108225347 -0.0071147719656200099 0.0042062780433377934 0.002896239191424811 -0.0040139678186819358 -0.0013136132412299609 -0.00030235465837215569 -0.0018141157318970157 -0.003940053702503713 0.0055622080991127682 -0.00082681709738250243 0.0017152406069758073 -0.0027377411682110793 -0.0015301387875153816 -0.0054011491596523964 -0.0030437571712730333 -0.0057276555464089475 -0.002248408276379954 0.00064550914456166565 -0.0041272969781106688
leaf_weight=41 31 34 33 45 478 30 46 636 988 41 41 35 1433 37 32 34 44 31 30 64 33 47 38 38 31 93 34 45 32 51 34 31
leaf_count=41 31 34 33 45 478 30 46 636 988 41 41 35 1433 37 32 34 44 31 30 64 33 47 38 38 31 93 34 45 32 51 34 31
internal_value=-1.16606e-05 0.000185639 0.000469633 0.000382725 -0.000695677 -0.00430718 0.000281219 -0.000179999 -0.000297593 -0.00255271 -0.000432434 -0.00229232 0.000797375 -0.00331672 0.000706653 -8.21011e-05 -0.00122053 -0.00440575 0.00029513 0.000579026 -0.00148325 0.00384137 0.000891262 0 -0.00357485 -0.00235209 -0.00333832 -0.0041018 -0.00428651 -0.0015659 -0.000185724 -0.00499551
internal_weight=4691 4352 3294 3260 1058 71 3168 1670 1624 339 987 155 1498 260 1465 832 209 162 623 542 98 92 72 79 125 137 120 79 94 81 65 63
internal_count=4691 4352 3294 3260 1058 71 3168 1670 1624 339 987 155 1498 260 1465 832 209 162 623 542 98 92 72 79 125 137 120 79 94 81 65 63
is_linear=0
shrinkage=0.03


Tree=26
num_leaves=28
num_cat=0
split_feature=16 55 38 74 37 45 18 18 19 18 16 39 7 16 55 25 69 39 16 38 38 40 36 6 58 18 24
split_gain=2.46912 0.787434 1.08718 1.13315 2.10393 0.721563 0.615003 1.12248 1.20182 0.649085 1.10061 0.581332 0.53954 0.699775 0.538226 0.525328 0.475709 0.459388 0.443323 0.35669 0.350086 0.338923 0.227164 0.154623 0.165485 0.0926355 0.0137619
threshold=0.061887406573949595 0.093168531105786892 -0.063500728828074379 0.16027397260273976 -0.0080916650548251128 0.033958926181535988 0.061178045676899752 0.045626317412713314 0.0031614540383170368 0.025914368937057706 0.034038999832743742 -0.22885362823697827 -0.53247198847686483 0.033508909070171129 0.10998387711046574 -0.075523032521689168 0.046390552880658083 -0.041447421586171755 0.039780172968923701 -0.18139224775933852 0.049650875504861254 49.400068534820356 0.41452164364262384 -0.035764205847317425 0.58386787679082786 0.060747192314365574 -0.079691315735614707
decision_type=2 2 2 2 2 2 2 2 2 2 2 2 2 2 2 2 2 2 2 2 2 2 2 2 2 2 2
left_child=1 2 3 4 -1 11 7 9 20 17 -11 14 15 22 23 -5 -15 -4 -8 -3 -9 25 -14 24 -2 -13 -26
right_child=5 19 6 12 -6 -7 18 8 -10 10 -12 21 13 16 -16 -17 -18 -19 -20 -21 -22 -23 -24 -25 26 -27 -28
leaf_value=-0.00021871693308087402 -0.0063890800338525034 0.0043480232740946484 -0.00025364286491031231 0.0040071012024853964 -0.010206563192506931 -0.0066558407944056295 -8.2654294864708874e-05 0.0025490828031570186 0.007349846131761398 -0.00072430715298688443 0.0009694750327540264 0.0020705252096234368 0.00068341490512577557 -0.0012011918442379186 7.2111899876951141e-05 -0.0009474714736719108 -0.0043148463059545688 0.00089182022102877578 -0.0045705035473684518 0.00082651715638963304 -0.00049104511636686326 -0.0022063585885133841 -0.0018922757848876344 -0.0019260882448862951 -0.0027632958129005028 -3.2184960567677467e-06 -0.0041896770766725504
leaf_weight=46 35 57 402 42 33 34 43 86 39 1106 501 31 175 142 35 34 67 1397 39 52 54 59 37 30 30 44 41
leaf_count=46 35 57 402 42 33 34 43 86 39 1106 501 31 175 142 35 34 67 1397 39 52 54 59 37 30 30 44 41
internal_value=-1.14023e-05 0.000180072 0.000114623 -0.00109579 -0.00443641 -0.00247768 0.000305593 0.000365097 0.00268168 0.000242395 -0.000194358 -0.00200005 -0.000557962 -0.000982553 -0.00316231 0.00175283 -0.00221528 0.000634191 -0.00225663 0.00269783 0.00135554 -0.000493247 0.000219059 -0.00401619 -0.00457707 0.000815598 -0.00363391
internal_weight=4691 4352 4243 576 79 339 3667 3585 179 3406 1607 305 497 421 171 76 209 1799 82 109 140 134 212 136 106 75 71
internal_count=4691 4352 4243 576 79 339 3667 3585 179 3406 1607 305 497 421 171 76 209 1799 82 109 140 134 212 136 106 75 71
is_linear=0
shrinkage=0.03


Tree=27
num_leaves=30
num_cat=0
split_feature=16 75 8 38 15 75 58 68 75 45 8 20 10 12 21 39 39 7 50 34 16 33 43 16 75 57 58 12 54
split_gain=2.32531 1.14232 3.62584 0.855822 0.680369 0.797821 0.742664 0.949992 1.0016 0.678292 0.664764 0.757275 0.556222 0.743391 0.64431 0.547151 0.538659 0.457229 0.391264 0.355076 0.354002 0.341736 0.242899 0.239203 0.238772 0.196612 0.180305 0.110515 0.051788
threshold=0.061887406573949595 836.50000000000011 -0.62172222475748806 -0.19664533281863736 0.004265823841717164 6252.5000000000009 0.44216125431333381 2.463156959143062 8254.5000000000018 0.033958926181535988 -0.40163995122932566 0.036847937131653068 0.043023007634311543 0.022834115548521699 0.42268441973779974 -0.22885362823697827 0.275202704059818 0.91972543889053737 -39.290575423687621 0.39323970632991007 0.032661325474568959 0.0084826893927713049 0.037699708645245994 0.043006466479786433 6956.5000000000009 0.95525992254731029 0.58386787679082786 0.03015514780640351 0.099551665215374674
decision_type=2 2 2 2 2 2 2 2 2 2 2 2 2 2 2 2 2 2 2 2 2 2 2 2 2 2 2 2 2
left_child=1 2 18 -3 6 12 10 8 -8 15 11 -5 13 -6 -14 19 24 -12 23 25 -9 -17 -18 -1 -7 26 -2 -23 -28
right_child=9 3 -4 4 5 16 7 20 -10 -11 17 -13 14 -15 -16 21 22 -19 -20 -21 -22 27 -24 -25 -26 -27 28 -29 -30
leaf_value=0.0024291439284965144 -0.0062475544498288389 0.0042101527056457614 -0.011156418366516655 0.0049779618784974427 0.0026273431751887492 0.0024282777930242968 -0.0011423682855002159 0.00040040478362777805 0.0017357419656042062 -0.0064567510461396478 0.000173217280658048 0.00074142090006937809 0.0011873551898121642 -9.1128675441956014e-05 0.0063462603847029581 -0.0022781900556528953 -0.0038298108416045607 0.0038465598567577605 -0.0023744148539420022 -3.3899998575436558e-06 0.0031599895174336083 0.0022054029905323892 -0.00021706172682428452 -0.00086219276440797053 0 -0.0014788913639331948 -0.0041778494249121766 -5.6894970225197351e-05 -0.0022549481786978995
leaf_weight=53 34 49 33 58 183 48 1018 109 121 34 1906 116 43 175 48 56 44 31 41 30 71 30 30 30 145 32 43 48 32
leaf_count=53 34 49 33 58 183 48 1018 109 121 34 1906 116 43 175 48 56 44 31 41 30 71 30 30 30 145 32 43 48 32
internal_value=-1.12107e-05 0.000174585 -0.00233501 0.000269276 0.000221877 0.00106314 4.53656e-05 -0.000512082 -0.000833857 -0.0024046 0.0003951 0.00217288 0.00183598 0.00129045 0.00394545 -0.00194109 -0.000225482 0.00023375 0 -0.00306876 0.00150672 -0.000478452 -0.00240794 0.0012038 0.000596592 -0.00369924 -0.00432164 0.000776517 -0.00340145
internal_weight=4691 4352 157 4195 4146 716 3430 1319 1139 339 2111 174 449 358 91 305 267 1937 124 171 180 134 74 83 193 141 109 78 75
internal_count=4691 4352 157 4195 4146 716 3430 1319 1139 339 2111 174 449 358 91 305 267 1937 124 171 180 134 74 83 193 141 109 78 75
is_linear=0
shrinkage=0.03


Tree=28
num_leaves=36
num_cat=0
split_feature=16 34 18 23 74 57 20 20 19 18 45 16 57 23 20 74 74 21 19 18 20 69 61 23 36 44 14 16 18 33 23 32 44 64 56
split_gain=2.19117 0.688998 0.807187 1.08581 1.4148 0.860206 0.801337 0.924813 0.852891 0.803532 0.637415 0.546751 0.461169 0.60841 0.43533 0.431573 0.947513 0.4243 0.407394 0.820955 0.449344 0.368688 0.335086 0.323521 0.525424 0.251251 0.242579 0.228341 0.221674 0.188604 0.170209 0.118908 0.11741 0.0563096 0.0423691
threshold=0.061887406573949595 0.33752227152728892 0.025914368937057706 0.024496982325283762 0.061643835616438367 0.80031247327015465 0.029132005849584034 0.038473574396948811 0.00098976839529046315 0.045626317412713314 0.033958926181535988 0.044428650926845711 0.97377649765687646 0.032867081620282589 0.026572224091502252 0.26986301369863019 0.68356164383561657 -0.34439454540866227 0.00046213227195382223 0.024329963894751245 0.022142332410080425 0.0114727618816807 0.056283075169040998 1.2357629884546131 -0.17979995517752437 0.022465811960167101 0.036780219059710274 0.019909753919525996 0.018699303787085678 0.0084826893927713049 0.99745924555024656 0.094029181876318604 0.0035463659412594763 -3.8706043546840657e-09 0.36494943528511625
decision_type=2 2 2 2 2 2 2 2 2 2 2 2 2 2 2 2 2 2 2 2 2 2 2 2 2 2 2 2 2 2 2 2 2 2 2
left_child=1 2 15 4 -4 11 14 9 -9 -8 12 -6 13 34 25 23 18 -3 19 -17 -20 27 -23 24 28 -5 -15 -18 -1 -14 -26 33 -16 -28 -2
right_child=10 17 3 6 5 -7 7 8 -10 -11 -12 -13 29 26 32 16 21 -19 20 -21 -22 22 -24 -25 30 -27 31 -29 -30 -31 -32 -33 -34 -35 -36
leaf_value=-0.0040762720927796916 0.00062671839292052865 0.00021411536000367766 -0.0059291017620857738 0.0012279958362754714 -0.00069454417992475159 0.0029161207136128259 0.0010566914940581032 0.000474613672692121 -0.0019472820642239114 0.0049750504462538203 -0.0062636166835023507 -0.0030319518290250541 -0.0013368288787466514 -0.0058766197696582881 -0.0035160278464561258 0.0016191244992045308 1.808854751634953e-05 0.0044889597427941819 0.0020202011901403736 0.006046717004985375 0.00026827120294525792 0.0035443200139743439 0.00022622206273252668 0.0028339224914837495 0.00043551507747753245 -0.0021219662077114031 -0.002349130212394304 -0.0020366143549633339 -0.0011286040803210244 0.0016235672871354877 -0.0014133925380735656 -0.0015287734908693261 -0.001185224788155114 -0.0043277880654274343 -0.00084871230642204079
leaf_weight=37 30 37 50 57 786 54 559 438 186 52 34 103 39 35 72 157 84 53 264 51 272 30 342 31 343 31 30 107 72 38 51 44 33 50 39
leaf_count=37 30 37 50 57 786 54 559 438 186 52 34 103 39 35 72 157 84 53 264 51 272 30 342 31 343 31 30 107 72 38 51 44 33 50 39
