tree
version=v4
num_class=1
num_tree_per_iteration=1
label_index=0
max_feature_idx=75
objective=regression
feature_names=Column_0 Column_1 Column_2 Column_3 Column_4 Column_5 Column_6 Column_7 Column_8 Column_9 Column_10 Column_11 Column_12 Column_13 Column_14 Column_15 Column_16 Column_17 Column_18 Column_19 Column_20 Column_21 Column_22 Column_23 Column_24 Column_25 Column_26 Column_27 Column_28 Column_29 Column_30 Column_31 Column_32 Column_33 Column_34 Column_35 Column_36 Column_37 Column_38 Column_39 Column_40 Column_41 Column_42 Column_43 Column_44 Column_45 Column_46 Column_47 Column_48 Column_49 Column_50 Column_51 Column_52 Column_53 Column_54 Column_55 Column_56 Column_57 Column_58 Column_59 Column_60 Column_61 Column_62 Column_63 Column_64 Column_65 Column_66 Column_67 Column_68 Column_69 Column_70 Column_71 Column_72 Column_73 Column_74 Column_75
feature_infos=[-0.17420211016302034:0.26562506305830058] [-0.28571427355007228:0.33944953526423949] [-0.28571427355007228:0.34776528790416195] [-0.29304811586530932:0.56424577192050229] [-0.42121211281967053:0.74107146373360755] [-0.50900900030124507:1.2018348824525353] [-0.55327868532090063:2.871559321985703] [-0.59926469782592939:4.2579854479728354] [-0.67168673033256732:5.9633506339364706] [-0.069358534357616269:0.089480754589820244] [0.003239483833675518:0.19252104218604205] [-0.054681921191385027:0.055450070746436451] [0.0071306554595069356:0.14147198814221199] [-0.033872832471812241:0.037585288106033676] [0.01358400136517063:0.10386127572991159] [-0.012790798982420573:0.02148662462645522] [0.021945516826913054:0.074773489791299177] [-0.0072575727298630948:0.013172602846876602] [0.025579066783705431:0.064136078774571406] [-0.0044197898252269184:0.0077010348072468664] [0.02650762754627764:0.059271212170131996] [-2.7277811120017028:3.1578608766847167] [-3.5772582498422567:3.9198053903471677] [-1.9269100650175717:3.7243859798436971] [-4.6458675584446087:6.1359265766856854] [-0.78412681987586108:2.4399179272583429] [-5.2373982929349934:5.9267137693471161] [-0.1778751342083793:0.18719999790191655] [-0.14503845278427407:0.16253427636930895] [-0.25366072035831755:0.31594204470425202] [-0.20840715581576086:0.27426344839856642] [-0.33952602977339719:0.52137868764722373] [-0.3006984457602806:0.45349892739264086] [-0.51109002154919891:0.84044032410489411] [-0.45838888126968214:0.72905161543186758] [-0.68750946287342307:1.3134953502363351] [-0.65485727703272323:1.2758594886897785] [-0.26224712742352463:0.3583073194712505] [-0.23519877128009925:0.38953021407699229] [-0.25727921301105461:0.98476350643663046] [19.634108167981182:88.053365543540153] [27.375668280745714:81.175073356711351] [11.687957236230091:94.995290774197244] [-0.241970727206713:0.1441723838535611] [-0.20585128317646645:0.13391558204773374] [-0.048014658578287107:0.053252909082069054] [-0.29304811586530932:0.56424577192050229] [-0.42121211281967053:0.74107146373360755] [-0.50900900030124507:1.2018348824525353] [-99.999999994298747:0] [-99.99999999657534:0] [0:99.999999993630567] [0:99.999999927495608] [-51.397860702370764:52.09596402256927] [0.021668248090041576:0.29540751492966916] [0.021494996665718982:0.18978382187898191] [0.025297812397321231:4.1218016104251767] [0.097669865052107896:2.4247521154457696] [0.21563933652842029:1.6487466385875273] [0.34837427950077149:1.1869923518892276] [0.42079554200265556:0.94090132384508551] [0.049022825492446978:1.0021642339553005] [-0.35739838140252966:1.3898692513408217] [0:0.81818182121408312] [-0.77005347265610047:0.28453043718877458] [-1:274] [-1:438.25] [0:9.5259492248932407] [-0.27554343129844888:0.33363476616690474] [-0.94959836255979302:0.76200263196897255] [-0.35701264345493688:0.42101459194252533] [0:1] [0.083333333333333329:1] [0.25:1] [0.0027397260273972603:1] [365:4293]
tree_sizes=2135 3642 3787 3716 3533 3976 4060 3705 2152 3368 3821 3802 3816 4092 3903 3707 3895 3842 3909 2859 3567 3209 3653 3293 3653 4079 3907 4012 3747 3826 3215 3169 3426 3517 3340 3511 3317 4000 3405 3206 3510 3938 3675 3576 3119 3782 3249 3343 3841 3150 4142 3255 3777 2468 3980 3448 3609 3525 3445 3970 3453 3146 3319 3274 3428 3551 3464 3783 3481 3007 3456 3293 3427 3367 3267 3066 3279 3913 3320 3538 3820 3638 3364 3335 3535 3260 1959 3123 3247 3472 2918 2215 2931 2188 3484 3516 3565 3833 3894 3197 3293 3553 3413 3187 3112 3082 3027 2551 2189 1676 2922 2665 1690 3230 2596 2953 2246 3487 3318 2759 2472 1678 2591 2991 1693 2584 2993 2832 3157 2909 1261 1159 2765 1979 1250 2043 2280 3000 2080 3145 2776 2330 2247 2487 2404 2462 2769 2524 2529 1678 2035 2091 1518 1533 1955 1800 2155 3170 2588 1959 2340 2624 2649 2395 1220 2655 3062 1415 1344 1324 2221 2307 2518 1423 2422 2190 2574 2171 2345 2586 1350 1994 1774 2374 1489 1162 1345 2122 1159 1061 1980 2023 2515 1679 1501 2147 3102 2422 3640 3430 1296 2075 1778 1580 1305 2123 1816 2154 1948 2105 2058 2550 1975 2825 2443 2176 2149 2425 1397 2010 1853 1871 1718 2756 1260 2214 1977 1923 1712 2429 1744 1685 1646 2072 1305 1321 1415 1542 1932 1313 2092 2616 2296 2213 1887 1744 1617 1662 1971 1438 2632 2464 1856 1492 3255 1776 1814 1850 2384 1479 2321 2202 1591 1324 1615 1583 2848 1775 1724 2666 2361 2991 2413 2589 2519 2686 2296 1847 2544 2817 2889 1993 1126 1328 2495 1632 1792 1635 1761 2899 2235 2959 2039 1991 2673 1711 1579 2712 2711 2201 2250 2337 2355 1679 2428 2443 1896 1803 1574 2578 1356 3080 980 1874 1620 1493 1761 1479 2164 1693 1912 2131 1750 1983 2099 1604 3363 2770 2128 2165 2287 2549 3181 1405 2160 1766 2194 1269 2300 2490 2621 2569 2352 2334 1813 2347 2113 1931 2755 2011 2696 3346 2075 2177 1261 1966 1901 1642 2391 1313 1282 1284 1480 1760 1985 1701 2453 3400 2815 2840 2697 1848 2691 2734 1746 2258 2523 1845 2809 2585 1226 2739 1397 1791 2392 2928 1354 3137 2100 2757 2533 2745 2486 2681 3135 2567 1282 2796 3021 2892 1457 1834 2432 1673 2254 1660 1636 1728 2189 1653 2979 2086 3068 3106 2038 2203 2078 1858 2319 2269 1920 3108 2211 1417 3013 1957 1461 3429 2856 2899 2575 3240 3166 2182 2883 1545 2734 1578 1238 1689 2563 1944 1798 1249 1158 2210 2381 2241 1863 1790 3123 2236 3204 2375 2929 2086 1487 1675 2532 1558 2655 4055 2963 3164 2613 1612 1777 2087 1424 2308 1986 2955 1821 2399 2478 3046 2507 1683 1613 2134 2888 1930 2357 1285 1510 3237 3320 3596 2144 3536 2441 2673 1936 1581 1398 2824 2325 3000 2785 3224 2990 2757 3810 3406 2485 2170 3853 3552 2856 2041 2158 2380 2247 2377 3495 2643 1901 1980 2177 2029 2606 2183 2411 2240 2230 3079 2417 2635 2225 2428 2776 2805 2903 1662 2312 2817 3304 3160 2596 1466 2317 2842 2189 2047 2470 1920 1995 2442 2560 1158 1728 2424 2516 1722 1949 3322 2764 2881 3364 2882 2277 1862 1951 3109 1825 2590 2434 2696 2714 2586 2645 1321 2895 2679 1836 1783 1863 1497 2315 2474 2182 1905 1954 1885 2263 2784 1610 1966 1722 1826 2128 2283 2147 2554 1267 3547 3543 2501 2851 3751 2426 2972 3186 2886 3455 3281 3527 3510 1319 3480 2313 2634 2224 2354 2632 1809 2709 3111 3212 2829 2242 2112 2533 2475 1565 2715 3564 3684 2030 2080 3902 3395 3772 2876 3296 2765 2687 2935 3156 3125 2635 2345 2943 3021 2567 3312 3872 2187 2225 3327 3655 3427 3757 3598 3822 3696 3229 2884 3023 2114 1911 2370 2167 2650 2043 3210 3135 3520 3200 3261 2197 1796 1980 2824 3423 3213 3638 3228 3459 3095 1893 3146 2705 2999 2250 3035 3342 2219 2560 3199 2430 2198 2226 2634 1767 2343 1870 2734 2513 3072 2396 3467 3245 2309 3169 3228 2853 2746 2936 2166 2108 2291 2834 2114 1604 1406 3061 1557 1944 3146 2890 1982 2603 2582 2665 2953 1822 2805 1864 2955 1817 2141 3370 2019 3329 3190 3119 2926 3220 2812 2554 2678 2580 2883 2565 1963 3264 2001 2841 2599 2824 2251 2107 2120 2488 1564 2063 1574 2341 1762 1897 1798 1578 2918 1626 2847 2095 2867 2832 2383 2486 3288 3273 3446 3828 1655 2417 2165 1377 3021 3474 2426 3187 2907 3570 3497 2703 2726 4280 4039 1855 2385 2472 2506 2256 2500 3488 3314 2438 1810

Tree=0
num_leaves=24
num_cat=0
split_feature=18 57 8 25 72 25 74 68 16 8 8 68 23 16 74 5 35 38 68 74 38 61 23
split_gain=104.01 69.5946 76.8146 31.2131 26.3216 17.3695 21.8963 30.04 16.6886 13.6021 12.5964 8.68561 6.34602 2.38142 2.14188 2.34557 1.47764 1.23833 0.979164 0.537111 0.237024 0.121276 0.0521667
threshold=0.053420719602985944 0.3600645135126806 -0.31473499345591593 0.95916541408701483 0.45833333333333343 0.2474682504268956 0.69726027397260293 -0.10296448538499337 0.045640832611043798 0.45318382904759141 -0.1369435195061656 -0.14669364972794283 0.98025638397377357 0.038704141073017714 0.51643835616438361 0.10129783874795907 0.21070320259221323 -0.039735691746931638 -0.20904678348441921 0.56301369863013717 -0.0097779325970941949 0.19359887852025268 0.16209290695160858
decision_type=2 2 2 2 2 2 2 2 2 2 2 2 2 2 2 2 2 2 2 2 2 2 2
left_child=1 9 4 5 11 10 8 -8 -7 -1 13 -3 -12 -4 -2 20 -13 21 -6 22 -16 -5 -19
right_child=14 2 3 17 18 6 7 -9 -10 -11 12 16 -14 -15 15 -17 -18 19 -20 -21 -22 -23 -24
leaf_value=0.25754104645588632 0.27763262363613184 0.28114852398284612 0.26334832294726201 0.23438105838917991 0.25395228073877607 0.23661736692359678 0.26976958253858074 0.24424983862331834 0.25022764400288222 0.28184725593260412 0.24611781213214057 0.25939060062469865 0.2603571161120618 0.25266389445345744 0.27535178389498555 0.26348371182996283 0.26873905010127702 0.23154922822609519 0.24736056884097549 0.22887765383905498 0.2703134298423876 0.23793767088872284 0.23478466538891457
leaf_weight=34 50 52 55 33 33 482 52 204 97 55 429 30 30 30 37 38 37 31 51 80 30 30 31
leaf_count=34 50 52 55 33 33 482 52 204 97 55 429 30 30 30 37 38 37 31 51 80 30 30 31
internal_value=0.248694 0.246743 0.245452 0.243223 0.262818 0.244851 0.242133 0.249428 0.238903 0.272616 0.249017 0.271889 0.247057 0.259622 0.272305 0.269715 0.26462 0.232299 0.249918 0.230685 0.273176 0.236008 0.233094
internal_weight=2031 1876 1787 1584 203 1379 835 256 579 89 544 119 459 85 155 105 67 205 84 142 67 63 62
internal_count=2031 1876 1787 1584 203 1379 835 256 579 89 544 119 459 85 155 105 67 205 84 142 67 63 62
is_linear=0
shrinkage=1


Tree=1
num_leaves=40
num_cat=0
split_feature=60 36 36 69 57 68 68 36 72 68 23 57 68 72 23 57 7 61 60 23 72 39 60 39 36 44 57 15 57 36 57 21 68 54 68 36 7 36 14
split_gain=119.291 59.9613 40.4938 25.6755 24.7442 19.4756 23.5606 20.8798 18.0032 10.9476 11.64 10.6519 9.60622 9.24216 9.1549 8.03688 7.94876 4.36123 4.08543 3.6791 3.37484 3.24425 2.92755 2.47769 2.29072 2.07892 1.81425 1.72219 1.39998 1.38313 1.31468 1.27447 0.91291 0.79437 0.698091 0.689735 0.39287 0.258508 0.152816
threshold=0.71685416810407177 0.17023794993780897 -0.22837935233849069 0.011807685468969415 0.44721328218961048 -0.021658090365782545 -0.19830187125443408 -0.088502580882199908 0.62500000000000011 -0.0099905892623417397 -0.075572902114782167 0.58243334289045634 0.010543234036718507 0.45833333333333343 -0.49097540852316929 0.46302513400767525 0.92979795214242256 0.24605279952218281 0.67735400519875377 0.056006076614245164 0.45833333333333343 -0.11123025532647123 0.56831204905780741 0.24940608070784467 -0.014270461597499616 -0.011020277837082088 0.55754297529869035 0.0070132185787303734 0.67519771786999594 -0.15690795875471483 0.4141487224487031 0.1654911434278005 0.042173133429760694 0.046883334848645999 0.0066267037341244169 -0.026269006990475848 2.2794060922228958 0.049309009329889582 0.033543763220937585
decision_type=2 2 2 2 2 2 2 2 2 2 2 2 2 2 2 2 2 2 2 2 2 2 2 2 2 2 2 2 2 2 2 2 2 2 2 2 2 2 2
left_child=1 5 4 14 -2 6 -1 15 30 38 -11 13 27 24 -3 23 -14 -5 32 -15 -16 -8 33 29 -9 -24 35 -6 -20 -7 -4 -22 -17 -23 37 -12 -18 -13 -10
right_child=2 3 8 17 12 7 21 11 9 10 26 34 16 19 20 18 36 -19 28 -21 31 22 25 -25 -26 -27 -28 -29 -30 -31 -32 -33 -34 -35 -36 -37 -38 -39 -40
leaf_value=0.0042386570376778954 0.021748409838125895 0.014201063777740245 0.032860121316970532 0.017270752103518573 0.01271350006553784 -0.0054638344183019685 -0.0070195166019189782 0.0028009669608044844 0.026955641131860469 0.020557817343863836 0.0037290401431103589 -0.0074887826928129878 -0.014679056766515633 -0.0054578696855950631 -0.0086360400393018562 -0.014373201215491453 0.0011263853636003082 0.033089191467962527 -0.01091244376806432 0.003060015709494341 0.0060897059752451025 -0.027181748559704649 -0.012135884288412111 -0.011268034666541993 0.012406971224478189 -0.018310336223251875 -0.0024483538852877714 0.0031523689732904907 -0.0032146706545347981 0.00064354506591349692 0.025393517432300512 -0.0011000671555583704 -0.019943649844552123 -0.019533029207002332 -0.011055972413380544 0.0096972013835067532 -0.0026275150598894779 -0.0035743367866894527 0.022162917329623451
leaf_weight=59 51 48 47 34 34 69 31 32 30 57 46 43 55 90 38 69 57 32 86 92 39 30 90 38 82 124 30 36 30 63 57 50 55 32 40 31 44 30 30
leaf_count=59 51 48 47 34 34 69 31 32 30 57 46 43 55 90 38 69 57 32 86 92 39 30 90 38 82 124 30 36 30 63 57 50 55 32 40 31 44 30 30
internal_value=0.000189417 -0.00454482 0.011352 0.00908805 0.00289174 -0.00732048 -0.0130777 -0.00474272 0.0184846 0.0136596 0.00960785 4.61946e-05 -0.00135799 0.00304491 0.00304987 -0.00952612 -0.00551168 0.0250241 -0.0130671 -0.00113634 -0.00114901 -0.0164156 -0.0174572 -0.00450473 0.00974166 -0.0157345 0.00373292 0.00785065 -0.00895196 -0.00252796 0.028825 0.00202014 -0.0168822 -0.0233201 -0.00777806 0.00618018 -0.000480285 -0.00592824 0.0246501
internal_weight=2031 1426 605 241 277 1185 366 819 328 224 164 409 226 296 175 410 156 66 240 182 127 307 276 170 114 214 107 70 116 132 104 89 124 62 113 77 101 73 60
internal_count=2031 1426 605 241 277 1185 366 819 328 224 164 409 226 296 175 410 156 66 240 182 127 307 276 170 114 214 107 70 116 132 104 89 124 62 113 77 101 73 60
is_linear=0
shrinkage=0.03


Tree=2
num_leaves=42
num_cat=0
split_feature=60 25 75 68 68 68 75 75 68 55 57 23 56 75 75 16 55 18 6 18 35 56 68 25 68 16 16 18 72 6 25 68 35 68 72 49 16 72 58 35 72
split_gain=112.277 85.0565 35.7685 59.5624 32.9628 21.802 20.1648 14.7051 8.76945 7.86761 6.57663 5.20372 5.017 10.9715 4.74409 4.46339 3.94361 3.73553 3.72697 3.13835 2.79299 2.74564 2.30026 2.25081 2.2398 1.9417 1.87473 1.8514 1.58469 1.36529 1.33362 1.27866 1.14577 0.973883 0.900028 0.629935 0.45095 0.283285 0.162626 0.131101 0.0821646
threshold=0.71685416810407177 0.26676259608728964 960.50000000000011 -0.060053929645898042 -0.21245850964657007 -0.19830187125443408 4163.5000000000009 583.50000000000011 -0.06872125327777226 0.060617647735658801 0.4320154878528305 -0.038858455130971775 0.51784197614205618 3659.5000000000005 3121.5000000000005 0.047726919833639386 0.052628505481627945 0.039787761597192557 0.74057584465104975 0.045649201852527625 -0.14706845378411001 0.58786902444596489 0.016211552854881007 0.43537502265197797 -0.10732975025992751 0.02825853573561379 0.030342120960641251 0.048497271231672218 0.37500000000000006 -0.1621041814042222 0.04058604796263484 0.012819079753552313 0.051044608538918242 -0.1232350259757599 0.62500000000000011 -57.14283360768416 0.046558814707657166 0.79166666666666685 0.82760038743126796 -0.17645082912590601 0.20833333333333334
decision_type=2 2 2 2 2 2 2 2 2 2 2 2 2 2 2 2 2 2 2 2 2 2 2 2 2 2 2 2 2 2 2 2 2 2 2 2 2 2 2 2 2
left_child=1 4 7 24 16 9 12 -2 17 26 20 -5 13 25 27 40 -1 28 23 31 -10 -20 -22 36 -4 -6 -3 -12 35 -8 -17 -14 -30 -19 -15 -7 -13 -25 -23 -16 -9
right_child=2 5 3 11 6 8 29 15 10 -11 14 18 19 34 39 30 -18 33 21 -21 22 38 -24 37 -26 -27 -28 -29 32 -31 -32 -33 -34 -35 -36 -37 -38 -39 -40 -41 -42
leaf_value=0.017212793512201782 0.0037554083154851215 -0.0090006036907913593 0.025643996831370454 -0.011359772917440556 0.012933312799045424 -0.019496550036367966 0.018662664768980437 0.035079864275033831 -0.01127679251604698 0.0145472404468577 -0.011231201651717437 0.0011936865980538911 -0.0052349109974526636 -0.0072156590283559661 -0.021407783107094892 0.017205467863545581 0.033026431648438159 -0.0065539838167632128 -0.011568085052959405 0.00055298863450760425 -0.0070547229402460332 -0.0020956535699806849 0.0034704408453409452 0.0044090810088501554 0.01663526643448927 0.0052256968474298253 0.00043746288960716523 -0.0035722535201334706 -0.020574382117352769 0.01023186473850396 0.025658012390731275 -0.012694989342304418 -0.014732458427899614 -0.013852475044846249 -0.0019826217167285038 -0.026420436645244093 -0.0036407742445084632 0.0078626385691818925 0.00091156761443545646 -0.017248788385890248 0.030236001212791366
leaf_weight=30 31 31 95 38 50 32 51 31 30 31 226 38 45 37 33 37 30 31 31 49 30 33 49 52 38 77 47 34 55 30 40 42 89 42 164 31 31 47 30 30 33
leaf_count=30 31 31 95 38 50 32 51 31 30 31 226 38 45 37 33 37 30 31 31 49 30 33 49 52 38 77 47 34 55 30 40 42 89 42 164 31 31 47 30 30 33
internal_value=0.00018379 -0.00440912 0.0110133 0.00640346 0.00412205 -0.0106992 0.00179059 0.0225903 -0.0126123 0.00176998 -0.00991056 -0.000997028 -0.000615365 0.0013862 -0.0120643 0.0267045 0.0252113 -0.0167649 0.000498281 -0.00546217 -0.00349569 -0.00426881 -0.000492396 0.00318438 0.023107 0.00829158 -0.00328187 -0.0102429 -0.0188451 0.0155936 0.0216629 -0.00888121 -0.0169973 -0.0108074 -0.00296394 -0.0229876 -0.000937028 0.0060852 -0.000616925 -0.0195053 0.0326801
internal_weight=2031 1426 605 433 605 821 545 172 712 109 432 300 464 328 323 141 60 280 262 136 109 94 79 168 133 127 78 260 207 81 77 87 144 73 201 63 69 99 63 63 64
internal_count=2031 1426 605 433 605 821 545 172 712 109 432 300 464 328 323 141 60 280 262 136 109 94 79 168 133 127 78 260 207 81 77 87 144 73 201 63 69 99 63 63 64
is_linear=0
shrinkage=0.03


Tree=3
num_leaves=41
num_cat=0
split_feature=20 8 8 25 74 25 39 8 74 74 25 7 57 54 55 16 57 14 56 39 20 20 18 25 74 57 33 8 20 25 57 8 37 72 48 39 52 44 55 69
split_gain=105.672 80.4453 64.9423 41.2032 21.7138 13.1532 12.9206 10.7027 8.10682 7.6883 7.92281 7.34333 6.42761 5.41667 4.50033 4.49117 4.26505 3.99878 3.07316 2.72046 2.55832 2.50901 2.04567 1.74805 1.95572 1.59185 1.50292 1.47246 1.3751 1.33114 1.06864 0.836783 0.80746 0.660403 0.573752 0.482395 0.447498 0.403932 0.286875 0.283737
threshold=0.045157567978653911 -0.28842935658318813 1.4924098593998076 0.26333308820997953 0.35753424657534255 0.53005576310196956 0.0070201567377019556 -0.0070672195018731112 0.51095890410958911 0.28082191780821925 1.0316101259318782 0.063220521860238313 0.44721328218961048 0.068805266509064614 0.03969774016513402 0.045640832611043798 0.5603985085075659 0.037852756514798164 0.51601337588650653 -0.089300361979031725 0.043156130800120839 0.034331575358318829 0.046252132963049218 0.66333911705867954 0.4205479452054795 0.41889558017968004 -0.067993067937206705 0.062336269441623078 0.043108679734148635 0.339115795948913 0.43224316210133368 -0.14042338803339352 -0.030613460475917838 0.62500000000000011 -0.047897087555546385 0.2243139730906403 27.979849539915023 -0.012102167627208137 0.052814972025280717 0.081074173916824213
decision_type=2 2 2 2 2 2 2 2 2 2 2 2 2 2 2 2 2 2 2 2 2 2 2 2 2 2 2 2 2 2 2 2 2 2 2 2 2 2 2 2
left_child=1 4 5 7 6 8 13 16 27 19 14 -10 -4 34 -11 17 31 -14 21 -5 -16 33 25 24 39 -7 -13 -2 -20 -6 -21 -3 -32 -9 -1 -28 -31 -12 -39 -17
right_child=2 3 12 9 29 22 -8 18 11 10 37 26 15 -15 20 23 -18 -19 28 30 -22 -23 -24 -25 -26 -27 35 -29 -30 36 32 -33 -34 -35 -36 -37 -38 38 -40 -41
leaf_value=0.021944160342480808 0.024906810905523356 0.012543858628786965 0.01174589067078706 -0.025468747336603079 0.0054977601048592315 0.016859095880456289 0.0011730301558377336 -0.007108531749590646 0.0059710230102499439 3.6413373816559174e-05 -0.012602324035390012 0.016395450381004612 -0.00080618696824806199 0.034500123420823051 -0.011079302566702962 0.0030029864010766168 -0.0012579191788410944 -0.01511365440636519 -0.013489732279955782 -0.011209250011227346 -0.0054327168865790495 0.0052116726485528344 0.0023148109786138181 0.0055615052000406806 -0.0081146799337780354 0.006893792410823594 0.019767740798550978 0.0329857072216308 -0.0053817351954331188 -0.0044225529184490691 -0.012648429238898123 0.006819913635353842 -0.018444945385197437 -0.0023562403287865391 0.016288524114567299 0.025332513552649084 0.0004107894145656289 -0.018216084568901399 -0.014038237559450399 -0.00077678972448171448
leaf_weight=45 47 50 30 30 35 31 30 33 36 56 31 43 31 30 212 30 46 42 32 45 114 38 30 38 32 30 30 50 51 30 35 50 93 153 39 63 38 79 31 42
leaf_count=45 47 50 30 30 35 31 30 33 36 56 31 43 31 30 212 30 46 42 32 45 114 38 30 38 32 30 30 50 51 30 35 50 93 153 39 63 38 79 31 42
internal_value=0.000178301 -0.00427742 0.0106845 -0.00754037 0.0112822 0.0187917 0.0188017 -0.000433371 0.0221345 -0.0119701 -0.010029 0.0181562 -0.00121871 0.0234094 -0.00776695 -0.0030463 0.00624322 -0.00908833 -0.00361933 -0.0169489 -0.0091162 -0.00177362 0.00886385 4.29216e-05 -0.00194807 0.0120265 0.0213529 0.0291318 -0.00855628 0.000732334 -0.0154403 0.00972153 -0.0168945 -0.00321888 0.0193765 0.0235928 -0.00168088 -0.0161262 -0.0170798 0.000758489
internal_weight=2031 1426 605 1179 247 360 144 453 269 726 523 172 245 114 382 215 146 73 307 203 326 224 91 142 104 61 136 97 83 103 173 100 128 186 84 93 68 141 110 72
internal_count=2031 1426 605 1179 247 360 144 453 269 726 523 172 245 114 382 215 146 73 307 203 326 224 91 142 104 61 136 97 83 103 173 100 128 186 84 93 68 141 110 72
is_linear=0
shrinkage=0.03


Tree=4
num_leaves=39
num_cat=0
split_feature=60 8 8 25 75 75 25 8 23 56 68 75 75 75 75 23 56 75 35 72 18 33 56 60 72 60 33 25 68 8 75 19 72 68 68 23 33 34
split_gain=99.4562 75.72 61.1271 38.7747 33.255 16.6092 12.1476 10.0727 7.48215 7.29935 6.28382 5.5451 4.52441 4.20774 3.70153 3.64924 3.56147 3.46126 3.74483 3.02308 2.99716 2.9971 2.89234 2.36168 2.25394 1.82127 1.72268 1.52496 1.3997 1.35836 0.885418 0.728446 0.620914 0.582044 0.564356 0.297498 0.254798 0.153095
threshold=0.71685416810407177 -0.28842935658318813 1.4924098593998076 0.26333308820997953 2308.5000000000005 2670.5000000000005 0.53681709912178732 -0.0070672195018731112 0.026416064144492931 0.631704488310181 -0.06872125327777226 2078.5000000000005 2178.5000000000005 3849.5000000000005 1814.5000000000002 1.0334357972445156 0.58586772889586836 3324.5000000000005 -0.14706845378411001 0.54166666666666685 0.046252132963049218 -0.023004127220215772 0.51601337588650653 0.54499686309110906 0.20833333333333334 0.62948963811258374 1.0000000180025095e-35 0.43537502265197797 0.0090934510506022626 0.062336269441623078 2021.5000000000002 -0.00058833787063795537 0.62500000000000011 -0.22053903539616951 -0.099217658095293995 0.77562067868539608 0.015800246728210125 0.043448214780601464
decision_type=2 2 2 2 2 2 2 2 2 2 2 2 2 2 2 2 2 2 2 2 2 2 2 2 2 2 2 2 2 2 2 2 2 2 2 2 2 2
left_child=1 4 5 7 12 6 19 16 -4 25 11 14 -1 17 36 24 31 21 -19 29 -8 -12 23 32 -10 33 34 35 -24 -2 -16 -3 -9 -6 -21 -26 -5 -14
right_child=2 3 8 10 9 -7 20 22 15 -11 13 -13 37 -15 30 -17 -18 18 -20 26 -22 -23 28 -25 27 -27 -28 -29 -30 -31 -32 -33 -34 -35 -36 -37 -38 -39
leaf_value=-0.012068418676267194 0.024167560906575711 0.011086924684131206 -0.013219358419470697 -0.015518878228354668 0.022601708932176379 0.002821420322700839 0.015301079151467377 -0.0068959201314117971 -0.0069386177130110194 0.03319528255747798 -0.013052147572520394 -0.0062639619335325613 0.00032192742841863565 -0.019666917846282078 -0.018974529341192276 0.010561946705462847 -0.0023735140931800749 -0.010615660452169436 0.0031451832311413749 0.021535890898971909 0.0022455972395961066 -0.0072053566551929932 -0.0048575900446622593 0.0050557328033165672 -0.0031837741600342214 0.010344221649631377 0.025034571951153498 0.0053333952491319281 -0.012911475896835327 0.031998111687734455 -0.025383571570325891 0.0060380875014323064 -0.0022855992677749595 0.016724999756864971 0.015753576095138208 0.00033347178019203577 -0.011788438441429797 0.0033026086240767281
leaf_weight=31 46 57 39 33 30 54 35 33 39 30 143 54 36 33 95 31 34 30 43 32 30 186 48 38 38 34 64 51 35 50 31 55 153 55 49 47 78 31
leaf_count=31 46 57 39 33 30 54 35 33 39 30 143 54 36 33 95 31 34 30 43 32 30 186 48 38 38 34 64 51 35 50 31 55 153 55 49 47 78 31
internal_value=0.000173171 -0.00414947 0.0103657 -0.00731519 0.0109461 0.0182312 0.0209389 -0.000420601 -0.00118221 0.0198711 -0.0116124 -0.0150434 -0.00259934 -0.00930735 -0.0170277 0.00108742 0.0060563 -0.0084448 -0.0024757 0.0240512 0.00933426 -0.00975898 -0.00351156 -0.00172047 -0.000578862 0.0164618 0.0211959 0.00122661 -0.00830136 0.0283062 -0.020594 0.00864194 -0.00312295 0.0188585 0.0180987 -0.00120558 -0.0129375 0.00174862
internal_weight=2031 1426 605 1179 247 360 306 453 245 149 726 291 98 435 237 206 146 402 73 241 65 329 307 224 175 119 145 136 83 96 126 112 186 85 81 85 111 67
internal_count=2031 1426 605 1179 247 360 306 453 245 149 726 291 98 435 237 206 146 402 73 241 65 329 307 224 175 119 145 136 83 96 126 112 186 85 81 85 111 67
is_linear=0
shrinkage=0.03


Tree=5
num_leaves=44
num_cat=0
split_feature=20 25 8 8 68 25 68 68 55 23 72 17 57 8 57 57 72 20 25 57 72 36 8 17 8 57 8 33 61 68 25 38 20 20 35 72 17 56 72 38 10 8 16
split_gain=98.1698 68.5755 51.9135 38.4158 20.8497 13.5271 9.30998 7.20367 7.12979 6.11398 5.92415 5.19918 5.17483 4.70321 4.4728 3.78719 3.36816 3.20839 2.39574 2.24169 1.94109 1.87797 1.59014 1.58518 1.52337 1.47164 1.37782 1.3494 1.09752 1.07957 1.0521 0.835841 0.651947 0.603538 0.558558 0.470535 0.351357 0.288684 0.334828 0.282574 0.273177 0.229482 0.0675239
threshold=0.045157567978653911 0.27113269964245162 1.4491379044273767 -0.14645252404834999 -0.19830187125443408 0.53005576310196956 -0.22725879817738018 -0.06872125327777226 0.060617647735658801 0.041821092946063919 0.54166666666666685 0.00041733921054302347 0.40212430654287629 0.1546064683442995 0.57443693782712957 0.44329220609618242 0.45833333333333343 0.042669291602606053 0.4122750697317395 0.45865338491723201 0.20833333333333334 -0.11257902772451565 -0.11763320280536292 0.0039405112995651 0.062336269441623078 0.46941361554431871 0.53334084268414661 -0.060522698158980696 0.31645870173379892 -0.15657319473237949 0.43537502265197797 -0.021571733370464082 0.037911368374716162 0.043703763529196825 0.18558427551884196 0.62500000000000011 0.0094258905814446747 0.41325303355462917 0.79166666666666685 -0.01445219537461878 0.027619601720354176 1.0000000180025095e-35 0.026916124797239958
decision_type=2 2 2 2 2 2 2 2 2 2 2 2 2 2 2 2 2 2 2 2 2 2 2 2 2 2 2 2 2 2 2 2 2 2 2 2 2 2 2 2 2 2 2
left_child=1 3 5 6 8 10 -1 18 25 -4 24 -12 26 14 35 -11 34 21 -6 37 -17 -14 29 -7 -2 -3 -9 -13 -19 -20 36 -21 -24 -16 42 -5 -22 38 -15 -29 -39 -37 -8
right_child=2 4 9 13 7 23 16 12 -10 15 11 27 17 19 33 20 -18 28 22 31 30 -23 32 -25 -26 -27 -28 39 -30 -31 -32 -33 -34 -35 -36 41 -38 40 -40 -41 -42 -43 -44
leaf_value=0.028921180985798343 0.022890843972398541 -0.0077743652579297245 -0.012100959069604993 0.0070627226040930148 -0.021324992223712896 0.0043170635400599641 0.013553408318921514 0.0022106049037896665 0.014642788469110711 0.010739607763704575 0.0071117708508052629 0.015582757069140064 -0.015644182647518119 -0.0061226151074011493 -0.0075413539505336993 -0.0056889675925289613 0.0049110401624576109 -0.0048903539961418219 -0.0071959773241893985 -0.0064566795381318836 0.0013680079542040175 -0.0096611925443156957 -0.020707569765293688 0.012852810597783882 0.031288928920948582 0.00078014690458274054 -0.0062183876031780307 0.024454583195364397 -0.010981416909019798 -0.01366859193859982 0.0058036739041280715 -0.013178794542915399 -0.015048688879463071 -0.0016511366138817897 0.01716491218465958 0.0048526741178635284 -0.0023869954556314729 0.0004254602261630617 -0.0020547540291436829 0.020141391158103941 -0.0032584248690475377 0.0010912884855364445 0.010629443119001542
leaf_weight=32 45 30 35 55 57 58 40 35 30 33 35 44 125 38 34 45 54 79 33 45 54 83 38 31 46 44 34 47 43 107 37 30 55 32 41 34 38 36 41 47 34 30 31
leaf_count=32 45 30 35 55 57 58 40 35 30 33 35 44 125 38 34 45 54 79 33 45 54 83 38 31 46 44 34 47 43 107 37 30 55 32 41 34 38 36 41 47 34 30 31
internal_value=-2.88273e-05 -0.00436875 0.0101767 0.00321622 -0.0101781 0.0175124 0.0140616 -0.0120685 0.00231647 -0.000514061 0.020928 0.0175985 -0.00943 -0.00202893 0.00149821 0.00143549 0.0111634 -0.0109938 -0.0156839 -0.00495472 -0.00031701 -0.0132769 -0.0142824 0.00733495 0.0271986 -0.00265322 -0.00190238 0.0202293 -0.00706901 -0.0121705 0.00153665 -0.00919944 -0.0174129 -0.0047377 0.014144 0.00498304 -0.000151306 -0.00279326 -0.00405464 0.0223536 -0.00132316 0.00314078 0.0123357
internal_weight=1995 1400 595 607 793 353 198 689 104 242 264 173 399 409 185 207 166 330 290 224 174 208 233 89 91 74 69 138 122 140 129 75 93 66 112 119 92 149 79 94 70 64 71
internal_count=1995 1400 595 607 793 353 198 689 104 242 264 173 399 409 185 207 166 330 290 224 174 208 233 89 91 74 69 138 122 140 129 75 93 66 112 119 92 149 79 94 70 64 71
is_linear=0
shrinkage=0.03


Tree=6
num_leaves=45
num_cat=0
split_feature=20 25 8 8 68 25 68 68 54 74 74 57 7 19 57 57 16 14 72 18 57 68 18 74 18 8 57 57 72 33 74 7 18 44 8 35 69 74 18 25 8 68 44 16
split_gain=92.397 64.5396 48.862 36.1627 19.6246 12.7271 8.75726 6.77791 6.75454 5.60434 5.16441 5.09144 4.84222 4.45667 4.19131 4.00772 3.66319 3.70855 3.16869 2.51044 2.08972 1.8711 1.86185 1.68379 1.49586 1.46047 1.3765 1.35476 1.77015 1.24894 1.14745 1.04562 0.81671 0.751536 0.61413 0.522505 0.507672 0.466028 0.295137 0.49788 0.243004 0.221559 0.197712 0.0611292
threshold=0.045157567978653911 0.27113269964245162 1.4491379044273767 -0.14645252404834999 -0.19830187125443408 0.53005576310196956 -0.22725879817738018 -0.06872125327777226 0.062089006214521257 0.51095890410958911 0.2972602739726028 0.44329220609618242 0.06992322535465724 0.00058186005609620636 0.57443693782712957 0.44485655944347602 0.045450770525184168 0.037852756514798164 0.45833333333333343 0.039787761597192557 0.45865338491723201 0.018714730476588993 0.046252132963049218 0.28630136986301374 0.042572393825999082 0.062336269441623078 0.46941361554431871 0.48868447535564824 0.45833333333333343 -0.060522698158980696 0.56301369863013717 0.53341790132996847 0.044995294711592589 -0.0069779104606578612 -0.18375327445012604 0.18558427551884196 0.052776711702406338 0.4424657534246576 0.027137708805780768 0.085273164363037529 0.0077221462980132669 0.063816633158887068 1.0000000180025095e-35 0.026916124797239958
decision_type=2 2 2 2 2 2 2 2 2 2 2 2 2 2 2 2 2 2 2 2 2 2 2 2 2 2 2 2 2 2 2 2 2 2 2 2 2 2 2 2 2 2 2 2
left_child=1 3 5 6 8 9 -1 19 26 25 31 -4 -11 14 37 21 17 -13 35 23 38 -12 -7 -6 -17 -2 -3 -18 36 -14 -25 41 -16 -22 -21 43 -29 -5 -15 -40 -39 -9 -31 -8
right_child=2 4 11 13 7 22 18 10 -10 12 15 16 29 20 32 24 27 -19 -20 34 33 -23 -24 30 -26 -27 -28 28 -30 42 -32 -33 -34 -35 -36 -37 -38 40 39 -41 -42 -43 -44 -45
leaf_value=0.028056248738386916 0.0222191228000981 -0.00754190914085339 0.010418393095657003 0.0069089913979696032 -0.021269765160410535 0.010532649674887231 0.013147819989042684 -0.015147959884265412 0.014245214232373548 0.0068990257858004191 -0.0068029682733825262 -0.00019891637070493774 0.015116334545369047 -0.0049384770429536807 -0.008266820604123943 -0.010879875982191482 0.0060417559934582352 -0.014357654131005071 0.0047639813505340354 -0.0065466467219333713 -0.0063149381389308668 0.0027429123953843859 0.0014876828413686093 -0.012067902802415036 -0.0054428410120892969 0.030352298119580148 0.00072932313919898115 0.0040479152132360989 -0.0072569320082936763 0.023331616217710231 -0.017399996812670432 -0.010322052772618459 -0.0014419135857641778 -0.012707535624504088 -0.012666403720321037 0.016651217754739912 -0.00074033972776925221 0.0046978870042473321 -0.0034722202008452027 0.00068149116497408647 0.00089356650273467219 -0.019534833985705706 0.019375725758640543 0.010311585136740154
leaf_weight=32 47 30 33 54 59 55 40 40 30 35 31 31 44 41 30 149 31 37 54 30 45 45 34 71 70 46 44 34 30 52 93 34 36 30 37 41 46 36 66 41 30 30 40 31
leaf_count=32 47 30 33 54 59 55 40 40 30 35 31 31 44 41 30 149 31 37 54 30 45 45 34 71 70 46 44 34 30 52 93 34 36 30 37 41 46 36 66 41 30 30 40 31
internal_value=-2.7723e-05 -0.00423816 0.00987319 0.00312012 -0.009874 0.01699 0.0136427 -0.011708 0.00224719 0.0203033 -0.00914812 -0.000498295 0.0170095 -0.0019687 0.00144751 -0.00709793 -0.00224049 -0.00795676 0.0108309 -0.0152154 -0.00483091 -0.0011152 0.00711649 -0.0167683 -0.00915898 0.0263025 -0.00258905 0.000498719 -0.00104023 0.0195825 -0.0151186 -0.0149223 -0.00459734 -0.00892544 -0.00998476 0.0137224 0.00125973 0.00479822 -0.0027311 -0.00185345 0.003018 -0.017096 0.0216671 0.0119679
internal_weight=1995 1400 595 607 793 353 198 689 104 264 399 242 171 409 186 295 209 68 166 290 223 76 89 223 219 93 74 141 110 136 164 104 66 75 67 112 80 120 148 107 66 70 92 71
internal_count=1995 1400 595 607 793 353 198 689 104 264 399 242 171 409 186 295 209 68 166 290 223 76 89 223 219 93 74 141 110 136 164 104 66 75 67 112 80 120 148 107 66 70 92 71
is_linear=0
shrinkage=0.03


Tree=7
num_leaves=41
num_cat=0
split_feature=20 75 8 8 74 25 75 8 57 75 57 75 75 75 7 25 16 74 74 74 18 34 12 33 8 35 33 75 36 12 57 35 69 7 8 8 33 36 35 36
split_gain=86.9622 60.7726 53.7194 45.9919 19.0272 11.9747 10.8612 9.65741 8.06739 5.61212 5.28329 4.72673 3.85196 2.77351 2.36068 2.25266 2.17624 1.97589 1.8162 1.77491 1.75062 1.49324 1.48568 1.44622 1.29559 1.27443 1.14474 0.895162 0.796044 0.687294 0.645066 0.616582 0.415199 0.289675 0.272265 0.241871 0.212986 0.212438 0.189477 0.0140076
threshold=0.045157567978653911 2164.5000000000005 -0.019804013101785253 1.4491379044273767 0.34109589041095895 0.53005576310196956 2654.5000000000005 0.47460580733395602 0.49677005266090374 1250.0000000000002 0.66141160750574035 1581.5000000000002 3253.5000000000005 3834.5000000000005 1.5144528409825231 0.4460693918612858 0.030264553439479067 0.48356164383561651 0.54109589041095896 0.56301369863013717 0.046252132963049218 0.075341788943754331 0.039644636678314665 -0.060522698158980696 0.043964264034243479 -0.1314003986827991 -0.15902192987697558 3310.5000000000005 0.098302384495877818 0.031565706771004662 0.54597715848523254 0.19070248707047102 0.011807685468969415 2.2794060922228958 -0.10925887550333239 -0.18737547540686664 0.022707577911011637 -0.072540209973525269 0.18558427551884196 0.011281458831058579
decision_type=2 2 2 2 2 2 2 2 2 2 2 2 2 2 2 2 2 2 2 2 2 2 2 2 2 2 2 2 2 2 2 2 2 2 2 2 2 2 2 2
left_child=1 11 4 5 8 6 17 12 28 14 -11 21 -4 26 22 30 -6 24 -14 31 -7 37 -5 -19 -2 -15 -9 35 -3 -28 -13 34 -20 -16 -17 -18 -25 -1 -30 -21
right_child=3 2 7 9 16 20 -8 13 -10 10 -12 15 18 25 33 19 27 23 32 39 -22 -23 -24 36 -26 -27 29 -29 38 -31 -32 -33 -34 -35 -36 -37 -38 -39 -40 -41
leaf_value=-0.010968152390323132 0.021413922479552941 0.0079043037709207627 -0.0089368862126235817 0.003140578305516944 0.01043901294853143 0.010217243832706753 0.0037514236134468769 -0.012901936839288254 0.026643102966703459 -0.012758707081035157 0.0015428175717634269 -0.022930599066518967 0.0048616834510775168 -0.017222389842245098 0.0013465044231052656 -0.011502538288281823 0.0010440423851498313 0.014661027214822975 0.00017302853210749466 -0.01830346679200931 0.0014431831875646654 -0.0023713062816206661 0.012273004969390128 0.019893456570762798 0.029361038276344342 -0.0090319719267049885 -0.0037226368230999988 0.0047873685689519135 0.012351988378160686 -0.0078873262924789005 -0.016402413366187332 -0.00810291602798828 -0.0026971747942621934 -0.0022131420030097261 -0.014881639006186503 -0.002076609669749355 0.023721567324012705 -0.0081013436716491898 0.016121303048378749 -0.015664169972814865
leaf_weight=78 41 30 51 37 31 55 34 30 54 51 42 34 56 49 44 89 73 41 84 44 34 31 30 54 47 30 60 56 46 104 35 40 94 38 44 32 47 53 33 39
leaf_count=78 41 30 51 37 31 55 34 30 54 51 42 34 56 49 44 89 73 41 84 44 34 31 30 54 47 30 60 56 46 104 35 40 94 38 44 32 47 53 33 39
internal_value=-2.67284e-05 -0.0041115 0.000450575 0.00957854 0.00957544 0.0164832 0.0196972 -0.00534997 0.0171144 -0.000483372 -0.00627301 -0.0126687 -0.00147382 -0.00938349 0.00311196 -0.014769 0.00315401 0.0220387 0.00014305 -0.0134234 0.00690441 -0.00843024 0.00728663 0.0197191 0.025721 -0.0141654 -0.00741447 0.00172707 0.0123461 -0.00638514 -0.0196911 -0.0116238 -0.00132652 -0.000267233 -0.0126533 6.33713e-05 0.0217262 -0.00983825 0.0139828 -0.0171198
internal_weight=1995 1400 913 595 355 353 264 558 163 242 93 487 285 273 149 325 192 230 234 256 89 162 67 142 88 79 194 161 109 164 69 173 178 82 133 105 101 131 79 83
internal_count=1995 1400 913 595 355 353 264 558 163 242 93 487 285 273 149 325 192 230 234 256 89 162 67 142 88 79 194 161 109 164 69 173 178 82 133 105 101 131 79 83
is_linear=0
shrinkage=0.03


Tree=8
num_leaves=23
num_cat=0
split_feature=57 8 57 7 68 72 8 35 68 68 57 14 35 68 6 68 74 39 8 35 67 21
split_gain=50.7236 33.9103 17.4971 15.6702 15.6234 14.2938 9.71128 23.5736 29.6755 16.0134 8.40312 7.54253 5.9484 5.50631 4.15486 3.64196 1.03596 1.00598 0.875692 0.771239 0.742577 0.258378
threshold=0.3600645135126806 -0.35615756944070237 0.76745749368705696 0.7156609528599307 0.10765224703799586 0.62500000000000011 0.5562209209812552 -0.17645082912590601 -0.01845086918581524 0.017066226902706722 0.22998988349919816 0.061332932237085629 -0.18419292044029542 0.0013994788484408725 0.23002589752398886 -0.14967245802629611 0.34109589041095895 0.25621054296832751 2.7800997133014111 -0.42867699526957026 0.57119398410812539 0.21966650081256203
decision_type=2 2 2 2 2 2 2 2 2 2 2 2 2 2 2 2 2 2 2 2 2 2
left_child=10 5 4 -4 6 15 7 9 -9 -3 -1 12 18 14 -8 -2 -12 -15 -6 -5 -14 -7
right_child=1 2 3 19 11 21 13 8 -10 -11 16 -13 20 17 -16 -17 -18 -19 -20 -21 -22 -23
leaf_value=0.0088710484257687929 0.027679424754704782 0.017832827236743228 0.021425034557459505 -0.0015177571250664704 -0.0016123043302797781 0.0041618200985287807 -0.007121112497328822 -0.01123371828312089 -0.00020786801282713041 -0.0034822183222701004 0.028713134015794964 0.016828221406523635 0.010914242756723168 -0.013023922950272245 0.0049505804918823799 0.013972145062740717 0.0209572295510039 -0.0087551226812164953 -0.0090072324201835949 0.0036430982098694478 0.0047441542425198466 0.00011876348618021932
leaf_weight=55 43 76 48 59 30 30 87 370 542 54 33 38 30 146 36 32 44 86 30 46 50 30
leaf_count=55 43 76 48 59 30 30 87 370 542 54 33 38 30 146 36 32 44 86 30 46 50 30
internal_value=-2.58087e-05 -0.00130101 -0.00243403 0.00724227 -0.00337631 0.0131705 -0.00444402 -0.00297917 -0.00468511 0.00895995 0.0179365 0.00498432 0.00173842 -0.00873316 -0.00356241 0.0218973 0.024353 -0.0114589 -0.00536852 0.00071596 0.00710613 0.00219377
internal_weight=1995 1863 1728 153 1575 135 1397 1042 912 130 132 178 140 355 123 75 77 232 60 105 80 60
internal_count=1995 1863 1728 153 1575 135 1397 1042 912 130 132 178 140 355 123 75 77 232 60 105 80 60
is_linear=0
shrinkage=0.03


Tree=9
num_leaves=37
num_cat=0
split_feature=75 75 75 75 8 75 25 8 75 18 38 16 75 75 75 16 36 18 73 8 25 75 57 16 16 32 21 42 54 55 37 75 48 33 41 16
split_gain=66.7953 58.7408 60.5281 28.6794 27.2558 21.2418 12.0043 6.27972 8.2748 5.98066 4.15205 3.94232 3.44868 3.5734 2.56032 2.21622 1.64613 1.58696 1.52631 1.01405 0.976628 0.907649 0.795562 0.706784 0.499131 0.439421 0.382129 0.264809 0.254605 0.234189 0.232191 0.197175 0.167992 0.114141 0.0938211 0.0658169
threshold=960.50000000000011 2164.5000000000005 2684.5000000000005 1250.0000000000002 -0.019804013101785253 2308.5000000000005 1.4526069252750562 0.32360783231650675 2817.5000000000005 0.040082190465592339 -0.057872195214073101 0.028163059370195118 1814.5000000000002 2078.5000000000005 3253.5000000000005 0.047726919833639386 -0.20077668868018059 0.048876211945522295 0.62500000000000011 -0.20208359992632888 0.050325769065644864 2021.5000000000002 0.58421017049300972 0.032638470590584119 0.031257920108894631 -0.041402391212666527 1.3342985002754735 48.02437035870755 0.047646716271932225 0.059026191422951187 -0.032404850897762287 847.00000000000011 -0.03860678209520884 0.015800246728210125 46.946378206207122 0.045640832611043798
decision_type=2 2 2 2 2 2 2 2 2 2 2 2 2 2 2 2 2 2 2 2 2 2 2 2 2 2 2 2 2 2 2 2 2 2 2 2
left_child=6 3 5 17 9 32 15 14 25 19 -7 -10 23 21 -6 31 -12 28 -16 29 -17 34 35 30 -18 -9 33 -19 -2 -4 -5 -1 -3 -25 -14 -11
right_child=1 2 4 12 7 10 -8 8 11 22 16 -13 13 -15 18 20 24 27 -20 -21 -22 -23 -24 26 -26 -27 -28 -29 -30 -31 -32 -33 -34 -35 -36 -37
leaf_value=0.02334364467111814 0.0030904568233359551 0.0028591166777383143 0.012005044349374617 -0.0052779050178182281 -0.008121198408327493 0.029480097610784798 0.0015379042549795972 0.00020058321910430721 -0.0022850219866948078 0.0048775800695005445 0.011324062765860125 -0.010193961312071767 -0.014573849548388569 -0.0081959296034923943 0.0055555193333072413 0.014384420375655014 0.015441754376433808 0.0009879354239853142 -0.00073754662993548816 0.0076877413703019598 0.021800974237621652 -0.02266653394200794 -0.0018075774232192618 -0.012486186349477011 0.020281724313528766 0.0052553699718804183 -0.0076251674594475178 -0.0024727191854468848 0.0066916912658354201 0.015978469765463538 -0.0090910710100413974 0.028342390604249656 4.5774782101820108e-05 -0.010567953282730587 -0.017372030017440886 0.0026022219288373183
leaf_weight=31 36 37 56 30 34 33 33 30 72 30 33 288 41 48 46 38 34 37 138 46 36 31 36 112 103 35 30 41 46 30 44 33 44 92 77 34
leaf_count=31 36 37 56 30 34 33 33 30 72 30 33 288 41 48 46 38 34 37 138 46 36 31 36 112 103 35 30 41 46 30 44 33 44 92 77 34
internal_value=-2.457e-05 -0.0017072 0.00236878 -0.00881485 -0.00153431 0.014401 0.0178965 -0.00471747 -0.00684105 0.00727332 0.0195826 -0.00862158 -0.012322 -0.0154567 -0.000562488 0.0217826 0.0176275 0.00223658 0.000821587 0.0114674 0.0180575 -0.0177686 0.00170127 -0.0103029 0.0191146 0.00297237 -0.0111428 -0.000793551 0.00515289 0.0134429 -0.00759489 0.0260081 0.00136981 -0.0116414 -0.0164383 0.00372154
internal_weight=1995 1824 1159 665 875 284 171 643 425 232 203 360 505 197 218 138 170 160 184 132 74 149 100 308 137 65 234 78 82 86 74 64 81 204 118 64
internal_count=1995 1824 1159 665 875 284 171 643 425 232 203 360 505 197 218 138 170 160 184 132 74 149 100 308 137 65 234 78 82 86 74 64 81 204 118 64
is_linear=0
shrinkage=0.03


Tree=10
num_leaves=42
num_cat=0
split_feature=20 19 19 75 75 19 75 75 55 20 74 23 74 75 57 19 75 20 38 39 7 74 19 20 19 7 61 19 6 7 75 36 75 23 21 44 7 57 6 59 57
split_gain=68.658 52.5242 40.9534 23.0772 23.0343 16.4424 12.4094 8.97569 6.04356 5.4839 5.44986 4.44859 3.51857 3.01415 2.75694 2.08414 2.01222 3.03034 1.80347 1.62982 1.47488 1.41597 1.37458 1.28164 0.983074 0.825678 0.819649 0.799745 0.734756 0.588221 0.567379 0.454507 0.440554 0.378848 0.338721 0.321477 0.280806 0.245914 0.136486 0.0817688 0.0689022
threshold=0.045157567978653911 -0.0013503198013324772 0.0036811274601822584 2308.5000000000005 3221.5000000000005 0.0017617971527512076 2670.5000000000005 583.50000000000011 0.071210605798372351 0.042669291602606053 0.43698630136986305 0.026416064144492931 0.47808219178082195 2178.5000000000005 0.45308298118078583 0.0023490853148126702 1581.5000000000002 0.03362424725538686 -0.054228257417674279 0.23199841760155129 0.023464170360032569 0.14931506849315071 0.0021591197688517771 0.040083903605304394 0.00021377672708471906 2.5785375170800902 0.31645870173379892 0.00021377672708471906 -0.10490358735793968 0.58419144179589411 3310.5000000000005 -0.068072878271649026 3820.5000000000005 0.071256139860928533 0.53789689022377141 -0.023339236114079249 1.1895020970204613 0.58798230857419942 0.041488575078008634 0.49620409865556109 0.5430296456022462
decision_type=2 2 2 2 2 2 2 2 2 2 2 2 2 2 2 2 2 2 2 2 2 2 2 2 2 2 2 2 2 2 2 2 2 2 2 2 2 2 2 2 2
left_child=1 3 6 13 9 10 7 -2 23 16 28 -4 27 -1 -13 32 31 -18 -19 22 -11 -16 -14 35 30 36 34 -9 -6 -8 -12 -3 -7 -26 -22 -5 -23 -21 -30 -33 -15
right_child=2 4 11 8 5 15 29 12 -10 20 24 14 19 40 21 -17 17 18 -20 37 26 25 -24 -25 33 -27 -28 -29 38 -31 -32 39 -34 -35 -36 -37 -38 -39 -40 -41 -42
leaf_value=-0.0098785945471268361 0.0029372396104070529 -0.010123751841696471 -0.010452845292965626 0.01769630973871773 0.011028668196000102 -0.0049587795864268445 -0.00032271025984306691 0.020216205252541433 0.028922358609711211 0.00045148937614791307 -0.00090234982437200609 0.0086184977200359867 0.016565667180672823 0.0025332955221632055 -0.005464121118684156 -0.016113739210701781 -0.0060171715044916351 -0.0090413660099232952 -0.015128338541780088 0.021683353409608513 -0.0061695456694695 0.0040941813250962829 0.0084749342040762142 0.0087199677583707346 -0.0034032081447345781 -0.0034063830505457623 -0.0098995469709870151 0.026759089422735936 0.0072312123296268752 0.0055247112937840907 0.0037478632925142291 -0.00492447788440817 -0.010327746641398268 -0.00049983838370206443 -0.0021882645288104985 0.013045886515456939 0.00086483319440576207 0.017193678540248804 0.0040732358439751733 -0.0075742034907014958 0.00041149601291334164
leaf_weight=31 34 67 36 46 39 32 30 35 30 32 37 35 64 31 41 48 53 58 235 51 67 41 30 36 75 31 47 56 30 30 61 31 30 94 31 32 67 30 34 35 32
leaf_count=31 34 67 36 46 39 32 30 35 30 32 37 35 64 31 41 48 53 58 235 51 67 41 30 36 75 31 47 56 30 30 61 31 30 94 31 32 67 30 34 35 32
internal_value=0.000221966 -0.00349708 0.00858937 0.00930994 -0.00618347 -0.00118191 0.0150736 0.0175656 0.0168558 -0.00983784 0.00183918 -0.00070112 0.0194223 -0.00222348 0.000921881 -0.0113634 -0.0115107 -0.0127347 -0.0139371 0.0168561 -0.00528971 -0.000561981 0.0140271 0.0136316 -0.000412199 0.000865296 -0.00657684 0.0243005 0.00769911 0.00255541 0.00196246 -0.00829684 -0.00761742 -0.00180731 -0.00494426 0.015846 0.00212119 0.0200808 0.00560931 -0.00638435 0.00150546
internal_weight=1985 1374 611 238 1136 480 360 300 144 656 370 251 266 94 215 110 479 346 293 175 177 180 94 114 267 139 145 91 103 60 98 133 62 169 98 78 108 81 64 66 63
internal_count=1985 1374 611 238 1136 480 360 300 144 656 370 251 266 94 215 110 479 346 293 175 177 180 94 114 267 139 145 91 103 60 98 133 62 169 98 78 108 81 64 66 63
is_linear=0
shrinkage=0.03


Tree=11
num_leaves=42
num_cat=0
split_feature=20 8 8 68 8 72 56 72 57 7 57 57 7 68 5 20 57 7 68 72 12 7 72 6 20 20 7 68 55 20 16 8 20 8 7 6 41 49 8 43 20
split_gain=64.6196 49.4418 38.5458 15.481 16.8208 14.9536 7.37473 7.00708 5.69185 5.67111 5.57227 3.96175 4.51739 3.822 3.78168 2.85336 2.70902 2.25835 1.86703 1.83692 1.63365 1.61839 1.41269 1.31963 1.16357 1.95112 1.03515 0.900249 0.866594 0.630206 0.608317 0.579929 0.579404 0.56725 0.549572 0.549388 0.45009 0.301803 0.265682 0.158254 0.0624187
threshold=0.045157567978653911 -0.28842935658318813 1.4924098593998076 -0.031000369834763068 0.1546064683442995 0.45833333333333343 0.63847876904600109 0.62500000000000011 0.59162228673170358 0.06992322535465724 0.44485655944347602 0.47139400328194875 0.76666675386223615 -0.20270362091506211 0.14544221464291732 0.042669291602606053 0.60474638197842723 -0.1063315586146185 -0.12928690595914788 0.45833333333333343 0.044707872989225357 -0.18128118395350515 0.54166666666666685 -0.016033774698098798 0.035800294021154706 0.033698733899548514 -1.0000000180025095e-35 -0.20270362091506211 0.066852689151017011 0.042748565766124187 0.044168036090307117 0.32360783231650675 0.034466251142597361 -0.35078250454661491 2.5785375170800902 -0.10490358735793968 43.418436114990477 -27.718667318762133 0.0077221462980132669 -0.0096010452134135168 0.038348992087067359
decision_type=2 2 2 2 2 2 2 2 2 2 2 2 2 2 2 2 2 2 2 2 2 2 2 2 2 2 2 2 2 2 2 2 2 2 2 2 2 2 2 2 2
left_child=1 5 7 13 8 6 17 16 22 21 19 20 -13 -3 31 23 30 33 -18 -6 -4 -9 35 -12 25 -15 36 39 -17 -10 -2 -11 -21 -1 37 -5 -26 -14 -24 -7 -28
right_child=2 3 11 4 10 27 -8 9 29 14 15 12 34 24 -16 28 18 -19 -20 32 -22 -23 38 -25 26 -27 40 -29 -30 -31 -32 -33 -34 -35 -36 -37 -38 -39 -40 -41 -42
leaf_value=0.017151084879687303 0.026311568394810161 -0.0014284221533838646 0.0013498788489946627 0.010698654320843689 -0.0087623399626138489 0.0037310019437820871 0.028603535280671229 0.0085223889652630766 -0.0069589763011519363 0.02067480636291763 -0.0078271591346611297 -0.010150251819000125 0.003350246958434582 -0.0092005520900618597 0.0064366925730698831 -0.0074817907920613517 0.019710075029237998 0.0048241087153693225 0.0093796998487655509 -0.0025413848098702896 0.010561703978681881 -0.00012457995866544733 0.0037944384733440057 -0.013572940739744761 -0.006371158499426397 -0.018951508553010362 -0.016258931230885423 -0.0036561317037703297 -0.0021956622263040308 -0.001571008993128986 0.020033014580562392 0.015523264957184131 0.0015714897542639307 0.011487309529453595 -0.00330452020520661 0.0058916746548527289 -0.010778499667777308 -9.8468141556627998e-05 0.00020315636599449455 0.00058048386140873473 -0.01296685029996986
leaf_weight=40 44 31 43 39 40 33 30 42 38 44 56 56 38 30 37 118 38 32 30 134 30 35 51 123 31 57 31 36 39 44 33 57 39 37 31 60 113 53 32 30 30
leaf_count=40 44 31 43 39 40 33 30 42 38 44 56 56 38 30 37 118 38 32 30 134 30 35 51 123 31 57 31 36 39 44 33 57 39 37 31 60 113 53 32 30 30
internal_value=0.000215495 -0.00339247 0.00833313 -0.00599889 -0.00378514 0.00903293 0.0153757 0.0146239 0.00242865 0.0111453 -0.00677856 -0.000679796 -0.00310378 -0.0115588 0.0147932 -0.00918888 0.0197499 0.0116846 0.0152171 -0.00295976 0.00518587 0.00455797 0.00539168 -0.0117975 -0.0126231 -0.015638 -0.011322 9.06395e-05 -0.00619001 -0.00410985 0.0236891 0.0178154 -0.0015965 0.0144869 0.000111754 0.00782449 -0.0098556 0.00131082 0.00244786 0.0022816 -0.0147128
internal_weight=1985 1374 611 1136 813 238 139 360 264 215 549 251 178 323 138 336 145 109 68 213 73 77 182 179 292 87 205 99 157 82 77 101 173 77 122 99 144 91 83 63 61
internal_count=1985 1374 611 1136 813 238 139 360 264 215 549 251 178 323 138 336 145 109 68 213 73 77 182 179 292 87 205 99 157 82 77 101 173 77 122 99 144 91 83 63 61
is_linear=0
shrinkage=0.03


Tree=12
num_leaves=42
num_cat=0
split_feature=60 25 19 8 57 25 74 36 25 74 7 57 7 19 57 57 38 55 72 21 25 14 55 57 8 5 60 35 18 7 21 60 38 7 49 60 18 25 18 36 36
split_gain=60.8206 48.4667 36.2879 27.4235 12.2777 8.23468 6.10891 6.08122 5.5202 5.07003 4.41868 3.29795 4.3168 3.27818 3.21217 2.91427 2.04097 2.15693 1.68549 1.65795 2.64145 1.63031 1.04695 1.02529 0.929541 0.770204 0.620974 0.606949 0.559017 0.542553 0.500831 0.425315 0.392092 0.297232 0.284266 0.226358 0.221183 0.347005 0.196477 0.0449509 0.0417847
threshold=0.71685416810407177 0.27113269964245162 0.003742313607448991 -0.14645252404834999 0.73020255053440908 0.53005576310196956 0.33561643835616445 0.37825055019825077 1.0316101259318782 0.51095890410958911 0.063220521860238313 0.47139400328194875 0.76666675386223615 0.00064623725164688652 0.54790055102304358 0.57443693782712957 -0.084229739840121262 0.03969774016513402 0.62500000000000011 0.82648614676307164 0.53424449846875699 0.047569201122818552 0.045505975704776859 0.45180071414451267 0.062336269441623078 0.097818841713972496 0.49291500301279484 -0.013971594491128668 0.044995294711592589 2.5785375170800902 0.86419695779486849 0.54499686309110906 -0.01445219537461878 -0.14738966849872362 -27.718667318762133 0.57092477431552624 0.027137708805780768 0.085273164363037529 0.036679432832568866 0.081544267923248773 -0.014270461597499616
decision_type=2 2 2 2 2 2 2 2 2 2 2 2 2 2 2 2 2 2 2 2 2 2 2 2 2 2 2 2 2 2 2 2 2 2 2 2 2 2 2 2 2
left_child=1 3 5 7 6 9 19 14 16 24 -11 21 -13 15 26 31 -8 -18 -7 20 22 -4 -3 36 -2 32 -1 -25 -17 34 -20 -5 -12 -10 -14 -28 -15 -38 -35 -22 -33
right_child=2 4 11 13 -6 18 8 -9 33 10 25 12 29 23 -16 28 17 -19 30 -21 39 -23 -24 27 -26 -27 35 -29 -30 -31 -32 40 -34 38 -36 -37 37 -39 -40 -41 -42
leaf_value=0.015637493601469234 0.018702959118098238 -0.021733223885019245 0.00030057807212812809 0.0017437958685426675 0.010570332534205898 0.011964066034962986 0.0022920517415037233 0.023565481899420884 -0.0097595193141545994 0.0044084542347595217 0.020184209979310325 -0.010077251263389745 0.0032500033751570101 -0.0046068656988676607 0.0017936654032142023 -0.0067390545426457638 -0.00010556148561772366 -0.0067980932642135103 0.0061680103165488087 -0.0079175060836026972 -0.010567172894220865 0.0094938964182876735 -0.014995556626255664 -0.010524130158646162 0.025344535503010291 0.012357007800922977 0.0082373593948843402 -0.0046436006925126855 -0.0010038333024345674 -0.00337208433556324 0.00072346948965938381 0.0044966478552927267 0.015650470765904589 -0.014760086024484616 -9.5519659853945496e-05 0.011651961564507532 -0.0032275819673357321 0.00054538807747038932 -0.011028129128720672 -0.0082191738235616232 0.0065195583214162954
leaf_weight=32 41 32 38 46 30 35 30 34 35 37 44 54 38 38 38 31 52 291 34 55 50 33 89 30 53 39 36 40 33 30 30 36 52 58 53 70 56 34 30 32 36
leaf_count=32 41 32 38 46 30 35 30 34 35 37 44 54 38 38 38 31 52 291 34 55 50 33 89 30 53 39 36 40 33 30 30 36 52 58 53 70 56 34 30 32 36
internal_value=0.000209205 -0.00329105 0.00808465 0.00320004 -0.00817954 0.0140859 -0.00893084 0.0118994 -0.00696735 0.0168422 0.0137201 -0.000809533 -0.00303213 -0.00160146 0.00961654 0.00129194 -0.00513384 -0.00579255 0.0066402 -0.0126898 -0.0139635 0.00462307 -0.0168187 -0.0042755 0.0225025 0.0162448 0.0117461 -0.00721804 -0.00383481 9.29256e-05 0.00366779 0.00409885 0.0177785 -0.0124945 0.00127062 0.0105294 -0.00263849 -0.00176992 -0.0135358 -0.00969855 0.00555735
internal_weight=1985 1374 611 590 784 365 754 210 496 266 172 246 175 380 176 182 373 343 99 258 203 71 121 198 94 135 138 70 64 121 64 118 96 123 91 106 128 90 88 82 72
internal_count=1985 1374 611 590 784 365 754 210 496 266 172 246 175 380 176 182 373 343 99 258 203 71 121 198 94 135 138 70 64 121 64 118 96 123 91 106 128 90 88 82 72
is_linear=0
shrinkage=0.03


Tree=13
num_leaves=45
num_cat=0
split_feature=20 25 19 19 68 75 25 68 74 57 20 23 19 57 74 72 19 23 75 36 75 19 39 68 33 57 75 59 19 74 35 74 17 58 72 12 19 19 25 75 6 6 6 23
split_gain=57.248 45.6168 34.184 25.815 12.0313 10.7487 7.70515 7.69045 4.3898 4.25806 3.83411 3.81612 3.08627 2.74486 2.71638 2.68117 2.66595 2.49751 2.34096 1.50878 1.48633 1.46608 1.45765 1.40307 1.02542 0.964651 0.934753 0.910233 0.742082 0.644132 0.569825 0.525343 0.522182 0.519528 0.408554 0.266891 0.257304 0.246937 0.170775 0.139592 0.083228 0.0445159 0.0416222 0.029773
threshold=0.045157567978653911 0.27113269964245162 0.0036811274601822584 -0.00063294216520687569 -0.20270362091506211 2670.5000000000005 1.4526069252750562 -0.23083217642029261 0.28630136986301374 0.40864599584300415 0.043156130800120839 0.026416064144492931 0.00064623725164688652 0.57443693782712957 0.51643835616438361 0.45833333333333343 -0.0018099878600306585 1.0461689921661412 2846.0000000000005 -0.3515683116918224 1960.5000000000002 0.0023970462731716575 0.24940608070784467 0.015503338075687085 -0.063354420533110953 0.45180071414451267 1581.5000000000002 0.51086605413350072 0.00021377672708471906 0.14931506849315071 -0.013971594491128668 0.4479452054794521 0.0036606535672888225 0.75513765742195427 0.45833333333333343 0.022728116932983402 -0.0010295145483710103 9.5163144678813614e-06 0.060776217892315298 3773.5000000000005 0.33073485760326354 -0.2897280561775693 0.023346681522575689 0.11664159602605249
decision_type=2 2 2 2 2 2 2 2 2 2 2 2 2 2 2 2 2 2 2 2 2 2 2 2 2 2 2 2 2 2 2 2 2 2 2 2 2 2 2 2 2 2 2 2
left_child=1 3 5 7 16 6 14 -1 20 23 26 -4 13 34 28 36 -3 19 -12 29 43 24 27 -10 -16 35 -11 -22 -2 -13 -27 -15 -7 42 -5 -14 41 -36 -31 -37 -30 -9 -21 -6
right_child=2 4 11 12 8 32 -8 15 9 10 18 17 25 31 21 -17 -18 -19 -20 33 22 -23 -24 -25 -26 30 -28 -29 40 38 -32 -33 -34 -35 37 39 -38 -39 -40 -41 -42 -43 -44 -45
leaf_value=0.024642875470723573 0.018069211142245686 0.0097882012405937097 -0.0096756404943743567 0.0061122675057948238 -0.0080261877151293175 -0.0005958121226391943 0.0020598658975039684 0.013889645796113457 -0.0057585638472578199 -0.0080663200415949047 0.0032062616832925629 -0.0067213293400943466 -8.8449719527335913e-05 -0.0065375329923016466 0.012180171913988007 0.0031787171266278546 -0.0012110804081146218 0.0087269153035099099 -0.0067903434921728891 0.0013571079187185001 -0.021152642511846214 0.0090739282563185013 -0.0086648801672102194 0.0021524904506537079 0.01842242670369847 -0.010209455164365991 -0.01176575808326295 -0.014546642029795666 0.025770623405403061 -0.0029426859137277267 -0.0045046400836758326 -0.00097380929193220265 0.0049182436001360217 0.0054100419969037418 0.00398922918664525 -0.0020016893454953334 0.0086123917110479918 0.00025511308693856101 0.00014446230956362228 -0.0044766713455574557 0.021640468891535963 0.01139856229657712 -0.00013139231410109594 -0.010245887008654017
leaf_weight=34 43 30 36 49 32 30 32 31 36 99 30 31 32 31 38 52 57 31 68 31 30 31 30 45 92 30 206 77 32 30 40 33 30 31 39 45 31 30 31 51 32 62 30 44
leaf_count=34 43 30 36 49 32 30 32 31 36 99 30 31 32 31 38 52 57 31 68 31 30 31 30 45 92 30 206 77 32 30 40 33 30 31 39 45 31 30 31 51 32 62 30 44
internal_value=0.000203164 -0.00319269 0.00784385 0.00310456 -0.00793532 0.0137681 0.0160872 0.011545 -0.00924911 -0.00765134 -0.00891394 -0.000643152 -0.00155379 0.00125327 0.0177495 0.0089851 0.00255422 0.000859113 -0.00369943 -0.000454166 -0.0128603 0.0152015 -0.0147706 -0.00132931 0.0166316 -0.00414848 -0.0105778 -0.0164448 0.0215376 -0.00318258 -0.00700343 -0.00372153 0.00211489 0.00224217 0.00397773 -0.00255951 0.0113913 0.00241183 -0.00132704 -0.00335103 0.0237893 0.0122752 0.000576942 -0.00936247
internal_weight=1985 1374 611 590 784 360 300 210 697 484 403 251 380 182 268 176 87 215 98 184 213 161 137 81 130 198 305 107 107 92 70 64 60 92 118 128 124 69 61 96 64 93 61 76
internal_count=1985 1374 611 590 784 360 300 210 697 484 403 251 380 182 268 176 87 215 98 184 213 161 137 81 130 198 305 107 107 92 70 64 60 92 118 128 124 69 61 96 64 93 61 76
is_linear=0
shrinkage=0.03


Tree=14
num_leaves=43
num_cat=0
split_feature=20 8 8 72 56 72 57 20 20 39 18 23 8 6 23 18 39 18 23 57 34 39 8 36 72 36 8 56 61 38 44 23 6 14 59 8 18 43 57 12 38 56
split_gain=53.8831 41.8529 32.1749 12.5488 6.62556 5.86198 5.60007 8.43202 5.09744 4.74453 4.36783 3.59133 3.53104 3.0828 2.66506 3.35626 2.58363 2.46607 2.35029 2.31161 2.20921 1.44701 1.44103 1.41998 1.4021 1.23697 1.0129 0.963725 0.915888 0.683067 0.62101 0.549305 0.506647 0.488809 0.471542 0.326242 0.308804 0.325882 0.307565 0.207478 0.144863 0.111245
threshold=0.045157567978653911 -0.28842935658318813 1.4924098593998076 0.45833333333333343 0.63847876904600109 0.62500000000000011 0.46302513400767525 0.043156130800120839 0.03960171934240219 0.20326668579501542 0.057462981390843583 0.026416064144492931 0.051788018675640875 -0.052813505461698711 -0.34780217853505119 0.033521136634003558 -0.013805211125560711 0.035387776950931295 1.0461689921661412 0.60474638197842723 -0.075690784438373168 0.13676135374224355 0.11060297327874703 -0.3515683116918224 0.29166666666666669 0.048122278994043095 0.57425363292049958 0.5993024382807336 0.16340937803643008 0.021446142306943198 -0.0040609125344662567 0.33139597892317757 -0.10248032693149865 0.047569201122818552 0.70114583635846939 -0.35078250454661491 0.03501018587886115 -0.011577947262758608 0.64707402440000006 0.023363302049460643 -0.01445219537461878 0.41688671390870785
decision_type=2 2 2 2 2 2 2 2 2 2 2 2 2 2 2 2 2 2 2 2 2 2 2 2 2 2 2 2 2 2 2 2 2 2 2 2 2 2 2 2 2 2
left_child=1 3 5 4 16 19 8 13 14 10 25 -4 32 17 22 26 35 -8 23 34 -11 -21 -3 27 -19 -7 -16 -13 -17 38 39 -32 -9 41 -2 -1 37 -5 -14 -15 -22 -25
right_child=2 6 11 36 -6 9 7 12 -10 20 -12 18 29 30 15 28 -18 24 -20 21 40 -23 -24 33 -26 -27 -28 -29 -30 -31 31 -33 -34 -35 -36 -37 -38 -39 -40 -41 -42 -43
leaf_value=0.015283354012070186 0.024041644261807809 0.0046102502285513911 -0.0093861752932174053 0.0036434362495265452 0.026682846841225984 -0.0023279672264023567 0.00079293468122797032 -0.00031521582802943325 0.006653899153073628 0.0080822429729399282 0.013947764137364408 -0.0070994872864215608 -0.0050198294865137928 -0.011733058903761615 -0.0026047091290591026 -0.014504682172057973 0.0030078415102340844 -0.013163315910948183 0.0084659495999755089 0.01806817775783116 0.019842134919411461 0.0089769470998059923 -0.0029104399167748534 0.0018837871422691026 -0.0063027204139204148 0.0054419250924196971 -0.006897185803828248 -0.00067569700312173936 -0.0075664069161673741 -0.0080085223636568725 -0.011297943600818868 -0.014973624551341446 0.0044737146793179805 0.0052482625909173602 0.018402700089255843 0.010748345085950654 -0.0023027143888235376 -0.00047739567379943848 -0.0012682240730112141 -0.0080880882064460966 0.015946673779037052 -0.00063005474658078028
leaf_weight=47 44 42 36 30 30 37 32 33 44 32 39 34 60 31 208 35 30 40 31 36 33 32 50 30 93 36 67 58 40 57 97 79 46 31 33 32 31 38 33 49 38 31
leaf_count=47 44 42 36 30 30 37 32 33 44 32 39 34 60 31 208 35 30 40 31 36 33 32 50 30 93 36 67 58 40 57 97 79 46 31 33 32 31 38 33 49 38 31
internal_value=0.000197175 -0.00309732 0.00760995 0.0083344 0.0141449 0.0133574 -0.00549551 -0.0073201 -0.00304804 0.0101731 0.00584695 -0.000623545 -0.00266762 -0.00984243 -0.00402192 -0.0052167 0.0106453 -0.00659709 0.000833421 0.0180482 0.0148379 0.0138535 0.000491623 -0.000440099 -0.00839694 0.00146492 -0.00366354 -0.00308741 -0.0108592 -0.00537613 -0.011919 -0.0129724 0.00243748 0.00217512 0.0216909 0.0135002 0.000139901 0.00129925 -0.00372363 -0.00955085 0.0178248 0.000558221
internal_weight=1985 1374 611 238 139 360 1136 650 486 215 112 251 229 421 442 350 109 165 215 145 103 68 92 184 133 73 275 92 75 150 256 176 79 92 77 79 99 68 93 80 71 61
internal_count=1985 1374 611 238 139 360 1136 650 486 215 112 251 229 421 442 350 109 165 215 145 103 68 92 184 133 73 275 92 75 150 256 176 79 92 77 79 99 68 93 80 71 61
is_linear=0
shrinkage=0.03


Tree=15
num_leaves=41
num_cat=0
split_feature=20 8 8 74 57 20 39 20 57 74 39 23 8 6 23 57 72 58 54 43 57 20 20 16 69 16 55 44 58 58 74 23 54 35 36 16 23 23 8 38
split_gain=54.2786 39.7362 29.2206 10.9973 5.86555 8.29262 5.73681 5.29643 5.14773 4.78491 4.10141 3.51438 2.71139 2.67465 2.48206 2.31792 2.45738 2.2834 2.16679 1.67651 1.44724 3.06707 1.77474 1.40449 1.17697 1.02517 0.935735 0.62868 0.559244 0.534679 0.517844 0.490075 0.459017 0.327986 0.317795 0.29304 0.189723 0.137805 0.0940302 0.0563771
threshold=0.045157567978653911 -0.28842935658318813 1.2863204874405818 0.35753424657534255 0.46135038320991695 0.043156130800120839 -0.03811537946237447 0.03960171934240219 0.42893534189358345 0.53561643835616446 0.19898595208871797 -0.10725654062041408 0.021188151559036087 -0.046783805696457174 0.026416064144492931 0.48508386106038698 0.29166666666666669 0.3287446696937491 0.067887873301366516 0.023920900889573733 0.39332333803195091 0.036911445101316991 0.034331575358318829 0.04338973290408616 0.077772583090694833 0.045640832611043798 0.068330621461801855 -0.0017815009057168974 0.78036911737924897 0.46938381675696217 0.14931506849315071 0.35760743642463283 0.04877040798277734 0.12488405659182579 -0.15095671839787136 0.050213317760168456 0.31861292553789339 0.15692677268461844 2.284523804545493 -0.015359003142912718
decision_type=2 2 2 2 2 2 2 2 2 2 2 2 2 2 2 2 2 2 2 2 2 2 2 2 2 2 2 2 2 2 2 2 2 2 2 2 2 2 2 2
left_child=1 3 9 6 7 13 18 17 -4 23 11 -11 33 15 -10 -6 -17 -3 36 39 22 -22 -19 -2 28 -13 34 32 38 -5 -26 -29 -15 -7 -14 -25 -1 -31 -16 -12
right_child=2 4 8 29 5 12 -8 -9 14 10 19 25 26 27 24 16 -18 20 -20 -21 21 -23 -24 35 30 -27 -28 31 -30 37 -32 -33 -34 -35 -36 -37 -38 -39 -40 -41
leaf_value=0.012063548750192188 0.023235209872350667 -0.0098892349661663572 0.011231421012187673 0.0041237867573597946 0.00014969842568520576 0.0042227791756846182 0.0031635821069407664 0.0062780731679708546 -0.0088205370507164343 0.014841949947831131 0.019231551927768913 0.0074004491830733524 -0.0074544573838845121 -0.012637960370196853 -0.0012017050421867747 -0.01495794256420239 -0.0060677701175112916 -0.0051049333984234373 0.023849162949175988 0.0088475256238336342 -0.0027570968905511369 -0.010332932131808133 0.0037294744528144773 0.013024486731552204 -0.0061300730113527007 0.00023871960100616999 -0.00044831108811319384 -0.011076450086467435 0.0041470474188008855 0.00072555511428812032 -0.00096907780851003046 -0.014547027106261863 -0.0077676669404569115 0 -0.0039302528083253636 0.017578726086200151 0.016208774716751119 -0.0017786925392442917 0.0010537627706669757 0.016058958861357355
leaf_weight=34 39 54 32 30 34 38 35 49 36 33 31 30 70 30 34 39 108 34 33 31 253 60 51 30 31 47 35 96 48 36 44 82 61 31 42 48 30 41 32 45
leaf_count=34 39 54 32 30 34 38 35 49 36 33 31 30 70 30 34 39 108 34 33 31 253 60 51 30 31 47 35 96 48 36 44 82 61 31 42 48 30 41 32 45
internal_value=-2.88079e-05 -0.00323692 0.00759753 0.0079001 -0.00552082 -0.00736865 0.0136919 -0.00305745 0 0.0134476 0.0107682 0.00664183 -0.00251652 -0.00968994 -0.00161032 -0.00682317 -0.00845535 -0.00407728 0.0174527 0.0149722 -0.00327891 -0.00422175 0.000158612 0.0183781 -0.000217139 0.00307389 -0.004825 -0.0116045 0.00168554 0.000720955 -0.00314756 -0.0126994 -0.0094183 0.002358 -0.00616433 0.0158844 0.0140757 -0.000569542 -6.28193e-05 0.017416
internal_weight=1997 1406 591 239 1167 666 132 501 257 334 217 110 216 450 225 181 147 452 97 107 398 313 85 117 189 77 147 269 114 107 75 178 91 69 112 78 64 77 66 76
internal_count=1997 1406 591 239 1167 666 132 501 257 334 217 110 216 450 225 181 147 452 97 107 398 313 85 117 189 77 147 269 114 107 75 178 91 69 112 78 64 77 66 76
is_linear=0
shrinkage=0.03


Tree=16
num_leaves=43
num_cat=0
split_feature=60 75 19 19 72 19 75 75 75 68 75 75 39 43 23 75 55 72 6 60 72 68 16 68 23 75 16 19 14 57 18 6 16 21 56 68 68 50 6 57 29 49
split_gain=51.0923 37.2498 35.5372 28.376 10.0188 7.52176 6.80192 6.10504 5.01932 4.71822 4.13732 2.71405 2.64924 2.59057 2.18852 1.90278 1.78853 1.58115 1.2682 1.26282 1.05105 0.860374 0.749243 0.744684 0.718083 0.697555 0.657108 0.5227 0.507843 0.463988 0.319327 0.275309 0.267309 0.255909 0.177239 0.162579 0.156813 0.0771332 0.0766089 0.0590302 0.0299522 0.010614
threshold=0.71792902847955509 2164.5000000000005 -0.00031875983652518512 0.0033041201042089447 0.45833333333333343 0.0015482387669080516 2670.5000000000005 583.50000000000011 974.50000000000011 -0.16985838770834594 1800.5000000000002 3237.5000000000005 -0.10742483975169252 -0.040709409522872851 0.026416064144492931 2932.5000000000005 0.04179431648235301 0.45833333333333343 0.74057584465104975 0.54499686309110906 0.20833333333333334 -0.16985838770834594 0.053998591332195083 -0.10732975025992751 0.42314972785513033 1147.5000000000002 0.044325281351163461 -0.00089583986981365117 0.047569201122818552 0.44485655944347602 0.048497271231672218 0.23002589752398886 0.032525742308599954 1.2748102463642008 0.46712614459578083 -0.10732975025992751 0.18626742202713295 -50.862324582338438 -0.2897280561775693 0.5430296456022462 0.024812322663653744 -57.74963044397952
decision_type=2 2 2 2 2 2 2 2 2 2 2 2 2 2 2 2 2 2 2 2 2 2 2 2 2 2 2 2 2 2 2 2 2 2 2 2 2 2 2 2 2 2
left_child=1 10 4 6 9 11 7 -2 -5 -3 13 -4 -12 -1 -10 30 36 20 28 31 -17 -14 -20 41 39 -25 -21 38 34 -19 -7 -13 -15 37 -16 40 -9 -34 -11 -6 -23 -18
right_child=3 2 5 8 24 15 -8 16 14 27 12 19 21 32 18 17 23 29 22 26 -22 35 -24 25 -26 -27 -28 -29 -30 -31 -32 -33 33 -35 -36 -37 -38 -39 -40 -41 -42 -43
leaf_value=4.5738351889924658e-05 0.0027645440644998198 0.020329266645001461 -0.0065555301088801943 0.011485043068685601 0.0018066801656099151 -0.0049583151255433904 0.0021169626861789075 0.022539565824808323 -0.008219686635742289 0.012714505532356908 -0.0070476223213773309 0 -0.019873387813568111 -0.006362179820451631 0.0014579158027588231 -0.0072330270280267237 0.017974096632053349 -0.0026815648169946724 -0.0060323995351791379 0.0043676228199015753 -0.013500315500162889 -0.013835542976537489 5.0685939939027802e-05 0.015500119389408694 0.0055387800204201665 0.0095476331548797807 -0.00073906645014807835 0.0064090427166380833 0.0044208549141437929 -0.0075065853371020941 -0.00078911994333283049 -0.0025976154884886794 -0.0087173672237099101 -0.0061095919982341439 -0.0014459687888744137 -0.016269046507800533 0.018342085076298358 -0.010510016962906524 0.010033019938662839 0.00021828050430364719 -0.011485295896715073 0.015598866232854875
leaf_weight=36 33 58 59 30 43 43 43 40 37 33 52 82 30 54 45 40 48 30 41 82 75 56 31 41 48 40 30 34 40 56 30 70 101 30 32 30 31 72 54 51 36 50
leaf_count=36 33 58 59 30 43 43 43 40 37 33 52 82 30 54 45 40 48 30 41 82 75 56 31 41 48 40 30 34 40 56 30 70 101 30 32 30 31 72 54 51 36 50
internal_value=-2.7559e-05 -0.00310652 0.000472019 0.00745233 0.00852305 -0.00385261 0.0133211 0.0150115 -1.16875e-05 0.0132458 -0.00972119 -0.000740276 -0.0130223 -0.00740887 -0.00155548 -0.00750897 0.0166143 -0.00902413 -0.00023132 0.000549976 -0.0113546 -0.0150406 -0.00337525 0.0149356 0.00254354 0.012613 0.00297356 0.0098116 0.00167902 -0.00586335 -0.00328941 -0.00121688 -0.00846437 -0.0090054 0.000211886 -0.0138124 0.0207774 -0.00948641 0.011098 0.000977918 -0.0129619 0.01681
internal_weight=1997 1415 918 582 321 597 326 283 256 179 497 323 204 293 226 274 250 201 189 264 115 152 72 179 142 81 112 121 117 86 73 152 257 203 77 122 71 173 87 94 92 98
internal_count=1997 1415 918 582 321 597 326 283 256 179 497 323 204 293 226 274 250 201 189 264 115 152 72 179 142 81 112 121 117 86 73 152 257 203 77 122 71 173 87 94 92 98
is_linear=0
shrinkage=0.03


Tree=17
num_leaves=42
num_cat=0
split_feature=20 8 8 68 8 74 68 21 57 14 57 68 68 23 20 57 74 23 72 8 74 69 36 20 55 20 74 68 14 23 56 54 68 16 23 8 6 14 8 7 5
split_gain=48.1093 35.2012 25.9193 11.8827 10.5279 9.74465 5.13472 4.61032 4.15375 4.04935 3.5188 3.32492 3.25587 3.1792 2.25191 1.79685 1.67462 1.58963 1.48489 1.41971 1.36988 1.15259 1.04316 0.981134 0.968668 0.893479 0.90541 0.861887 0.830804 0.824147 0.617005 0.543029 0.510145 0.461554 0.459147 0.44687 0.391954 0.339322 0.204625 0.180605 0.0994746
threshold=0.045157567978653911 -0.28842935658318813 1.4924098593998076 -0.021658090365782545 0.20538503069149808 0.35753424657534255 -0.14967245802629611 -0.15833924567541144 0.53210165143207544 0.039894651922886153 0.44485655944347602 -0.19830187125443408 -0.06872125327777226 0.026416064144492931 0.042669291602606053 0.44329220609618242 0.54657534246575346 -0.57516416109971991 0.45833333333333343 0.62121435422722815 0.65616438356164386 0.077772583090694833 -0.13676582207913743 0.042748565766124187 0.068330621461801855 0.035800294021154706 0.56301369863013717 0.18822006332449995 0.025545767206532871 -0.14627819960582253 0.63682715406017343 0.04800476518144934 -0.20568087761900705 0.046558814707657166 0.071256139860928533 0.051788018675640875 -0.074801271304279646 0.049158633700487266 -0.027747510188612486 -0.2295565150121345 -0.068570837694863426
decision_type=2 2 2 2 2 2 2 2 2 2 2 2 2 2 2 2 2 2 2 2 2 2 2 2 2 2 2 2 2 2 2 2 2 2 2 2 2 2 2 2 2
left_child=1 5 7 11 8 6 -1 27 16 31 18 -3 -11 -4 22 -15 36 -8 -6 25 -14 37 -12 -10 -16 28 -27 29 -13 -2 -23 -9 39 -22 -20 -18 -5 -17 -25 -7 -31
right_child=2 3 13 4 10 32 17 9 23 12 14 19 20 15 24 21 35 -19 34 -21 33 30 -24 38 -26 26 -28 -29 -30 40 -32 -33 -34 -35 -36 -37 -38 -39 -40 -41 -42
leaf_value=0.019810113817612753 0.022344608474000587 -0.0017945174907714834 -0.0090692922693630818 0.0086463494474436249 -0.0078784781078929493 0.00061618968756232051 0.011241827293616311 0.01852382277249464 -0.0060664350076996051 0.013326853925851598 -0.012688517960073373 -0.018608084433894615 0.0085316955526982697 0.0075950422708062678 -0.0062261074471354587 0.00012776494422424322 0.0036334407521046207 0.0022180744668970076 -0.0032003566938939927 -0.0046148474637010568 0.0038418322082003978 -0.0062945976456081397 -0.0078988709349625055 0.00077901475577006531 -0.00015006440047809545 -0.0084794010382387725 -0.012831477543618207 0.01180987807133071 -0.011914413107162243 0.013955739134569895 -0.00055587488059029788 0.012435651116592939 -0.0017618982893332432 -0.00097456361557173921 6.0987657873573953e-05 -0.00085451666625679522 0.0046647404382140203 0.0037134814102163759 -0.0024958033319810199 0.0039718690257395679 0.017424825813594735
leaf_weight=56 32 41 34 49 39 30 46 36 55 49 79 30 38 30 115 57 32 30 66 30 35 33 99 38 31 103 86 30 52 30 37 30 44 35 90 51 51 43 30 33 42
leaf_count=56 32 41 34 49 39 30 46 36 55 49 79 30 38 30 115 57 32 30 66 30 35 33 99 38 31 103 86 30 52 30 37 30 44 35 90 51 51 43 30 33 42
internal_value=-2.6701e-05 -0.00304709 0.00715308 -0.0051968 -0.00324162 0.00743486 0.0128869 0.0122388 0.00116357 0.00955657 -0.0058444 -0.00990214 0.006894 -0.000594959 -0.00776529 0.000834498 0.00403534 0.00772684 -0.00263504 -0.0109956 0.00393801 -0.000344666 -0.0100474 -0.00308451 -0.00495751 -0.0116889 -0.0104813 0.0166696 -0.0144195 0.0180299 -0.00330919 0.0158249 0.000675224 0.00139288 -0.00130076 0.000841969 0.00665239 0.00170176 -0.000623248 0.00242498 0.0160423
internal_weight=1997 1406 591 1167 825 239 132 357 306 223 519 342 157 234 324 200 183 76 195 301 108 170 178 123 146 271 189 134 82 104 70 66 107 70 156 83 100 100 68 63 72
internal_count=1997 1406 591 1167 825 239 132 357 306 223 519 342 157 234 324 200 183 76 195 301 108 170 178 123 146 271 189 134 82 104 70 66 107 70 156 83 100 100 68 63 72
is_linear=0
shrinkage=0.03


Tree=18
num_leaves=43
num_cat=0
split_feature=20 25 8 8 68 75 75 68 75 20 55 75 54 15 16 75 8 75 55 15 75 25 55 25 68 75 35 16 55 18 38 38 21 20 29 20 38 61 68 35 15 49
split_gain=45.2897 35.3654 25.2053 19.8355 9.46642 6.08551 5.50794 4.86648 4.53353 4.13978 4.50051 2.80666 2.49047 1.87076 2.42251 1.84152 1.81848 2.2162 1.62017 1.61046 1.52547 0.843735 0.730412 0.674954 0.673309 0.653747 0.58317 0.575019 0.487127 0.447751 0.331523 0.327782 0.302683 0.261122 0.253646 0.24158 0.146525 0.137762 0.11667 0.0823233 0.0758148 0.0121737
threshold=0.045225277817883582 0.26676259608728964 1.2863204874405818 -0.14645252404834999 -0.20129100399995323 2670.5000000000005 583.50000000000011 -0.23083217642029261 974.50000000000011 0.043156130800120839 0.039008050995009168 1800.5000000000002 0.062089006214521257 0.0046400439332030695 0.045450770525184168 2817.5000000000005 0.1546064683442995 3310.5000000000005 0.04179431648235301 -0.00019197702499543963 2063.5000000000005 0.49415441095370821 0.04402804846164874 0.363877982510319 -0.10732975025992751 1147.5000000000002 0.067513606163545195 0.032525742308599954 0.052308512934142314 0.044806227142883147 0.047973944018240074 0.09401574656954638 0.27782310574122987 0.034331575358318829 -0.0080718403399825927 0.040479588310071923 -0.032189162837146339 0.28679179776188712 0.18626742202713295 0.16151847348295081 2.4639037602032266e-05 -57.74963044397952
decision_type=2 2 2 2 2 2 2 2 2 2 2 2 2 2 2 2 2 2 2 2 2 2 2 2 2 2 2 2 2 2 2 2 2 2 2 2 2 2 2 2 2 2
left_child=1 3 5 7 12 6 -2 -1 -4 10 23 27 28 21 -15 -11 17 29 38 35 -13 -10 30 -6 41 -26 36 -12 -3 -5 -18 -16 -17 -19 -32 39 -24 -33 -8 -9 -35 -20
right_child=2 4 8 16 9 -7 18 19 13 15 11 20 -14 14 31 32 22 33 24 -21 -22 -23 26 -25 25 -27 -28 -29 -30 -31 34 37 -34 40 -36 -37 -38 -39 -40 -41 -42 -43
leaf_value=0.020922054448516705 0.0025097853613291437 -0.0040946154106188681 0.010908178491084728 -0.005684674461104898 0.0013022991184888084 0.001946126046280426 0.021251534497054136 0.009000307529041348 -0.000806209266023585 0.0018101047607911687 -0.0047980588574938598 -0.014228241725746367 0.0091405443876728006 -0.0097114445078197754 -0.0034531139273405349 -0.0078478614761521709 0.00054968758255080153 0.0014647626688974534 0.016986701068412241 0.0018023157863726101 -0.0097663209501784951 0.0049411974946421853 -0.0051570610016871878 -0.0048157753318585333 0.014648222788406983 0.0088884769227736606 -0.0016309539508383929 -0.0084137804247151008 0.0010956789136596591 -0.00080065837423280446 -0.0045490138117987109 0.0016925695264907372 -0.0039449641982427985 0.0060348510129429461 -0.0010025182861943529 0.0070731966056563284 -0.0085661496090829563 -0.0011354161936331824 0.017391195523393879 0.01139872911163998 0.0036645181507558165 0.01467617385758611
leaf_weight=33 33 30 30 33 34 43 40 45 49 44 56 146 30 42 32 37 41 35 48 30 147 42 31 30 41 40 30 194 34 38 37 31 45 32 41 34 30 30 31 59 39 50
leaf_count=33 33 30 30 33 34 43 40 45 49 44 56 146 30 42 32 37 41 35 48 30 147 42 31 30 41 40 30 194 34 38 37 31 45 32 41 34 30 30 31 59 39 50
internal_value=-2.56672e-05 -0.00292461 0.00701658 0.00269613 -0.00692444 0.0125477 0.0141467 0.0103408 -1.74079e-05 -0.00807455 -0.00910427 -0.009992 0.00201111 -0.00148516 -0.0037323 -0.00308682 -0.00126828 0.00095848 0.0156692 0.00823334 -0.012004 0.00181602 -0.00315896 -0.00152179 0.0140693 0.0118554 -0.00519558 -0.0076181 -0.00129306 -0.00311769 -0.0015733 -0.000992289 -0.00574998 0.00371738 -0.00272691 0.00960735 -0.00689404 0.000253075 0.0196351 0.0103994 0.00478202 0.0158546
internal_weight=1997 1415 582 588 827 326 283 201 256 733 607 543 94 226 135 126 387 177 250 168 293 91 210 64 179 81 91 250 64 71 119 93 82 106 78 138 61 61 71 104 71 98
internal_count=1997 1415 582 588 827 326 283 201 256 733 607 543 94 226 135 126 387 177 250 168 293 91 210 64 179 81 91 250 64 71 119 93 82 106 78 138 61 61 71 104 71 98
is_linear=0
shrinkage=0.03


Tree=19
num_leaves=31
num_cat=0
split_feature=18 25 74 68 57 61 68 57 7 68 17 57 19 8 74 57 68 6 8 57 57 33 23 16 8 57 74 44 61 25
split_gain=32.3223 24.2371 16.5254 12.9632 9.99084 6.85269 5.29116 6.47978 5.26809 5.09666 5.7149 4.53509 4.14634 3.05463 3.03119 2.08063 1.28248 1.26875 1.15059 0.915497 0.790214 0.68891 0.6687 0.421312 0.421172 0.351128 0.279026 0.261552 0.203159 0.0556409
threshold=0.053420719602985944 0.26676259608728964 0.33013698630136995 0.10552532081655643 0.79664569694325105 0.10885288014578336 -0.23083217642029261 0.39563913721116006 0.056007079083441165 -0.20129100399995323 0.0045476504966809441 0.62136848874192074 0.0042838520626612411 -0.0070672195018731112 0.62876712328767137 0.53210165143207544 0.1927395239298173 0.1640303494877712 -0.20208359992632888 0.4897018536072078 0.43438703442750898 -0.092018193196789264 -0.10725654062041408 0.033426415020363871 -0.14042338803339352 0.59446671058867839 0.45068493150684935 0.019823927339603489 0.1941290140326952 0.25266115859883648
decision_type=2 2 2 2 2 2 2 2 2 2 2 2 2 2 2 2 2 2 2 2 2 2 2 2 2 2 2 2 2 2
left_child=1 2 6 4 5 8 -1 -8 -3 19 -11 18 14 15 -5 24 21 -14 -9 -7 23 -2 26 27 -4 -17 -22 -15 -24 -23
right_child=16 3 13 12 -6 9 7 11 -10 10 -12 -13 17 20 -16 25 -18 -19 -20 -21 22 29 28 -25 -26 -27 -28 -29 -30 -31
leaf_value=0.020296288980818224 0.012154737352254147 -0.0036380206559167056 0.0098454548413730494 0.015328115499936614 0.0074845030864879565 -0.0038057990803928303 0.020491163995970917 0.010274475553869209 0.012181156201952906 -0.0083809308901347575 -4.4547016771153658e-05 -0.0032180608293448628 0.0019921138373079003 0.00037245959815238136 0.0037564101158377009 0.0017654921453749129 0.0082106174484022649 -0.0058717996701350642 0.0052177642183605499 0.002647155119018378 -0.0082871393250468564 0.018987973716567914 -0.00048788475341467126 0.0025491909984307558 0.0045557678206220413 -0.0019326732081809354 -0.0039566525420017332 -0.0027536594171171614 -0.0033566930858853331 0.01557865696911365
leaf_weight=33 50 48 31 35 53 31 30 84 31 671 84 42 47 39 51 54 35 30 86 54 30 30 45 31 30 40 32 57 50 33
leaf_count=33 50 48 31 35 53 31 30 84 31 671 84 42 47 39 51 54 35 30 86 54 30 30 45 31 30 40 32 57 50 33
internal_value=-2.44906e-05 -0.00110608 0.00322191 -0.00383139 -0.00514563 -0.00587803 0.00898744 0.00742518 0.00253913 -0.00667342 -0.00745754 0.00555329 0.00398563 -0.000384152 0.008513 0.00299378 0.0134594 -0.00103648 0.00773858 0.000256765 -0.00223871 0.0150499 -0.00366407 -0.000451542 0.00730478 0.000159542 -0.00611033 -0.00145339 -0.00203127 0.0172772
internal_weight=1997 1849 714 1135 972 919 275 242 79 840 755 212 163 439 86 155 148 77 170 85 284 113 157 127 61 94 62 96 95 63
internal_count=1997 1849 714 1135 972 919 275 242 79 840 755 212 163 439 86 155 148 77 170 85 284 113 157 127 61 94 62 96 95 63
is_linear=0
shrinkage=0.03


Tree=20
num_leaves=39
num_cat=0
split_feature=20 25 8 8 57 68 25 57 68 23 39 18 19 57 20 57 39 23 41 39 25 38 57 39 68 23 68 6 21 18 20 34 61 57 6 57 21 6
split_gain=39.5713 32.1057 24.5105 18.511 8.90767 5.94575 5.38675 5.27143 5.19007 3.03795 2.4161 2.17643 2.0611 2.06937 1.90231 1.77694 1.75268 1.42009 0.896891 0.894454 0.872338 0.839738 0.76348 0.722581 0.65865 0.585806 0.486869 0.479531 0.454549 0.36868 0.275807 0.207195 0.2462 0.154177 0.130545 0.0700771 0.0616329 0.0527236
threshold=0.045349605112676043 0.26676259608728964 1.4924098593998076 -0.14645252404834999 0.7523972367312769 -0.20129100399995323 0.53005576310196956 0.40864599584300415 -0.23083217642029261 0.026416064144492931 -0.054211196711289093 0.037380160161587433 0.00064623725164688652 0.57911213730224109 0.034331575358318829 0.5430296456022462 0.063742958754700388 1.0461689921661412 64.434121950676541 0.16247820979173647 0.39868210446194557 0.10286611488401855 0.45865338491723201 -0.10742483975169252 0.021982244610772209 0.40016563652222625 0.21249721180304579 -0.060135296084786787 0.29170565238415003 0.044806227142883147 0.034331575358318829 -0.10714987915137685 0.13326601743436681 0.48396449234850997 -0.29683699415474185 0.5904362482582548 -0.34771836981422138 1.0000000180025095e-35
decision_type=2 2 2 2 2 2 2 2 2 2 2 2 2 2 2 2 2 2 2 2 2 2 2 2 2 2 2 2 2 2 2 2 2 2 2 2 2 2
left_child=1 3 6 8 5 20 10 14 -1 -4 -2 23 13 30 -7 34 -12 18 26 -8 -3 -13 31 -9 -16 28 33 -24 -18 -15 -5 -14 -33 -11 -10 -27 -36 -32
right_child=2 4 9 12 -6 7 19 11 15 17 16 21 22 29 24 -17 25 -19 -20 -21 -22 -23 27 -25 -26 35 -28 -29 -30 -31 37 32 -34 -35 36 -37 -38 -39
leaf_value=0.02066315429088212 0.0066449762045449655 0.0045875523724528246 -0.0084123374415023249 0.0013607000755029969 0.0087449088220813761 -0.0071246246114707651 0.0018653958723032636 -0.0063899051224150724 0.011317336732505732 0.0036986828813796255 0.019775070133548095 -0.0065679255263099996 -0.0041521196723281343 -0.0057496049617141781 -0.0022134013827642624 0.002465128024884473 0.013538737294619288 0.0067460477326770751 -0.0049297108916248351 0.0081853843475280172 -0.0018150153300937643 -0.010824062900545415 -0.0032878848119807526 -0.011595003628644818 0.0036585018845141661 0.017604293848985052 -0.0014578659446363026 -0.0083942098780111826 0.008830551250368102 -0.0010857603365742464 0.0054052346565911912 -0.003588078204059719 -0.00035680227396198984 0.00086494299728432874 0.0069958521495031758 0.014307208272415819 0.0093175192615565124 0.0034618806111709156
leaf_weight=33 36 30 39 48 33 40 40 30 35 37 59 249 30 30 30 46 61 30 31 44 52 54 38 253 39 30 52 34 35 35 35 30 81 39 30 38 73 46
leaf_count=33 36 30 39 48 33 40 40 30 35 37 59 249 30 30 30 46 61 30 31 44 52 54 38 253 39 30 52 34 35 35 35 30 81 39 30 38 73 46
internal_value=0.000137719 -0.00252025 0.00681743 0.00259042 -0.0064609 -0.00711161 0.0118844 -0.00801317 0.00966613 -0.000793927 0.0140322 -0.00914124 -0.00117621 0.00104891 -0.00191818 0.00766739 0.0152078 0.000765878 -0.00034713 0.00521733 0.000493581 -0.00733966 -0.00321646 -0.0110563 0.00106258 0.0135354 0.000742276 -0.00574911 0.0118644 -0.00328991 0.00325923 -0.00189877 -0.00125957 0.002287 0.00937671 0.0158296 0.00867784 0.00434422
internal_weight=2005 1434 571 624 810 777 343 695 217 228 259 586 407 194 109 184 223 189 159 84 82 303 213 283 69 164 128 72 96 65 129 141 111 76 138 68 103 81
internal_count=2005 1434 571 624 810 777 343 695 217 228 259 586 407 194 109 184 223 189 159 84 82 303 213 283 69 164 128 72 96 65 129 141 111 76 138 68 103 81
is_linear=0
shrinkage=0.03


Tree=21
num_leaves=35
num_cat=0
split_feature=75 75 68 19 75 75 25 75 19 75 6 75 39 75 68 75 74 19 68 25 41 75 74 59 6 74 23 75 39 68 34 74 6 36
split_gain=34.5002 31.6485 35.0297 15.4729 13.4662 11.514 6.01379 3.65635 6.15963 3.63309 2.88872 2.14041 1.96045 1.76335 1.49326 1.2806 1.10068 0.953359 0.619049 0.546734 0.489226 0.443061 0.395894 0.339758 0.270328 0.266324 0.200945 0.181951 0.139878 0.114603 0.0846571 0.075844 0.0546254 0.0345485
threshold=960.50000000000011 2164.5000000000005 -0.060053929645898042 -2.5372897929390507e-05 1250.0000000000002 2308.5000000000005 1.4526069252750562 2817.5000000000005 0.0016858527576241323 3395.5000000000005 -0.2036465993673213 1814.5000000000002 -0.10742483975169252 3253.5000000000005 0.21249721180304579 3834.5000000000005 0.70273972602739743 -0.00084892269032542345 -0.10573762526719734 0.23914662509840648 47.040549098145483 2005.5000000000002 0.69726027397260293 0.76448529214551464 0.6065125634214148 0.23698630136986304 0.77562067868539608 1581.5000000000002 0.014709305520757667 -0.10935896799639645 0.072173387876671283 0.426027397260274 -0.29683699415474185 0.17769198905416164
decision_type=2 2 2 2 2 2 2 2 2 2 2 2 2 2 2 2 2 2 2 2 2 2 2 2 2 2 2 2 2 2 2 2 2 2
left_child=6 4 5 9 16 33 14 24 13 22 -7 20 -13 -9 23 -10 26 32 19 -12 25 29 -4 -1 -5 -6 -2 28 -22 -14 -27 -19 -11 -3
right_child=1 2 3 7 11 10 -8 8 15 17 18 12 21 -15 -16 -17 -18 31 -20 -21 27 -23 -24 -25 -26 30 -28 -29 -30 -31 -32 -33 -34 -35
leaf_value=0.019549238635721989 -0.0022235814207454126 0.00020442551365663962 -0.0018066352026228059 0.0045965517134823669 -0.0079340444150788093 0.02334756650599926 0.0012850300512041583 -0.0060915069925978425 -0.0062803438257917092 0.011126700226716168 0.0099818303131581926 -0.006339435899440706 -0.011258130288576777 -0.00022924178691190682 0.011057786375892404 -0.011023632100732912 0.0046632063339893323 0.0060730030178470567 0.0090630979552369824 0.014968082882419393 -0.0054034615934291158 -0.016610667646106036 0.0022064992422585173 0.014907718604592264 0.00078799168092794048 -0.0056034219931809272 0.00056108188594423101 -0.0098948649237603683 -0.0082210684797948737 -0.014229950101812553 -0.0033398462360740722 0.0037028276994285373 0.0088510028229040246 0.0015912420215615389
leaf_weight=62 40 36 43 38 39 30 32 57 207 38 30 52 71 248 44 72 57 43 33 117 30 34 45 31 34 51 53 59 85 31 35 31 56 41
leaf_count=62 40 36 43 38 39 30 32 57 207 38 30 52 71 248 44 72 57 43 33 117 30 34 45 31 34 51 53 59 85 31 35 31 56 41
internal_value=0.000133905 -0.00105879 0.00181019 -0.00106364 -0.00646311 0.01095 0.0131019 -0.00350734 -0.00429578 0.00518555 0.0145881 -0.0088843 -0.0114232 -0.00133628 0.0158372 -0.00751868 0.00137839 0.0077714 0.0130994 0.0139784 -0.00727458 -0.0133389 0.000211659 0.018052 0.00284326 -0.00575367 -0.000605501 -0.00834603 -0.00751744 -0.0122038 -0.00472199 0.00512691 0.00981369 0.000982877
internal_weight=2005 1836 1199 912 637 287 169 656 584 256 210 487 188 305 137 279 150 168 180 147 299 136 88 93 72 125 93 174 115 102 86 74 94 77
internal_count=2005 1836 1199 912 637 287 169 656 584 256 210 487 188 305 137 279 150 168 180 147 299 136 88 93 72 125 93 174 115 102 86 74 94 77
is_linear=0
shrinkage=0.03


Tree=22
num_leaves=40
num_cat=0
split_feature=20 25 8 19 57 25 35 74 57 72 23 74 54 19 57 55 25 19 23 72 6 7 25 57 33 23 33 8 6 57 18 25 35 20 34 61 69 57 6
split_gain=34.948 28.5166 21.8033 16.3883 7.91482 4.72872 4.13312 3.51692 3.14865 2.90078 2.74082 2.25377 2.16923 1.74141 1.82714 1.58282 1.41434 1.26583 1.25691 1.09486 0.763949 0.673443 1.0204 0.660659 0.65093 0.536134 0.534275 0.471021 0.434711 0.364067 0.309509 0.302474 0.278286 0.232294 0.198588 0.215717 0.136156 0.0741713 0.0273413
threshold=0.045349605112676043 0.26676259608728964 1.4924098593998076 -0.00057411840733451863 0.7523972367312769 0.53005576310196956 0.21354103557556128 0.30821917808219185 0.40864599584300415 0.45833333333333343 0.026416064144492931 0.48356164383561651 0.064605108064775096 0.00064623725164688652 0.57911213730224109 0.054441646285428323 1.0316101259318782 0.0001090333648346813 1.0461689921661412 0.62500000000000011 0.68634261517363915 0.54215545060910242 0.54138621887517646 0.45865338491723201 -0.050247245163276437 0.78896822210388617 -0.05744583570652028 0.24327701341601463 -0.060135296084786787 0.5603985085075659 0.044806227142883147 0.4926476326410037 0.13564552254841403 0.034331575358318829 -0.10714987915137685 0.13326601743436681 0.0591526610854562 0.49354376177927606 1.0000000180025095e-35
decision_type=2 2 2 2 2 2 2 2 2 2 2 2 2 2 2 2 2 2 2 2 2 2 2 2 2 2 2 2 2 2 2 2 2 2 2 2 2 2 2
left_child=1 3 5 9 6 11 7 21 24 12 -4 27 32 14 33 -8 -10 -13 20 -7 31 22 -3 34 -9 -22 -19 -2 -25 -11 -16 -12 -1 -5 -15 -36 -28 -34 -35
right_child=2 4 10 13 -6 19 15 8 16 29 18 17 -14 23 30 -17 -18 26 -20 -21 25 -23 -24 28 -26 -27 36 -29 -30 -31 -32 -33 37 38 35 -37 -38 -39 -40
leaf_value=0.0076082707216395401 0.014462552395396101 -0.01328101133618108 -0.0080069662409517767 0.0012841272435338369 0.0082493749012772458 0.0095544617538931356 -0.0053898279216939588 0.002605731159763364 -0.0058237187694877013 0.0058824070067095514 -3.8613916820202044e-05 0.0059704645520199991 0.018548371451241628 -0.0039969914666441982 -0.0054467993424246177 0.0030929889524347943 -0.009737232497125551 0.0092942617696122332 0.0063368424465701885 0.0023018294522821107 -0.0054348011371142197 -0.00672477437680301 -0.0084278863948781986 -0.0030307342834389349 -0.0030459115353056458 -0.00019051678035120269 0.012569176960010964 0.019558189155739973 -0.007897616530880551 0.0012111191635844479 -0.0010936282673045946 0.0034635247220923928 0.0094570323037090429 0.0049455549947219667 -0.0033464709877893571 -0.00031909715759759693 0.015711162636815015 0.012286738057002842 0.0033204998310547972
leaf_weight=56 40 110 39 48 33 30 33 36 282 31 46 36 30 30 30 49 124 40 30 54 33 37 69 38 37 40 61 46 34 33 33 40 40 33 30 81 36 32 45
leaf_count=56 40 110 39 48 33 30 33 36 282 31 46 36 30 30 30 49 124 40 30 54 33 37 69 38 37 40 61 46 34 33 33 40 40 33 30 81 36 32 45
internal_value=0.000130026 -0.00236776 0.0064075 0.00244859 -0.00608169 0.0111865 -0.00669519 -0.00744683 -0.00599707 0.00899051 -0.00077053 0.0131994 0.0111813 -0.00115798 0.000925813 -0.000286694 -0.00702847 0.0111634 0.000710283 0.00493601 -0.000335791 -0.0106437 -0.0114328 -0.00302063 -0.000218009 -0.00260645 0.0125007 0.0172425 -0.00537836 0.00352622 -0.00321946 0.00155758 0.00941807 0.00302315 -0.00179247 -0.00116658 0.0137812 0.0107716 0.00405189
internal_weight=2005 1434 571 624 810 343 777 695 479 222 228 259 158 402 189 82 406 173 189 84 159 216 179 213 73 73 137 86 72 64 63 86 128 126 141 111 97 72 78
internal_count=2005 1434 571 624 810 343 777 695 479 222 228 259 158 402 189 82 406 173 189 84 159 216 179 213 73 73 137 86 72 64 63 86 128 126 141 111 97 72 78
is_linear=0
shrinkage=0.03


Tree=23
num_leaves=36
num_cat=0
split_feature=75 75 68 8 75 75 75 75 75 8 38 75 39 75 16 75 74 8 68 75 75 41 75 74 74 74 23 75 68 17 34 54 74 38 54
split_gain=30.6694 28.1921 31.4475 13.6913 12.0542 10.2825 5.20467 3.23518 3.23077 5.53224 2.63915 1.96065 1.76841 1.57763 1.26134 1.0662 1.00838 0.823756 0.554323 0.548092 0.469328 0.452439 0.394899 0.350732 0.237114 0.211288 0.179862 0.151886 0.121297 0.0824889 0.0760865 0.0689905 0.0648899 0.0214161 0.020662
threshold=960.50000000000011 2164.5000000000005 -0.060053929645898042 -0.0070672195018731112 1250.0000000000002 2308.5000000000005 583.50000000000011 3395.5000000000005 2817.5000000000005 0.52654451000860625 -0.061760402767996485 1814.5000000000002 -0.10742483975169252 3253.5000000000005 0.047726919833639386 3834.5000000000005 0.70273972602739743 -0.19259376196688208 -0.10732975025992751 774.00000000000011 2367.5000000000005 47.040549098145483 2005.5000000000002 0.69726027397260293 0.23698630136986304 0.17123287671232881 0.77562067868539608 1581.5000000000002 -0.10935896799639645 0.003272814998440691 0.072173387876671283 0.057097968390790753 0.426027397260274 -0.0037885122736863726 0.038499658312895667
decision_type=2 2 2 2 2 2 2 2 2 2 2 2 2 2 2 2 2 2 2 2 2 2 2 2 2 2 2 2 2 2 2 2 2 2 2
left_child=6 4 5 7 16 33 -1 23 25 13 -7 21 -13 -10 34 -11 26 31 20 -16 -12 24 28 -4 -6 -5 -2 29 -14 -23 -26 -9 -19 -3 -8
right_child=1 2 3 8 11 10 14 17 9 15 18 12 22 -15 19 -17 -18 32 -20 -21 -22 27 -24 -25 30 -27 -28 -29 -30 -31 -32 -33 -34 -35 -36
leaf_value=0.001946379848722066 -0.0021098463332275869 0.0015303682568522852 -0.00172840382842703 0.00060993766009906597 -0.0074467728426084491 0.022024833604070534 0.016601691090057939 0.0083541918334605753 -0.0057112653274170649 -0.0059257077903926139 0.0095786455494031256 -0.0059866865665692964 -0.010615606722952444 -0.00015970668815389261 0.014976196941147501 -0.010200172809167168 0.004463630324709123 0.0057265412651884033 0.0086618684244970986 0.0092643870326620716 0.014191884172373805 -0.00628120858547757 -0.01574431628425799 0.0020494709554760245 -0.0052447124253666849 0.0040412883976177968 0.00052279830878695184 -0.0093148742880918029 -0.01359252370438775 -0.0084063477789996111 -0.0030886876648371542 0.01081004020485464 0.0034992126506862564 0.00038915691813210695 0.019794504765145646
leaf_weight=35 40 35 43 30 39 31 32 63 57 207 31 52 71 245 35 75 57 43 35 36 113 72 34 45 51 42 53 59 31 43 35 31 31 42 31
leaf_count=35 40 35 43 30 39 31 32 63 57 207 31 52 71 245 35 75 57 43 35 36 113 72 34 45 51 42 53 59 31 43 35 31 31 42 31
internal_value=0.000126389 -0.000998054 0.00170963 -0.00101314 -0.00609879 0.0103696 0.0123533 0.00486497 -0.00331201 -0.00405325 0.0138077 -0.00838959 -0.0108202 -0.00121899 0.0150457 -0.00707638 0.00131931 0.00730506 0.0123564 0.0121394 0.0132269 -0.00684816 -0.0126405 0.000169545 -0.00538438 0.002656 -0.000578349 -0.00787879 -0.0115622 -0.0071085 -0.00440671 0.00920661 0.00483994 0.000948112 0.0182492
internal_weight=2005 1836 1199 912 637 287 169 256 656 584 210 487 188 302 134 282 150 168 179 71 144 299 136 88 125 72 93 174 102 115 86 94 74 77 63
internal_count=2005 1836 1199 912 637 287 169 256 656 584 210 487 188 302 134 282 150 168 179 71 144 299 136 88 125 72 93 174 102 115 86 94 74 77 63
is_linear=0
shrinkage=0.03


Tree=24
num_leaves=40
num_cat=0
split_feature=20 25 8 8 8 75 25 68 74 75 39 75 8 8 75 74 74 7 15 38 68 75 39 74 74 8 20 12 74 75 16 39 39 20 15 15 61 7 15
split_gain=30.8628 25.3398 19.3894 14.4986 6.92412 4.80198 4.6031 4.19932 3.87628 3.61137 3.08403 2.94417 2.28333 1.61951 1.80213 1.45154 1.29127 1.23398 1.1359 1.06205 0.996076 0.815237 0.501634 0.741259 0.490737 0.441182 0.405216 0.372716 0.348829 0.315465 0.380312 0.313584 0.402177 0.241663 0.15549 0.120802 0.115632 0.0941161 0.039462
threshold=0.045349605112676043 0.26676259608728964 1.4924098593998076 -0.14645252404834999 -0.36143409355423473 2670.5000000000005 1.4526069252750562 -0.23083217642029261 0.28082191780821925 2164.5000000000005 0.057947885817652207 2975.5000000000005 0.67310016028682573 0.13923609002831097 3310.5000000000005 0.16575342465753426 0.47808219178082195 1.5144528409825231 -0.00019197702499543963 0.026268514079024533 -0.15149368132389035 1581.5000000000002 0.22830519048291489 0.87808219178082203 0.55205479452054795 0.57425363292049958 0.040929832217873961 0.046802091051057447 0.4479452054794521 3834.5000000000005 0.035081284823515628 0.18270561269197297 0.050788015201466592 0.0492246742458336 0.013378239529539237 0.0028793587827105551 0.23153349239694967 -0.087325001130036869 -0.00038877188475300171
decision_type=2 2 2 2 2 2 2 2 2 2 2 2 2 2 2 2 2 2 2 2 2 2 2 2 2 2 2 2 2 2 2 2 2 2 2 2 2 2 2
left_child=1 3 5 7 -3 6 16 -1 20 12 24 15 21 14 28 -4 33 27 26 -12 -6 -10 23 -18 -11 31 37 -17 -5 30 -22 32 -15 -2 -19 -24 38 -9 -16
right_child=2 4 11 13 8 -7 -8 18 9 10 19 -13 -14 25 36 17 22 34 -20 -21 29 -23 35 -25 -26 -27 -28 -29 -30 -31 -32 -33 -34 -35 -36 -37 -38 -39 -40
leaf_value=0.018473934779714596 0.014340668532774346 0.0060881398586808506 -0.0041808952090210049 -0.0051736583904768542 -0.01514655090150643 0.0015434540934107343 0.001092437386195062 0.0093151125169774595 -0.0055787283093024021 0.0061096215158997968 -0.0016718683190659056 -0.0093303292333313127 0.00012898397164992019 -0.0014347404477653767 0.0050162574241303989 0.0024939128352971514 0.008199241037429179 -0.0017699275407971823 0.0015174159980661922 -0.0069268572750977395 -0.0054550275595160831 -0.0088958824801162947 0.015432089561940636 0.014029193336718549 0.00089868407696485502 -0.0050700728443135151 0.0045686359477185995 0.0069692164149014225 -0.00070999994482393209 -0.011846013444959244 -0.0092783900424765805 0.00023400900338769928 -0.0050581196708315143 0.018278745061560183 0.00085281845527879077 0.01211943635323761 0.0016666566586664155 0.006867136134853266 0.0032695512106986182
leaf_weight=33 45 42 44 30 30 47 32 88 109 30 67 31 36 87 35 36 67 44 32 76 37 207 34 32 39 55 31 37 37 34 103 43 43 43 36 43 30 33 47
leaf_count=33 45 42 44 30 30 47 32 88 109 30 67 31 36 87 35 36 67 44 32 76 37 207 34 32 39 55 31 37 37 34 103 43 43 43 36 43 30 33 47
internal_value=0.000122803 -0.00222437 0.00602206 0.0023156 -0.00572538 0.0105288 0.0119444 0.00857782 -0.00637605 -0.00508172 -0.00196736 -0.000746294 -0.0069478 -0.00101715 0.00110645 0.000593321 0.0132475 0.00198773 0.00677761 -0.00448858 -0.00993554 -0.00776329 0.011687 0.0101262 0.00321329 -0.00269726 0.00786356 0.00480969 -0.00275809 -0.00901167 -0.00829396 -0.00192308 -0.00265927 0.0163176 -0.000552647 0.0136392 0.00344543 0.00867848 0.00405684
internal_weight=2005 1434 571 624 810 343 296 217 768 564 212 228 352 407 179 197 264 153 184 143 204 316 176 99 69 228 152 73 67 174 140 173 130 88 80 77 112 121 82
internal_count=2005 1434 571 624 810 343 296 217 768 564 212 228 352 407 179 197 264 153 184 143 204 316 176 99 69 228 152 73 67 174 140 173 130 88 80 77 112 121 82
is_linear=0
shrinkage=0.03


Tree=25
num_leaves=45
num_cat=0
split_feature=60 25 19 19 57 75 25 72 75 35 38 75 39 8 57 19 57 74 39 75 38 57 39 74 57 54 60 25 35 60 60 75 15 74 16 72 55 57 32 74 39 27 15 19
split_gain=29.3448 22.7173 19.0832 13.0442 8.59803 4.29526 4.16374 3.287 3.50147 2.78261 2.44073 2.02108 2.28063 2.00746 1.65868 1.53363 1.44818 1.29646 1.08069 0.944994 0.788204 0.70495 0.649907 0.608763 0.5434 0.524399 0.446502 0.381238 0.357854 0.345839 0.299445 0.264118 0.261081 0.243334 0.238642 0.203154 0.191632 0.183678 0.179307 0.187203 0.178715 0.171809 0.137523 0.126376
threshold=0.71990266309874473 0.27113269964245162 0.003742313607448991 -0.00057411840733451863 0.7523972367312769 2670.5000000000005 1.4526069252750562 0.37500000000000006 2164.5000000000005 0.40718311904960519 -0.055322225807188867 1250.0000000000002 0.36414972316788935 0.51898628237683442 0.5430296456022462 0.0006090920875755759 0.57911213730224109 0.51643835616438361 0.37166609948320745 1581.5000000000002 -0.055322225807188867 0.45865338491723201 0.23199841760155129 0.86986301369863017 0.43224316210133368 0.046799298540721138 0.82204129065209119 0.54138621887517646 0.0042557412687662674 0.73388176120531534 0.50057945736481879 3773.5000000000005 -0.0028073259689677561 0.57397260273972617 0.04073777909197826 0.45833333333333343 0.041658760130351712 0.58798230857419942 0.019601133795242313 0.4205479452054795 -0.052564234250480006 -0.018236642551459344 -0.001808088887515231 3.3595237468710053e-05
decision_type=2 2 2 2 2 2 2 2 2 2 2 2 2 2 2 2 2 2 2 2 2 2 2 2 2 2 2 2 2 2 2 2 2 2 2 2 2 2 2 2 2 2 2 2
left_child=1 3 5 9 7 6 17 20 10 14 -9 18 -13 33 30 16 35 26 29 -12 34 31 23 -19 -22 -26 41 -15 -23 -4 -1 36 -18 -10 -3 -5 -17 -24 39 -20 -33 -2 -32 -37
right_child=2 4 11 15 -6 -7 -8 8 13 -11 19 12 -14 27 -16 21 32 22 38 -21 24 28 37 -25 25 -27 -28 -29 -30 -31 42 40 -34 -35 -36 43 -38 -39 -40 -41 -42 -43 -44 -45
leaf_value=0.010601331029859041 0.01137753369503243 -0.0043324411068001202 0.0021123942750778607 0.0044674433381529021 0.010218687313686177 0.0014820184377668556 0.0010280768517089275 -0.00022680158732803004 0.0033793608992982349 0.016173578861526375 -0.0053698118548033882 -0.0083714821168191147 0.0010910175546325574 -0.0072959865718825248 0.0016846537346147424 -0.0017044497426401618 -0.00069020023591123345 0.0070468206703662873 0 -0.0090245689096747333 -0.0069700703807935417 -0.0069644792053569736 0.014536878837542407 0.012558536641423488 -0.014732040799315718 -0.0099146879484484363 0.01853011580525487 -0.0032145038872939233 -0.0025046562356294201 0.0068270672746373962 0.0080269806547899007 -0.00065154737393770896 -0.0047526374761122986 0.00021939792930266089 -0.0080002429913681779 0.0028813563981436355 0.0016517427823571271 0.010794659864011126 0.0010648041872833019 -0.0032276550927154497 -0.0036692195865722838 0.015027218178167179 0.0052123512799621017 0.00024052100179722933
leaf_weight=39 30 37 31 46 30 46 32 47 33 32 108 52 40 35 49 31 30 60 30 180 44 44 42 30 31 100 31 62 30 30 72 30 31 72 39 42 30 33 35 31 55 53 31 31
